{"learner":{"attributes":{"best_iteration":"199","best_ntree_limit":"200","scikit_learn":"{\"use_label_encoder\": false, \"n_estimators\": 200, \"objective\": \"multi:softprob\", \"max_depth\": 2, \"max_leaves\": null, \"max_bin\": null, \"grow_policy\": null, \"learning_rate\": 0.3, \"verbosity\": null, \"booster\": null, \"tree_method\": null, \"gamma\": null, \"min_child_weight\": null, \"max_delta_step\": null, \"subsample\": null, \"sampling_method\": null, \"colsample_bytree\": null, \"colsample_bylevel\": null, \"colsample_bynode\": null, \"reg_alpha\": null, \"reg_lambda\": null, \"scale_pos_weight\": null, \"base_score\": null, \"missing\": NaN, \"num_parallel_tree\": null, \"random_state\": null, \"n_jobs\": null, \"monotone_constraints\": null, \"interaction_constraints\": null, \"importance_type\": null, \"gpu_id\": null, \"validate_parameters\": null, \"predictor\": null, \"enable_categorical\": false, \"max_cat_to_onehot\": null, \"eval_metric\": null, \"early_stopping_rounds\": null, \"callbacks\": null, \"classes_\": [0, 1, 2], \"n_classes_\": 3, \"_estimator_type\": \"classifier\"}"},"feature_names":[],"feature_types":[],"gradient_booster":{"model":{"gbtree_model_param":{"num_parallel_tree":"1","num_trees":"600","size_leaf_vector":"0"},"tree_info":[0,1,2,0,1,2,0,1,2,0,1,2,0,1,2,0,1,2,0,1,2,0,1,2,0,1,2,0,1,2,0,1,2,0,1,2,0,1,2,0,1,2,0,1,2,0,1,2,0,1,2,0,1,2,0,1,2,0,1,2,0,1,2,0,1,2,0,1,2,0,1,2,0,1,2,0,1,2,0,1,2,0,1,2,0,1,2,0,1,2,0,1,2,0,1,2,0,1,2,0,1,2,0,1,2,0,1,2,0,1,2,0,1,2,0,1,2,0,1,2,0,1,2,0,1,2,0,1,2,0,1,2,0,1,2,0,1,2,0,1,2,0,1,2,0,1,2,0,1,2,0,1,2,0,1,2,0,1,2,0,1,2,0,1,2,0,1,2,0,1,2,0,1,2,0,1,2,0,1,2,0,1,2,0,1,2,0,1,2,0,1,2,0,1,2,0,1,2,0,1,2,0,1,2,0,1,2,0,1,2,0,1,2,0,1,2,0,1,2,0,1,2,0,1,2,0,1,2,0,1,2,0,1,2,0,1,2,0,1,2,0,1,2,0,1,2,0,1,2,0,1,2,0,1,2,0,1,2,0,1,2,0,1,2,0,1,2,0,1,2,0,1,2,0,1,2,0,1,2,0,1,2,0,1,2,0,1,2,0,1,2,0,1,2,0,1,2,0,1,2,0,1,2,0,1,2,0,1,2,0,1,2,0,1,2,0,1,2,0,1,2,0,1,2,0,1,2,0,1,2,0,1,2,0,1,2,0,1,2,0,1,2,0,1,2,0,1,2,0,1,2,0,1,2,0,1,2,0,1,2,0,1,2,0,1,2,0,1,2,0,1,2,0,1,2,0,1,2,0,1,2,0,1,2,0,1,2,0,1,2,0,1,2,0,1,2,0,1,2,0,1,2,0,1,2,0,1,2,0,1,2,0,1,2,0,1,2,0,1,2,0,1,2,0,1,2,0,1,2,0,1,2,0,1,2,0,1,2,0,1,2,0,1,2,0,1,2,0,1,2,0,1,2,0,1,2,0,1,2,0,1,2,0,1,2,0,1,2,0,1,2,0,1,2,0,1,2,0,1,2,0,1,2,0,1,2,0,1,2,0,1,2,0,1,2,0,1,2,0,1,2,0,1,2,0,1,2,0,1,2,0,1,2,0,1,2,0,1,2,0,1,2,0,1,2,0,1,2,0,1,2,0,1,2,0,1,2,0,1,2,0,1,2,0,1,2,0,1,2,0,1,2,0,1,2,0,1,2,0,1,2,0,1,2,0,1,2,0,1,2,0,1,2,0,1,2,0,1,2,0,1,2,0,1,2,0,1,2,0,1,2,0,1,2,0,1,2,0,1,2],"trees":[{"base_weights":[-4.771023E-9,-6.5401256E-1,1.2285995E0,-6.985502E-1,1.3439105E0,1.3819861E0,8.0244267E-1],"categories":[],"categories_nodes":[],"categories_segments":[],"categories_sizes":[],"default_left":[1,1,1,0,0,0,0],"id":0,"left_children":[1,3,5,-1,-1,-1,-1],"loss_changes":[3.6403378E5,2.630975E4,1.0286797E4,0E0,0E0,0E0,0E0],"parents":[2147483647,0,0,1,1,2,2],"right_children":[2,4,6,-1,-1,-1,-1],"split_conditions":[3.0025482E0,2.409975E-1,4.389311E1,-2.0956507E-1,4.0317315E-1,4.1459587E-1,2.407328E-1],"split_indices":[22,24,12,0,0,0,0],"split_type":[0,0,0,0,0,0,0],"sum_hessian":[4.530471E5,2.956605E5,1.573866E5,2.89214E5,6.4465054E3,1.1572974E5,4.165685E4],"tree_param":{"num_deleted":"0","num_feature":"27","num_nodes":"7","size_leaf_vector":"0"}},{"base_weights":[-3.754046E-8,6.545148E-1,-4.518662E-1,2.1966341E-1,8.791027E-1,-5.821381E-1,1.2068492E-1],"categories":[],"categories_nodes":[],"categories_segments":[],"categories_sizes":[],"default_left":[1,1,1,0,0,0,0],"id":1,"left_children":[1,3,5,-1,-1,-1,-1],"loss_changes":[1.3399067E5,1.8070617E4,1.9990633E4,0E0,0E0,0E0,0E0],"parents":[2147483647,0,0,1,1,2,2],"right_children":[2,4,6,-1,-1,-1,-1],"split_conditions":[2.5561633E0,-1.9055802E-1,4.718324E1,6.589903E-2,2.6373082E-1,-1.7464145E-1,3.6205478E-2],"split_indices":[23,24,1,0,0,0,0],"split_type":[0,0,0,0,0,0,0],"sum_hessian":[4.530471E5,1.850325E5,2.680146E5,6.3017945E4,1.2201456E5,2.1833667E5,4.9677918E4],"tree_param":{"num_deleted":"0","num_feature":"27","num_nodes":"7","size_leaf_vector":"0"}},{"base_weights":[-6.067461E-8,2.8004405E-1,-6.018651E-1,6.843418E-1,-1.6558129E-1,-6.816438E-1,-3.7987068E-1],"categories":[],"categories_nodes":[],"categories_segments":[],"categories_sizes":[],"default_left":[1,1,1,0,0,0,0],"id":2,"left_children":[1,3,5,-1,-1,-1,-1],"loss_changes":[7.636086E4,5.570479E4,2.5476094E3,0E0,0E0,0E0,0E0],"parents":[2147483647,0,0,1,1,2,2],"right_children":[2,4,6,-1,-1,-1,-1],"split_conditions":[3.0477614E0,-1.9055802E-1,4.3367973E1,2.0530255E-1,-4.9674388E-2,-2.0449315E-1,-1.1396121E-1],"split_indices":[22,24,12,0,0,0,0],"split_type":[0,0,0,0,0,0,0],"sum_hessian":[4.530471E5,3.091855E5,1.4386158E5,1.6210956E5,1.4707594E5,1.05827875E5,3.8033715E4],"tree_param":{"num_deleted":"0","num_feature":"27","num_nodes":"7","size_leaf_vector":"0"}},{"base_weights":[-9.055619E-3,-5.961953E-1,8.3784646E-1,-6.372825E-1,9.881744E-1,3.780202E-1,9.4955593E-1],"categories":[],"categories_nodes":[],"categories_segments":[],"categories_sizes":[],"default_left":[1,1,1,0,0,0,0],"id":3,"left_children":[1,3,5,-1,-1,-1,-1],"loss_changes":[2.1795078E5,1.6851344E4,9.217875E3,0E0,0E0,0E0,0E0],"parents":[2147483647,0,0,1,1,2,2],"right_children":[2,4,6,-1,-1,-1,-1],"split_conditions":[2.982291E0,2.2808844E-1,3.0763023E0,-1.9118476E-1,2.964523E-1,1.1340606E-1,2.8486678E-1],"split_indices":[22,24,22,0,0,0,0],"split_type":[0,0,0,0,0,0,0],"sum_hessian":[4.3831047E5,2.588532E5,1.7945725E5,2.5231067E5,6.5425337E3,3.507666E4,1.443806E5],"tree_param":{"num_deleted":"0","num_feature":"27","num_nodes":"7","size_leaf_vector":"0"}},{"base_weights":[4.152502E-3,3.8459143E-1,-4.9213156E-1,1.02935426E-1,6.575354E-1,-2.1992214E-1,-6.290117E-1],"categories":[],"categories_nodes":[],"categories_segments":[],"categories_sizes":[],"default_left":[1,1,1,0,0,0,0],"id":4,"left_children":[1,3,5,-1,-1,-1,-1],"loss_changes":[8.376965E4,1.9307684E4,7.1734688E3,0E0,0E0,0E0,0E0],"parents":[2147483647,0,0,1,1,2,2],"right_children":[2,4,6,-1,-1,-1,-1],"split_conditions":[2.9193707E0,6.792772E1,3.047997E0,3.0880628E-2,1.9726062E-1,-6.597664E-2,-1.8870352E-1],"split_indices":[23,1,22,0,0,0,0],"split_type":[0,0,0,0,0,0,0],"sum_hessian":[4.436796E5,2.5115256E5,1.9252703E5,1.2360431E5,1.2754824E5,6.441984E4,1.28107195E5],"tree_param":{"num_deleted":"0","num_feature":"27","num_nodes":"7","size_leaf_vector":"0"}},{"base_weights":[4.789917E-3,2.042418E-1,-5.378577E-1,4.481477E-1,-1.8770367E-1,-6.099832E-1,-3.743063E-1],"categories":[],"categories_nodes":[],"categories_segments":[],"categories_sizes":[],"default_left":[1,1,1,0,0,0,0],"id":5,"left_children":[1,3,5,-1,-1,-1,-1],"loss_changes":[4.805732E4,3.103905E4,1.4075078E3,0E0,0E0,0E0,0E0],"parents":[2147483647,0,0,1,1,2,2],"right_children":[2,4,6,-1,-1,-1,-1],"split_conditions":[3.0653155E0,-1.0646025E-1,4.1584682E1,1.3444433E-1,-5.6311104E-2,-1.8299496E-1,-1.12291895E-1],"split_indices":[22,24,12,0,0,0,0],"split_type":[0,0,0,0,0,0,0],"sum_hessian":[4.4401897E5,3.2468178E5,1.19337195E5,2.0013716E5,1.2454461E5,8.281391E4,3.6523293E4],"tree_param":{"num_deleted":"0","num_feature":"27","num_nodes":"7","size_leaf_vector":"0"}},{"base_weights":[-2.1611795E-2,-5.5886185E-1,6.335422E-1,-5.9498435E-1,8.5745084E-1,-6.256548E-2,6.970254E-1],"categories":[],"categories_nodes":[],"categories_segments":[],"categories_sizes":[],"default_left":[1,1,1,0,0,0,0],"id":6,"left_children":[1,3,5,-1,-1,-1,-1],"loss_changes":[1.418906E5,1.1332102E4,8.0264766E3,0E0,0E0,0E0,0E0],"parents":[2147483647,0,0,1,1,2,2],"right_children":[2,4,6,-1,-1,-1,-1],"split_conditions":[2.9572034E0,2.604794E-1,3.107268E0,-1.7849532E-1,2.5723526E-1,-1.8769646E-2,2.0910764E-1],"split_indices":[22,24,23,0,0,0,0],"split_type":[0,0,0,0,0,0,0],"sum_hessian":[4.0311747E5,2.2148877E5,1.8162869E5,2.1598084E5,5.5079326E3,1.5179734E4,1.6644895E5],"tree_param":{"num_deleted":"0","num_feature":"27","num_nodes":"7","size_leaf_vector":"0"}},{"base_weights":[8.156911E-3,-3.989878E-1,3.444679E-1,-1.2436215E-1,-5.555723E-1,4.8301756E-2,4.883193E-1],"categories":[],"categories_nodes":[],"categories_segments":[],"categories_sizes":[],"default_left":[1,1,1,0,0,0,0],"id":7,"left_children":[1,3,5,-1,-1,-1,-1],"loss_changes":[5.835726E4,8.29043E3,9.943682E3,0E0,0E0,0E0,0E0],"parents":[2147483647,0,0,1,1,2,2],"right_children":[2,4,6,-1,-1,-1,-1],"split_conditions":[4.1597084E1,2.8476372E0,-3.3348238E-1,-3.7308645E-2,-1.666717E-1,1.4490527E-2,1.464958E-1],"split_indices":[1,22,24,0,0,0,0],"split_type":[0,0,0,0,0,0,0],"sum_hessian":[4.2618972E5,1.9279189E5,2.3339783E5,7.000877E4,1.2278311E5,7.6303305E4,1.5709453E5],"tree_param":{"num_deleted":"0","num_feature":"27","num_nodes":"7","size_leaf_vector":"0"}},{"base_weights":[1.2223105E-2,1.610928E-1,-4.808852E-1,3.3181956E-1,-1.9227973E-1,-3.4202346E-1,-5.688899E-1],"categories":[],"categories_nodes":[],"categories_segments":[],"categories_sizes":[],"default_left":[1,1,1,0,0,0,0],"id":8,"left_children":[1,3,5,-1,-1,-1,-1],"loss_changes":[3.1444432E4,1.9849656E4,1.213668E3,0E0,0E0,0E0,0E0],"parents":[2147483647,0,0,1,1,2,2],"right_children":[2,4,6,-1,-1,-1,-1],"split_conditions":[3.0725436E0,-5.1464505E-2,9.537857E-1,9.954587E-2,-5.768392E-2,-1.0260704E-1,-1.7066698E-1],"split_indices":[22,24,4,0,0,0,0],"split_type":[0,0,0,0,0,0,0],"sum_hessian":[4.2834434E5,3.2901516E5,9.9329195E4,2.2183761E5,1.0717753E5,3.8533098E4,6.07961E4],"tree_param":{"num_deleted":"0","num_feature":"27","num_nodes":"7","size_leaf_vector":"0"}},{"base_weights":[-3.3466704E-2,-5.311606E-1,5.075632E-1,-5.642221E-1,7.4618334E-1,6.609874E-1,1.8754792E-1],"categories":[],"categories_nodes":[],"categories_segments":[],"categories_sizes":[],"default_left":[1,1,1,0,0,0,0],"id":9,"left_children":[1,3,5,-1,-1,-1,-1],"loss_changes":[9.7446984E4,7.9608555E3,8.513445E3,0E0,0E0,0E0,0E0],"parents":[2147483647,0,0,1,1,2,2],"right_children":[2,4,6,-1,-1,-1,-1],"split_conditions":[2.934062E0,2.7984226E-1,4.165928E1,-1.6926664E-1,2.23855E-1,1.9829622E-1,5.6264378E-2],"split_indices":[22,24,12,0,0,0,0],"split_type":[0,0,0,0,0,0,0],"sum_hessian":[3.618949E5,1.8849667E5,1.7339823E5,1.8374144E5,4.7552266E3,1.1720557E5,5.619266E4],"tree_param":{"num_deleted":"0","num_feature":"27","num_nodes":"7","size_leaf_vector":"0"}},{"base_weights":[1.137121E-2,-2.8455415E-1,3.4000888E-1,-5.1140316E-2,-4.9072E-1,1.6474243E-1,4.7312298E-1],"categories":[],"categories_nodes":[],"categories_segments":[],"categories_sizes":[],"default_left":[1,1,1,0,0,0,0],"id":10,"left_children":[1,3,5,-1,-1,-1,-1],"loss_changes":[3.9391492E4,1.0256197E4,4.477379E3,0E0,0E0,0E0,0E0],"parents":[2147483647,0,0,1,1,2,2],"right_children":[2,4,6,-1,-1,-1,-1],"split_conditions":[5.3153816E1,3.0688956E0,9.4983536E1,-1.5342095E-2,-1.47216E-1,4.942273E-2,1.419369E-1],"split_indices":[1,23,2,0,0,0,0],"split_type":[0,0,0,0,0,0,0],"sum_hessian":[4.0504266E5,2.1312873E5,1.9191394E5,9.9959414E4,1.1316932E5,8.2841625E4,1.0907231E5],"tree_param":{"num_deleted":"0","num_feature":"27","num_nodes":"7","size_leaf_vector":"0"}},{"base_weights":[1.8292835E-2,1.293209E-1,-4.3767264E-1,2.998414E-1,-1.4490376E-1,-5.1855946E-1,-2.7737927E-1],"categories":[],"categories_nodes":[],"categories_segments":[],"categories_sizes":[],"default_left":[1,1,1,0,0,0,0],"id":11,"left_children":[1,3,5,-1,-1,-1,-1],"loss_changes":[2.0771709E4,1.542927E4,1.0415869E3,0E0,0E0,0E0,0E0],"parents":[2147483647,0,0,1,1,2,2],"right_children":[2,4,6,-1,-1,-1,-1],"split_conditions":[3.081595E0,8.980046E1,4.1584682E1,8.9952424E-2,-4.347113E-2,-1.5556784E-1,-8.3213784E-2],"split_indices":[22,2,12,0,0,0,0],"split_type":[0,0,0,0,0,0,0],"sum_hessian":[4.1030347E5,3.2995884E5,8.034461E4,2.0344872E5,1.26510125E5,5.339722E4,2.694739E4],"tree_param":{"num_deleted":"0","num_feature":"27","num_nodes":"7","size_leaf_vector":"0"}},{"base_weights":[-4.345279E-2,-5.075923E-1,4.2066243E-1,5.5777854E-1,-5.450555E-1,5.90014E-1,1.4469378E-1],"categories":[],"categories_nodes":[],"categories_segments":[],"categories_sizes":[],"default_left":[1,1,1,0,0,0,0],"id":12,"left_children":[1,3,5,-1,-1,-1,-1],"loss_changes":[6.940158E4,6.4295273E3,7.528707E3,0E0,0E0,0E0,0E0],"parents":[2147483647,0,0,1,1,2,2],"right_children":[2,4,6,-1,-1,-1,-1],"split_conditions":[2.9170148E0,1.1260101E1,3.9650787E1,1.6733357E-1,-1.6351666E-1,1.770042E-1,4.3408133E-2],"split_indices":[22,1,12,0,0,0,0],"split_type":[0,0,0,0,0,0,0],"sum_hessian":[3.2217528E5,1.6108336E5,1.610919E5,5.471514E3,1.5561186E5,9.98293E4,6.1262605E4],"tree_param":{"num_deleted":"0","num_feature":"27","num_nodes":"7","size_leaf_vector":"0"}},{"base_weights":[1.2686142E-2,-3.5733768E-1,1.972648E-1,-1.7308179E-1,-5.234852E-1,-5.023397E-2,3.056335E-1],"categories":[],"categories_nodes":[],"categories_segments":[],"categories_sizes":[],"default_left":[1,1,1,0,0,0,0],"id":13,"left_children":[1,3,5,-1,-1,-1,-1],"loss_changes":[2.6318129E4,3.9259844E3,6.8955596E3,0E0,0E0,0E0,0E0],"parents":[2147483647,0,0,1,1,2,2],"right_children":[2,4,6,-1,-1,-1,-1],"split_conditions":[3.3561573E1,3.0218425E0,-4.1105184E-1,-5.1924538E-2,-1.5704556E-1,-1.5070192E-2,9.169005E-2],"split_indices":[1,22,24,0,0,0,0],"split_type":[0,0,0,0,0,0,0],"sum_hessian":[3.8533772E5,1.28244914E5,2.5709281E5,6.080966E4,6.743526E4,7.8290016E4,1.788028E5],"tree_param":{"num_deleted":"0","num_feature":"27","num_nodes":"7","size_leaf_vector":"0"}},{"base_weights":[2.3102771E-2,1.0284268E-1,-4.4377512E-1,1.7722325E-1,-1.8084227E-1,-5.175543E-1,-1.0072311E-1],"categories":[],"categories_nodes":[],"categories_segments":[],"categories_sizes":[],"default_left":[1,1,1,0,0,0,0],"id":14,"left_children":[1,3,5,-1,-1,-1,-1],"loss_changes":[1.4681901E4,7.1075547E3,1.45604E3,0E0,0E0,0E0,0E0],"parents":[2147483647,0,0,1,1,2,2],"right_children":[2,4,6,-1,-1,-1,-1],"split_conditions":[9.7420835E-1,1.01794716E2,8.355179E1,5.3166978E-2,-5.425268E-2,-1.5526628E-1,-3.0216934E-2],"split_indices":[4,11,26,0,0,0,0],"split_type":[0,0,0,0,0,0,0],"sum_hessian":[3.943672E5,3.3683806E5,5.752912E4,2.6686738E5,6.997071E4,4.7346043E4,1.0183079E4],"tree_param":{"num_deleted":"0","num_feature":"27","num_nodes":"7","size_leaf_vector":"0"}},{"base_weights":[-5.2952502E-2,-4.8014113E-1,3.6919603E-1,-5.4853505E-1,6.931915E-1,9.5629826E-2,5.232416E-1],"categories":[],"categories_nodes":[],"categories_segments":[],"categories_sizes":[],"default_left":[1,1,1,0,0,0,0],"id":15,"left_children":[1,3,5,-1,-1,-1,-1],"loss_changes":[5.187295E4,1.1473445E4,6.096826E3,0E0,0E0,0E0,0E0],"parents":[2147483647,0,0,1,1,2,2],"right_children":[2,4,6,-1,-1,-1,-1],"split_conditions":[3.1019151E0,2.5114012E-1,3.0932288E0,-1.6456053E-1,2.0795746E-1,2.8688949E-2,1.5697248E-1],"split_indices":[23,24,22,0,0,0,0],"split_type":[0,0,0,0,0,0,0],"sum_hessian":[2.8764247E5,1.429677E5,1.4467475E5,1.350936E5,7.8741123E3,5.211913E4,9.2555625E4],"tree_param":{"num_deleted":"0","num_feature":"27","num_nodes":"7","size_leaf_vector":"0"}},{"base_weights":[1.2373807E-2,1.1585683E-1,-4.6349317E-1,-4.6508905E-2,2.8587845E-1,-5.129856E-1,-3.2858822E-1],"categories":[],"categories_nodes":[],"categories_segments":[],"categories_sizes":[],"default_left":[1,1,1,0,0,0,0],"id":16,"left_children":[1,3,5,-1,-1,-1,-1],"loss_changes":[1.812819E4,8.347251E3,4.3886133E2,0E0,0E0,0E0,0E0],"parents":[2147483647,0,0,1,1,2,2],"right_children":[2,4,6,-1,-1,-1,-1],"split_conditions":[3.0498078E0,6.333805E1,2.5930199E1,-1.3952672E-2,8.576354E-2,-1.5389568E-1,-9.857647E-2],"split_indices":[22,1,1,0,0,0,0],"split_type":[0,0,0,0,0,0,0],"sum_hessian":[3.6812672E5,3.0237284E5,6.5753875E4,1.5466908E5,1.4770377E5,4.8103426E4,1.7650445E4],"tree_param":{"num_deleted":"0","num_feature":"27","num_nodes":"7","size_leaf_vector":"0"}},{"base_weights":[2.7882306E-2,9.837024E-2,-3.964127E-1,2.038162E-1,-1.6775686E-1,-3.012283E-1,-5.32253E-1],"categories":[],"categories_nodes":[],"categories_segments":[],"categories_sizes":[],"default_left":[1,1,1,0,0,0,0],"id":17,"left_children":[1,3,5,-1,-1,-1,-1],"loss_changes":[1.1451861E4,9.214396E3,7.051621E2,0E0,0E0,0E0,0E0],"parents":[2147483647,0,0,1,1,2,2],"right_children":[2,4,6,-1,-1,-1,-1],"split_conditions":[3.0969882E0,-1.5857704E-2,1.3134161E2,6.1144862E-2,-5.032706E-2,-9.0368494E-2,-1.5967591E-1],"split_indices":[22,24,8,0,0,0,0],"split_type":[0,0,0,0,0,0,0],"sum_hessian":[3.8290475E5,3.283559E5,5.4548848E4,2.3517439E5,9.318153E4,3.207609E4,2.2472758E4],"tree_param":{"num_deleted":"0","num_feature":"27","num_nodes":"7","size_leaf_vector":"0"}},{"base_weights":[-6.36122E-2,-4.489187E-1,3.2287273E-1,-5.277948E-1,6.070882E-1,4.8709738E-1,4.703972E-2],"categories":[],"categories_nodes":[],"categories_segments":[],"categories_sizes":[],"default_left":[1,1,1,0,0,0,0],"id":18,"left_children":[1,3,5,-1,-1,-1,-1],"loss_changes":[3.7880184E4,1.0610379E4,5.75258E3,0E0,0E0,0E0,0E0],"parents":[2147483647,0,0,1,1,2,2],"right_children":[2,4,6,-1,-1,-1,-1],"split_conditions":[3.115519E0,2.1567039E-1,1.7869362E1,-1.5833844E-1,1.8212646E-1,1.4612922E-1,1.4111917E-2],"split_indices":[23,24,1,0,0,0,0],"split_type":[0,0,0,0,0,0,0],"sum_hessian":[2.543723E5,1.27380266E5,1.2699203E5,1.1852761E5,8.852656E3,7.959953E4,4.73925E4],"tree_param":{"num_deleted":"0","num_feature":"27","num_nodes":"7","size_leaf_vector":"0"}},{"base_weights":[1.373744E-2,-3.1688473E-1,1.24147385E-1,-1.6770457E-1,-4.787896E-1,-7.698295E-2,2.0537321E-1],"categories":[],"categories_nodes":[],"categories_segments":[],"categories_sizes":[],"default_left":[1,1,1,0,0,0,0],"id":19,"left_children":[1,3,5,-1,-1,-1,-1],"loss_changes":[1.2818104E4,2.123129E3,4.300496E3,0E0,0E0,0E0,0E0],"parents":[2147483647,0,0,1,1,2,2],"right_children":[2,4,6,-1,-1,-1,-1],"split_conditions":[2.8646793E1,3.0321207E0,-4.6266592E-1,-5.031137E-2,-1.4363688E-1,-2.3094887E-2,6.1611965E-2],"split_indices":[1,22,24,0,0,0,0],"split_type":[0,0,0,0,0,0,0],"sum_hessian":[3.511406E5,8.790564E4,2.6323497E5,4.5751734E4,4.2153902E4,7.572522E4,1.8750975E5],"tree_param":{"num_deleted":"0","num_feature":"27","num_nodes":"7","size_leaf_vector":"0"}},{"base_weights":[3.0750394E-2,8.325306E-2,-4.0517107E-1,1.3474508E-1,-2.0216437E-1,-4.8738796E-1,-9.65101E-2],"categories":[],"categories_nodes":[],"categories_segments":[],"categories_sizes":[],"default_left":[1,1,1,0,0,0,0],"id":20,"left_children":[1,3,5,-1,-1,-1,-1],"loss_changes":[8.453209E3,4.8446816E3,1.00748535E3,0E0,0E0,0E0,0E0],"parents":[2147483647,0,0,1,1,2,2],"right_children":[2,4,6,-1,-1,-1,-1],"split_conditions":[9.807476E-1,1.09687E2,8.147432E1,4.0423524E-2,-6.0649313E-2,-1.4621639E-1,-2.895303E-2],"split_indices":[4,11,26,0,0,0,0],"split_type":[0,0,0,0,0,0,0],"sum_hessian":[3.693423E5,3.2964094E5,3.9701363E4,2.7926025E5,5.0380676E4,3.135016E4,8.351204E3],"tree_param":{"num_deleted":"0","num_feature":"27","num_nodes":"7","size_leaf_vector":"0"}},{"base_weights":[-7.041203E-2,-4.589217E-1,2.5287357E-1,-4.9104035E-1,5.837329E-1,5.040125E-1,4.468907E-2],"categories":[],"categories_nodes":[],"categories_segments":[],"categories_sizes":[],"default_left":[1,1,1,0,0,0,0],"id":21,"left_children":[1,3,5,-1,-1,-1,-1],"loss_changes":[2.8606254E4,3.4644746E3,6.499514E3,0E0,0E0,0E0,0E0],"parents":[2147483647,0,0,1,1,2,2],"right_children":[2,4,6,-1,-1,-1,-1],"split_conditions":[2.8797238E0,3.2441455E-1,3.3437325E1,-1.473121E-1,1.7511988E-1,1.5120377E-1,1.3406722E-2],"split_indices":[22,24,12,0,0,0,0],"split_type":[0,0,0,0,0,0,0],"sum_hessian":[2.2775562E5,1.0344263E5,1.24312984E5,1.0035186E5,3.0907773E3,5.634318E4,6.7969805E4],"tree_param":{"num_deleted":"0","num_feature":"27","num_nodes":"7","size_leaf_vector":"0"}},{"base_weights":[1.317239E-2,7.813734E-2,-4.220048E-1,-1.86145E-2,2.4593002E-1,-3.0495918E-1,-4.7524297E-1],"categories":[],"categories_nodes":[],"categories_segments":[],"categories_sizes":[],"default_left":[1,1,1,0,0,0,0],"id":22,"left_children":[1,3,5,-1,-1,-1,-1],"loss_changes":[9.562541E3,4.777857E3,2.736289E2,0E0,0E0,0E0,0E0],"parents":[2147483647,0,0,1,1,2,2],"right_children":[2,4,6,-1,-1,-1,-1],"split_conditions":[3.0668302E0,7.535019E1,3.1098375E0,-5.5843503E-3,7.377901E-2,-9.148776E-2,-1.425729E-1],"split_indices":[22,1,22,0,0,0,0],"split_type":[0,0,0,0,0,0,0],"sum_hessian":[3.3824025E5,2.9430594E5,4.3934316E4,1.8667002E5,1.07635914E5,1.3737894E4,3.0196424E4],"tree_param":{"num_deleted":"0","num_feature":"27","num_nodes":"7","size_leaf_vector":"0"}},{"base_weights":[3.2151133E-2,1.0772955E-1,-2.086015E-1,-3.7217283E-1,1.5049616E-1,-4.783094E-1,-8.574596E-2],"categories":[],"categories_nodes":[],"categories_segments":[],"categories_sizes":[],"default_left":[1,1,1,0,0,0,0],"id":23,"left_children":[1,3,5,-1,-1,-1,-1],"loss_changes":[6.5544106E3,5.6267246E3,2.8516956E3,0E0,0E0,0E0,0E0],"parents":[2147483647,0,0,1,1,2,2],"right_children":[2,4,6,-1,-1,-1,-1],"split_conditions":[3.3694416E-2,2.0639194E1,3.429095E1,-1.1165185E-1,4.514885E-2,-1.4349282E-1,-2.5723789E-2],"split_indices":[24,12,1,0,0,0,0],"split_type":[0,0,0,0,0,0,0],"sum_hessian":[3.6021528E5,2.7415238E5,8.606289E4,2.2431479E4,2.517209E5,2.6933096E4,5.9129793E4],"tree_param":{"num_deleted":"0","num_feature":"27","num_nodes":"7","size_leaf_vector":"0"}},{"base_weights":[-7.757431E-2,-4.1791737E-1,2.4280658E-1,-4.9761423E-1,5.270103E-1,3.5008516E-2,4.3011165E-1],"categories":[],"categories_nodes":[],"categories_segments":[],"categories_sizes":[],"default_left":[1,1,1,0,0,0,0],"id":24,"left_children":[1,3,5,-1,-1,-1,-1],"loss_changes":[2.2339928E4,7.4816836E3,4.107572E3,0E0,0E0,0E0,0E0],"parents":[2147483647,0,0,1,1,2,2],"right_children":[2,4,6,-1,-1,-1,-1],"split_conditions":[3.120663E0,2.1491925E-1,3.1046264E0,-1.4928427E-1,1.5810311E-1,1.0502555E-2,1.290335E-1],"split_indices":[23,24,22,0,0,0,0],"split_type":[0,0,0,0,0,0,0],"sum_hessian":[2.0487744E5,9.934363E4,1.05533805E5,9.161697E4,7.7266616E3,5.003058E4,5.5503223E4],"tree_param":{"num_deleted":"0","num_feature":"27","num_nodes":"7","size_leaf_vector":"0"}},{"base_weights":[1.3592946E-2,-3.0314302E-1,8.107736E-2,-1.22722566E-1,-4.0491012E-1,-8.864539E-2,1.4650728E-1],"categories":[],"categories_nodes":[],"categories_segments":[],"categories_sizes":[],"default_left":[1,1,1,0,0,0,0],"id":25,"left_children":[1,3,5,-1,-1,-1,-1],"loss_changes":[6.9944966E3,1.0552402E3,2.9956465E3,0E0,0E0,0E0,0E0],"parents":[2147483647,0,0,1,1,2,2],"right_children":[2,4,6,-1,-1,-1,-1],"split_conditions":[2.3218487E1,3.1019151E0,-4.9946043E-1,-3.6816772E-2,-1.2147304E-1,-2.6593618E-2,4.3952186E-2],"split_indices":[1,23,24,0,0,0,0],"split_type":[0,0,0,0,0,0,0],"sum_hessian":[3.272297E5,5.7473965E4,2.6975572E5,2.0727998E4,3.674597E4,7.505792E4,1.9469781E5],"tree_param":{"num_deleted":"0","num_feature":"27","num_nodes":"7","size_leaf_vector":"0"}},{"base_weights":[3.2553572E-2,7.155347E-2,-3.504022E-1,-1.2366036E-1,1.5085079E-1,-2.053195E-1,-4.9851927E-1],"categories":[],"categories_nodes":[],"categories_segments":[],"categories_sizes":[],"default_left":[1,1,1,0,0,0,0],"id":26,"left_children":[1,3,5,-1,-1,-1,-1],"loss_changes":[5.2509976E3,4.939481E3,6.982063E2,0E0,0E0,0E0,0E0],"parents":[2147483647,0,0,1,1,2,2],"right_children":[2,4,6,-1,-1,-1,-1],"split_conditions":[3.1107328E0,6.0282295E1,1.2574216E2,-3.709811E-2,4.5255236E-2,-6.159585E-2,-1.4955579E-1],"split_indices":[22,26,8,0,0,0,0],"split_type":[0,0,0,0,0,0,0],"sum_hessian":[3.515818E5,3.1908706E5,3.2494748E4,9.217369E4,2.2691338E5,1.6416723E4,1.6078024E4],"tree_param":{"num_deleted":"0","num_feature":"27","num_nodes":"7","size_leaf_vector":"0"}},{"base_weights":[-8.492112E-2,-3.9753422E-1,1.9925055E-1,-4.727188E-1,5.409941E-1,4.475644E-1,4.760379E-2],"categories":[],"categories_nodes":[],"categories_segments":[],"categories_sizes":[],"default_left":[1,1,1,0,0,0,0],"id":27,"left_children":[1,3,5,-1,-1,-1,-1],"loss_changes":[1.6375643E4,6.1939453E3,3.6360706E3,0E0,0E0,0E0,0E0],"parents":[2147483647,0,0,1,1,2,2],"right_children":[2,4,6,-1,-1,-1,-1],"split_conditions":[3.1227796E0,2.903545E-1,2.8365574E1,-1.4181565E-1,1.6229823E-1,1.3426933E-1,1.4281138E-2],"split_indices":[23,24,12,0,0,0,0],"split_type":[0,0,0,0,0,0,0],"sum_hessian":[1.8433422E5,8.777444E4,9.655977E4,8.126488E4,6.5095557E3,3.661031E4,5.9949465E4],"tree_param":{"num_deleted":"0","num_feature":"27","num_nodes":"7","size_leaf_vector":"0"}},{"base_weights":[1.592231E-2,5.7859417E-2,-3.8640425E-1,-1.6855165E-2,2.0884839E-1,-5.4841375E-1,-3.3711717E-1],"categories":[],"categories_nodes":[],"categories_segments":[],"categories_sizes":[],"default_left":[1,1,1,0,0,0,0],"id":28,"left_children":[1,3,5,-1,-1,-1,-1],"loss_changes":[5.376738E3,3.2555938E3,2.4001514E2,0E0,0E0,0E0,0E0],"parents":[2147483647,0,0,1,1,2,2],"right_children":[2,4,6,-1,-1,-1,-1],"split_conditions":[3.0813618E0,7.851192E1,-9.9733496E-1,-5.05655E-3,6.265452E-2,-1.6452414E-1,-1.0113516E-1],"split_indices":[22,1,24,0,0,0,0],"split_type":[0,0,0,0,0,0,0],"sum_hessian":[3.1866803E5,2.8858753E5,3.0080496E4,1.9305708E5,9.553045E4,7.014219E3,2.3066277E4],"tree_param":{"num_deleted":"0","num_feature":"27","num_nodes":"7","size_leaf_vector":"0"}},{"base_weights":[3.07359E-2,5.240999E-2,-5.133014E-1,8.846348E-2,-2.7611652E-1,-5.324336E-1,1.1993292E-1],"categories":[],"categories_nodes":[],"categories_segments":[],"categories_sizes":[],"default_left":[1,1,1,0,0,0,0],"id":29,"left_children":[1,3,5,-1,-1,-1,-1],"loss_changes":[4.0589375E3,3.9209854E3,1.5984326E2,0E0,0E0,0E0,0E0],"parents":[2147483647,0,0,1,1,2,2],"right_children":[2,4,6,-1,-1,-1,-1],"split_conditions":[2.3533684E-1,1.2039673E2,4.319658E1,2.6539044E-2,-8.283496E-2,-1.5973009E-1,3.597988E-2],"split_indices":[24,13,1,0,0,0,0],"split_type":[0,0,0,0,0,0,0],"sum_hessian":[3.4422206E5,3.3103475E5,1.3187306E4,2.9829922E5,3.273552E4,1.280071E4,3.8659622E2],"tree_param":{"num_deleted":"0","num_feature":"27","num_nodes":"7","size_leaf_vector":"0"}},{"base_weights":[-8.649624E-2,-4.3098474E-1,1.423037E-1,-4.5405224E-1,9.3520325E-1,4.4717684E-1,-2.7674524E-2],"categories":[],"categories_nodes":[],"categories_segments":[],"categories_sizes":[],"default_left":[1,1,1,0,0,0,0],"id":30,"left_children":[1,3,5,-1,-1,-1,-1],"loss_changes":[1.3300497E4,2.1228408E3,5.254767E3,0E0,0E0,0E0,0E0],"parents":[2147483647,0,0,1,1,2,2],"right_children":[2,4,6,-1,-1,-1,-1],"split_conditions":[2.8349576E0,9.897764E-1,3.0424015E1,-1.3621567E-1,2.80561E-1,1.3415305E-1,-8.302358E-3],"split_indices":[22,4,12,0,0,0,0],"split_type":[0,0,0,0,0,0,0],"sum_hessian":[1.6874569E5,6.73462E4,1.0139948E5,6.6228625E4,1.1175742E3,3.6296465E4,6.510301E4],"tree_param":{"num_deleted":"0","num_feature":"27","num_nodes":"7","size_leaf_vector":"0"}},{"base_weights":[1.455136E-2,-2.8762758E-1,5.7941653E-2,-2.2076136E-1,-5.2760077E-1,1.5847129E-1,-3.1699345E-2],"categories":[],"categories_nodes":[],"categories_segments":[],"categories_sizes":[],"default_left":[1,1,1,0,0,0,0],"id":31,"left_children":[1,3,5,-1,-1,-1,-1],"loss_changes":[4.081109E3,6.2700024E2,2.4527415E3,0E0,0E0,0E0,0E0],"parents":[2147483647,0,0,1,1,2,2],"right_children":[2,4,6,-1,-1,-1,-1],"split_conditions":[1.9391336E1,1.9400093E-1,3.2052444E1,-6.622841E-2,-1.5828024E-1,4.7541387E-2,-9.509804E-3],"split_indices":[1,24,17,0,0,0,0],"split_type":[0,0,0,0,0,0,0],"sum_hessian":[3.1125638E5,3.9081203E4,2.721752E5,3.056616E4,8.515044E3,1.28295234E5,1.4387994E5],"tree_param":{"num_deleted":"0","num_feature":"27","num_nodes":"7","size_leaf_vector":"0"}},{"base_weights":[2.971542E-2,-9.770751E-2,1.1062849E-1,-3.4319654E-2,-3.6824182E-1,3.008852E-1,-2.7066959E-2],"categories":[],"categories_nodes":[],"categories_segments":[],"categories_sizes":[],"default_left":[1,1,1,0,0,0,0],"id":32,"left_children":[1,3,5,-1,-1,-1,-1],"loss_changes":[3.4928052E3,2.2562583E3,5.4281416E3,0E0,0E0,0E0,0E0],"parents":[2147483647,0,0,1,1,2,2],"right_children":[2,4,6,-1,-1,-1,-1],"split_conditions":[6.887106E1,9.379568E-1,8.095867E1,-1.0295897E-2,-1.1047255E-1,9.0265565E-2,-8.120088E-3],"split_indices":[26,4,2,0,0,0,0],"split_type":[0,0,0,0,0,0,0],"sum_hessian":[3.3877038E5,1.315708E5,2.0719958E5,1.0659587E5,2.4974941E4,8.6995234E4,1.20204336E5],"tree_param":{"num_deleted":"0","num_feature":"27","num_nodes":"7","size_leaf_vector":"0"}},{"base_weights":[-8.3037525E-2,-2.7100176E-1,3.021064E-1,3.3114684E-1,-4.213333E-1,2.0556475E-1,6.2843794E-1],"categories":[],"categories_nodes":[],"categories_segments":[],"categories_sizes":[],"default_left":[1,1,1,0,0,0,0],"id":33,"left_children":[1,3,5,-1,-1,-1,-1],"loss_changes":[1.1324913E4,9.516611E3,1.6162744E3,0E0,0E0,0E0,0E0],"parents":[2147483647,0,0,1,1,2,2],"right_children":[2,4,6,-1,-1,-1,-1],"split_conditions":[3.0906188E0,2.4812645E1,1.20655075E2,9.934405E-2,-1.264E-1,6.1669428E-2,1.8853138E-1],"split_indices":[22,12,26,0,0,0,0],"split_type":[0,0,0,0,0,0,0],"sum_hessian":[1.5643383E5,1.051279E5,5.1305934E4,2.1002363E4,8.412554E4,3.959408E4,1.1711853E4],"tree_param":{"num_deleted":"0","num_feature":"27","num_nodes":"7","size_leaf_vector":"0"}},{"base_weights":[1.2186231E-2,4.2668138E-2,-3.6105973E-1,1.7902894E-2,3.2437712E-1,-5.378053E-1,-3.0051365E-1],"categories":[],"categories_nodes":[],"categories_segments":[],"categories_sizes":[],"default_left":[1,1,1,0,0,0,0],"id":34,"left_children":[1,3,5,-1,-1,-1,-1],"loss_changes":[3.4831855E3,1.974637E3,2.4719727E2,0E0,0E0,0E0,0E0],"parents":[2147483647,0,0,1,1,2,2],"right_children":[2,4,6,-1,-1,-1,-1],"split_conditions":[3.089086E0,1.0934471E2,-9.971839E-1,5.3708684E-3,9.731314E-2,-1.6134161E-1,-9.01541E-2],"split_indices":[22,12,24,0,0,0,0],"split_type":[0,0,0,0,0,0,0],"sum_hessian":[3.0615122E5,2.8303728E5,2.3113941E4,2.6016688E5,2.2870398E4,5.895618E3,1.7218324E4],"tree_param":{"num_deleted":"0","num_feature":"27","num_nodes":"7","size_leaf_vector":"0"}},{"base_weights":[2.7725855E-2,4.255396E-2,-5.8465546E-1,1.02130465E-1,-1.402773E-1,4.1551408E-1,-5.88108E-1],"categories":[],"categories_nodes":[],"categories_segments":[],"categories_sizes":[],"default_left":[1,1,1,0,0,0,0],"id":35,"left_children":[1,3,5,-1,-1,-1,-1],"loss_changes":[3.0324653E3,3.5515872E3,2.7507568E1,0E0,0E0,0E0,0E0],"parents":[2147483647,0,0,1,1,2,2],"right_children":[2,4,6,-1,-1,-1,-1],"split_conditions":[1.24445915E2,1.6738208E-2,2.5374346E0,3.063914E-2,-4.208319E-2,1.24654226E-1,-1.764324E-1],"split_indices":[26,24,23,0,0,0,0],"split_type":[0,0,0,0,0,0,0],"sum_hessian":[3.3395147E5,3.260573E5,7.894171E3,2.4592261E5,8.0134695E4,2.674624E1,7.867425E3],"tree_param":{"num_deleted":"0","num_feature":"27","num_nodes":"7","size_leaf_vector":"0"}},{"base_weights":[-8.1638575E-2,-4.0630546E-1,1.0215447E-1,-4.4529796E-1,3.2357857E-1,2.2229312E-3,5.5653244E-1],"categories":[],"categories_nodes":[],"categories_segments":[],"categories_sizes":[],"default_left":[1,1,1,0,0,0,0],"id":36,"left_children":[1,3,5,-1,-1,-1,-1],"loss_changes":[8.612547E3,1.484956E3,4.184728E3,0E0,0E0,0E0,0E0],"parents":[2147483647,0,0,1,1,2,2],"right_children":[2,4,6,-1,-1,-1,-1],"split_conditions":[2.8045397E0,1.968784E-1,1.6973367E-1,-1.3358939E-1,9.707358E-2,6.668794E-4,1.6695973E-1],"split_indices":[22,24,24,0,0,0,0],"split_type":[0,0,0,0,0,0,0],"sum_hessian":[1.4433094E5,5.2170875E4,9.216006E4,4.9525473E4,2.6454019E3,7.5546164E4,1.6613895E4],"tree_param":{"num_deleted":"0","num_feature":"27","num_nodes":"7","size_leaf_vector":"0"}},{"base_weights":[1.1199427E-2,3.010518E-2,-4.661879E-1,-1.3707341E-1,9.0042435E-2,-1.9649987E-1,-5.190386E-1],"categories":[],"categories_nodes":[],"categories_segments":[],"categories_sizes":[],"default_left":[1,1,1,0,0,0,0],"id":37,"left_children":[1,3,5,-1,-1,-1,-1],"loss_changes":[2.7112388E3,2.8954373E3,1.630044E2,0E0,0E0,0E0,0E0],"parents":[2147483647,0,0,1,1,2,2],"right_children":[2,4,6,-1,-1,-1,-1],"split_conditions":[1.8746752E-1,-5.866554E-1,6.92394E-1,-4.1122027E-2,2.7012732E-2,-5.8949962E-2,-1.5571159E-1],"split_indices":[24,24,4,0,0,0,0],"split_type":[0,0,0,0,0,0,0],"sum_hessian":[3.0039956E5,2.8895706E5,1.1442497E4,7.625719E4,2.1269986E5,1.8757235E3,9.566773E3],"tree_param":{"num_deleted":"0","num_feature":"27","num_nodes":"7","size_leaf_vector":"0"}},{"base_weights":[2.5624914E-2,4.0930238E-2,-4.9518466E-1,-4.6985063E-1,5.6582917E-2,-5.1877564E-1,6.808762E-2],"categories":[],"categories_nodes":[],"categories_segments":[],"categories_sizes":[],"default_left":[1,1,1,0,0,0,0],"id":38,"left_children":[1,3,5,-1,-1,-1,-1],"loss_changes":[2.6188425E3,2.5517307E3,1.2466943E2,0E0,0E0,0E0,0E0],"parents":[2147483647,0,0,1,1,2,2],"right_children":[2,4,6,-1,-1,-1,-1],"split_conditions":[2.3847622E-1,-9.968378E-1,4.319658E1,-1.409552E-1,1.6974876E-2,-1.556327E-1,2.0426288E-2],"split_indices":[24,24,1,0,0,0,0],"split_type":[0,0,0,0,0,0,0],"sum_hessian":[3.2853625E5,3.1915788E5,9.378349E3,9.4888E3,3.096691E5,9.00143E3,3.7691922E2],"tree_param":{"num_deleted":"0","num_feature":"27","num_nodes":"7","size_leaf_vector":"0"}},{"base_weights":[-8.450948E-2,1.7074403E-1,-2.9704872E-1,4.7015673E-1,3.78489E-2,5.604887E-1,-3.979756E-1],"categories":[],"categories_nodes":[],"categories_segments":[],"categories_sizes":[],"default_left":[1,1,1,0,0,0,0],"id":39,"left_children":[1,3,5,-1,-1,-1,-1],"loss_changes":[7.2420654E3,2.4133193E3,6.3044062E3,0E0,0E0,0E0,0E0],"parents":[2147483647,0,0,1,1,2,2],"right_children":[2,4,6,-1,-1,-1,-1],"split_conditions":[2.2599812E1,1.14376335E1,-9.972195E-1,1.4104703E-1,1.1354671E-2,1.6814661E-1,-1.19392686E-1],"split_indices":[1,18,24,0,0,0,0],"split_type":[0,0,0,0,0,0,0],"sum_hessian":[1.3348894E5,6.065011E4,7.2838836E4,1.8643584E4,4.2006527E4,7.6694937E3,6.516934E4],"tree_param":{"num_deleted":"0","num_feature":"27","num_nodes":"7","size_leaf_vector":"0"}},{"base_weights":[1.3017084E-2,3.305756E-2,-3.3430463E-1,8.853426E-3,2.7907792E-1,-2.6408428E-1,-5.3037447E-1],"categories":[],"categories_nodes":[],"categories_segments":[],"categories_sizes":[],"default_left":[1,1,1,0,0,0,0],"id":40,"left_children":[1,3,5,-1,-1,-1,-1],"loss_changes":[2.058784E3,1.6652032E3,2.2201611E2,0E0,0E0,0E0,0E0],"parents":[2147483647,0,0,1,1,2,2],"right_children":[2,4,6,-1,-1,-1,-1],"split_conditions":[3.1005044E0,1.23913086E2,1.1664453E2,2.656028E-3,8.372338E-2,-7.922529E-2,-1.5911235E-1],"split_indices":[22,13,26,0,0,0,0],"split_type":[0,0,0,0,0,0,0],"sum_hessian":[2.9577878E5,2.7964422E5,1.6134574E4,2.5459728E5,2.5046918E4,1.1881638E4,4.252937E3],"tree_param":{"num_deleted":"0","num_feature":"27","num_nodes":"7","size_leaf_vector":"0"}},{"base_weights":[2.2926372E-2,-6.680728E-2,1.0217521E-1,-4.252548E-1,-3.945797E-2,-7.802977E-2,2.1859357E-1],"categories":[],"categories_nodes":[],"categories_segments":[],"categories_sizes":[],"default_left":[1,1,1,0,0,0,0],"id":41,"left_children":[1,3,5,-1,-1,-1,-1],"loss_changes":[2.3049426E3,1.4901519E3,3.6109E3,0E0,0E0,0E0,0E0],"parents":[2147483647,0,0,1,1,2,2],"right_children":[2,4,6,-1,-1,-1,-1],"split_conditions":[7.53347E1,1.5899017E1,2.2162741E2,-1.2757644E-1,-1.1837391E-2,-2.340893E-2,6.557807E-2],"split_indices":[26,12,3,0,0,0,0],"split_type":[0,0,0,0,0,0,0],"sum_hessian":[3.2412256E5,1.5200597E5,1.7211658E5,1.0774739E4,1.4123123E5,6.755223E4,1.0456435E5],"tree_param":{"num_deleted":"0","num_feature":"27","num_nodes":"7","size_leaf_vector":"0"}},{"base_weights":[-8.093549E-2,-2.1273306E-1,2.7334902E-1,1.7186849E-1,-4.0072238E-1,1.7723173E-1,5.6433827E-1],"categories":[],"categories_nodes":[],"categories_segments":[],"categories_sizes":[],"default_left":[1,1,1,0,0,0,0],"id":42,"left_children":[1,3,5,-1,-1,-1,-1],"loss_changes":[5.876137E3,6.631656E3,9.5425464E2,0E0,0E0,0E0,0E0],"parents":[2147483647,0,0,1,1,2,2],"right_children":[2,4,6,-1,-1,-1,-1],"split_conditions":[3.1068592E0,3.1783195E1,1.1820721E2,5.1560547E-2,-1.2021672E-1,5.3169522E-2,1.6930148E-1],"split_indices":[22,12,26,0,0,0,0],"split_type":[0,0,0,0,0,0,0],"sum_hessian":[1.2584171E5,9.172095E4,3.412076E4,3.0113254E4,6.1607695E4,2.5649898E4,8.470863E3],"tree_param":{"num_deleted":"0","num_feature":"27","num_nodes":"7","size_leaf_vector":"0"}},{"base_weights":[1.1681852E-2,2.5651304E-2,-4.4629475E-1,-8.604625E-2,8.410289E-2,-1.6613092E-1,-5.1157254E-1],"categories":[],"categories_nodes":[],"categories_segments":[],"categories_sizes":[],"default_left":[1,1,1,0,0,0,0],"id":43,"left_children":[1,3,5,-1,-1,-1,-1],"loss_changes":[1.8704524E3,1.8523174E3,1.581814E2,0E0,0E0,0E0,0E0],"parents":[2147483647,0,0,1,1,2,2],"right_children":[2,4,6,-1,-1,-1,-1],"split_conditions":[1.9355679E-1,-4.569397E-1,7.151052E-1,-2.5813876E-2,2.5230868E-2,-4.9839277E-2,-1.5347177E-1],"split_indices":[24,24,4,0,0,0,0],"split_type":[0,0,0,0,0,0,0],"sum_hessian":[2.9236128E5,2.837084E5,8.652884E3,9.746261E4,1.862458E5,1.6357976E3,7.0170864E3],"tree_param":{"num_deleted":"0","num_feature":"27","num_nodes":"7","size_leaf_vector":"0"}},{"base_weights":[2.1083403E-2,3.142272E-2,-5.617965E-1,-3.4899402E-2,1.4893259E-1,3.6424017E-1,-5.662898E-1],"categories":[],"categories_nodes":[],"categories_segments":[],"categories_sizes":[],"default_left":[1,1,1,0,0,0,0],"id":44,"left_children":[1,3,5,-1,-1,-1,-1],"loss_changes":[1.9351312E3,2.4588635E3,2.349292E1,0E0,0E0,0E0,0E0],"parents":[2147483647,0,0,1,1,2,2],"right_children":[2,4,6,-1,-1,-1,-1],"split_conditions":[1.24445915E2,8.686148E1,2.5374346E0,-1.0469821E-2,4.467978E-2,1.09272055E-1,-1.6988695E-1],"split_indices":[26,26,23,0,0,0,0],"split_type":[0,0,0,0,0,0,0],"sum_hessian":[3.210955E5,3.155E5,5.595497E3,2.0167572E5,1.138243E5,2.6632524E1,5.5688643E3],"tree_param":{"num_deleted":"0","num_feature":"27","num_nodes":"7","size_leaf_vector":"0"}},{"base_weights":[-7.9407886E-2,-1.5507811E-1,4.8784596E-1,-3.0871487E-1,2.5369808E-1,5.314637E-1,-5.8341525E-2],"categories":[],"categories_nodes":[],"categories_segments":[],"categories_sizes":[],"default_left":[1,1,1,0,0,0,0],"id":45,"left_children":[1,3,5,-1,-1,-1,-1],"loss_changes":[5.066812E3,6.540827E3,3.310122E2,0E0,0E0,0E0,0E0],"parents":[2147483647,0,0,1,1,2,2],"right_children":[2,4,6,-1,-1,-1,-1],"split_conditions":[1.8177333E-1,3.4575915E0,4.9291916E1,-9.2614464E-2,7.6109424E-2,1.5943912E-1,-1.7502459E-2],"split_indices":[24,23,1,0,0,0,0],"split_type":[0,0,0,0,0,0,0],"sum_hessian":[1.1803807E5,1.0414599E5,1.3892085E4,7.569616E4,2.844983E4,1.2864752E4,1.0273328E3],"tree_param":{"num_deleted":"0","num_feature":"27","num_nodes":"7","size_leaf_vector":"0"}},{"base_weights":[1.1466805E-2,2.4094686E-2,-4.169719E-1,-8.752369E-2,7.079794E-2,-1.7783695E-1,-5.0174516E-1],"categories":[],"categories_nodes":[],"categories_segments":[],"categories_sizes":[],"default_left":[1,1,1,0,0,0,0],"id":46,"left_children":[1,3,5,-1,-1,-1,-1],"loss_changes":[1.5638799E3,1.4637003E3,1.6768018E2,0E0,0E0,0E0,0E0],"parents":[2147483647,0,0,1,1,2,2],"right_children":[2,4,6,-1,-1,-1,-1],"split_conditions":[1.8681322E-1,6.069162E1,7.8986764E-1,-2.6257109E-2,2.1239383E-2,-5.335109E-2,-1.5052356E-1],"split_indices":[24,2,4,0,0,0,0],"split_type":[0,0,0,0,0,0,0],"sum_hessian":[2.8905462E5,2.807798E5,8.2748125E3,8.282691E4,1.979529E5,2.1664946E3,6.1083174E3],"tree_param":{"num_deleted":"0","num_feature":"27","num_nodes":"7","size_leaf_vector":"0"}},{"base_weights":[1.9063897E-2,3.0194947E-2,-4.848667E-1,5.0361823E-2,-2.4158955E-1,-1.6415846E-1,-5.2150786E-1],"categories":[],"categories_nodes":[],"categories_segments":[],"categories_sizes":[],"default_left":[1,1,1,0,0,0,0],"id":47,"left_children":[1,3,5,-1,-1,-1,-1],"loss_changes":[1.7826976E3,1.7043018E3,8.062427E1,0E0,0E0,0E0,0E0],"parents":[2147483647,0,0,1,1,2,2],"right_children":[2,4,6,-1,-1,-1,-1],"split_conditions":[2.4725963E-1,1.2728342E2,2.467134E0,1.5108547E-2,-7.2476864E-2,-4.924754E-2,-1.5645236E-1],"split_indices":[24,13,22,0,0,0,0],"split_type":[0,0,0,0,0,0,0],"sum_hessian":[3.1780878E5,3.109415E5,6.8672783E3,2.8946362E5,2.1477883E4,7.047043E2,6.162574E3],"tree_param":{"num_deleted":"0","num_feature":"27","num_nodes":"7","size_leaf_vector":"0"}},{"base_weights":[-7.397346E-2,-3.753056E-1,5.564825E-2,-4.0137157E-1,8.0871016E-1,3.7290928E-1,-5.052438E-2],"categories":[],"categories_nodes":[],"categories_segments":[],"categories_sizes":[],"default_left":[1,1,1,0,0,0,0],"id":48,"left_children":[1,3,5,-1,-1,-1,-1],"loss_changes":[4.373157E3,1.039646E3,2.6370706E3,0E0,0E0,0E0,0E0],"parents":[2147483647,0,0,1,1,2,2],"right_children":[2,4,6,-1,-1,-1,-1],"split_conditions":[2.758522E0,9.8791206E-1,2.5815184E1,-1.2041148E-1,2.4261306E-1,1.11872785E-1,-1.5157315E-2],"split_indices":[22,4,12,0,0,0,0],"split_type":[0,0,0,0,0,0,0],"sum_hessian":[1.1196079E5,3.3674844E4,7.8285945E4,3.2950113E4,7.2473206E2,1.962895E4,5.8656992E4],"tree_param":{"num_deleted":"0","num_feature":"27","num_nodes":"7","size_leaf_vector":"0"}},{"base_weights":[1.1066017E-2,7.460924E-2,-6.730857E-2,-1.9746207E-1,1.000562E-1,-3.2532245E-1,3.9449405E-2],"categories":[],"categories_nodes":[],"categories_segments":[],"categories_sizes":[],"default_left":[1,1,1,0,0,0,0],"id":49,"left_children":[1,3,5,-1,-1,-1,-1],"loss_changes":[1.4245038E3,1.0936631E3,3.5277402E3,0E0,0E0,0E0,0E0],"parents":[2147483647,0,0,1,1,2,2],"right_children":[2,4,6,-1,-1,-1,-1],"split_conditions":[3.539554E1,1.6544323E1,-2.8434163E-1,-5.9238624E-2,3.0016862E-2,-9.759674E-2,1.1834822E-2],"split_indices":[17,1,24,0,0,0,0],"split_type":[0,0,0,0,0,0,0],"sum_hessian":[2.860329E5,1.5796264E5,1.2807024E5,1.3510082E4,1.4445256E5,3.748179E4,9.058845E4],"tree_param":{"num_deleted":"0","num_feature":"27","num_nodes":"7","size_leaf_vector":"0"}},{"base_weights":[1.6251905E-2,-5.2921504E-2,9.1182046E-2,-2.6184475E-2,-2.9159018E-1,2.1596345E-1,-2.552371E-3],"categories":[],"categories_nodes":[],"categories_segments":[],"categories_sizes":[],"default_left":[1,1,1,0,0,0,0],"id":50,"left_children":[1,3,5,-1,-1,-1,-1],"loss_changes":[1.6319374E3,1.0447094E3,1.7677511E3,0E0,0E0,0E0,0E0],"parents":[2147483647,0,0,1,1,2,2],"right_children":[2,4,6,-1,-1,-1,-1],"split_conditions":[2.3769794E1,9.553971E-1,-2.623942E-1,-7.855343E-3,-8.747706E-2,6.478904E-2,-7.6571136E-4],"split_indices":[18,4,24,0,0,0,0],"split_type":[0,0,0,0,0,0,0],"sum_hessian":[3.1485103E5,1.6371458E5,1.5113644E5,1.4722294E5,1.6491646E4,6.4830836E4,8.630559E4],"tree_param":{"num_deleted":"0","num_feature":"27","num_nodes":"7","size_leaf_vector":"0"}},{"base_weights":[-6.830629E-2,-1.8547131E-1,2.559993E-1,1.5304637E-1,-3.4196058E-1,1.5630293E-1,5.4676044E-1],"categories":[],"categories_nodes":[],"categories_segments":[],"categories_sizes":[],"default_left":[1,1,1,0,0,0,0],"id":51,"left_children":[1,3,5,-1,-1,-1,-1],"loss_changes":[4.0581086E3,4.156171E3,8.215602E2,0E0,0E0,0E0,0E0],"parents":[2147483647,0,0,1,1,2,2],"right_children":[2,4,6,-1,-1,-1,-1],"split_conditions":[3.1107233E0,5.191844E1,1.1742972E2,4.5913912E-2,-1.0258818E-1,4.689088E-2,1.6402814E-1],"split_indices":[22,26,26,0,0,0,0],"split_type":[0,0,0,0,0,0,0],"sum_hessian":[1.0679776E5,7.845426E4,2.83435E4,2.4802184E4,5.3652074E4,2.1107637E4,7.2358633E3],"tree_param":{"num_deleted":"0","num_feature":"27","num_nodes":"7","size_leaf_vector":"0"}},{"base_weights":[9.520525E-3,1.9217946E-2,-4.0492284E-1,5.2565377E-2,-1.12019286E-1,-1.5720311E-1,-4.8850787E-1],"categories":[],"categories_nodes":[],"categories_segments":[],"categories_sizes":[],"default_left":[1,1,1,0,0,0,0],"id":52,"left_children":[1,3,5,-1,-1,-1,-1],"loss_changes":[1.1337167E3,1.2063086E3,1.3346533E2,0E0,0E0,0E0,0E0],"parents":[2147483647,0,0,1,1,2,2],"right_children":[2,4,6,-1,-1,-1,-1],"split_conditions":[1.9355679E-1,9.973836E1,7.1861905E-1,1.5769614E-2,-3.3605788E-2,-4.7160935E-2,-1.4655237E-1],"split_indices":[24,26,4,0,0,0,0],"split_type":[0,0,0,0,0,0,0],"sum_hessian":[2.8208412E5,2.7563556E5,6.4485493E3,2.1978795E5,5.584761E4,1.6276344E3,4.820915E3],"tree_param":{"num_deleted":"0","num_feature":"27","num_nodes":"7","size_leaf_vector":"0"}},{"base_weights":[1.48341E-2,2.3762215E-2,-5.5209124E-1,-2.8517123E-2,1.1075753E-1,2.0060383E-1,-5.62385E-1],"categories":[],"categories_nodes":[],"categories_segments":[],"categories_sizes":[],"default_left":[1,1,1,0,0,0,0],"id":53,"left_children":[1,3,5,-1,-1,-1,-1],"loss_changes":[1.5728054E3,1.3913229E3,3.744055E1,0E0,0E0,0E0,0E0],"parents":[2147483647,0,0,1,1,2,2],"right_children":[2,4,6,-1,-1,-1,-1],"split_conditions":[1.2400017E2,2.7661415E1,2.891973E0,-8.555138E-3,3.322726E-2,6.0181152E-2,-1.687155E-1],"split_indices":[26,18,23,0,0,0,0],"split_type":[0,0,0,0,0,0,0],"sum_hessian":[3.1073084E5,3.0591416E5,4.8166724E3,1.9108398E5,1.14830164E5,6.473434E1,4.751938E3],"tree_param":{"num_deleted":"0","num_feature":"27","num_nodes":"7","size_leaf_vector":"0"}},{"base_weights":[-6.5746404E-2,4.3188447E-1,-1.302412E-1,2.7061468E-1,5.4864347E-1,-2.908266E-1,1.8033339E-1],"categories":[],"categories_nodes":[],"categories_segments":[],"categories_sizes":[],"default_left":[1,1,1,0,0,0,0],"id":54,"left_children":[1,3,5,-1,-1,-1,-1],"loss_changes":[3.26842E3,2.1986108E2,4.4962754E3,0E0,0E0,0E0,0E0],"parents":[2147483647,0,0,1,1,2,2],"right_children":[2,4,6,-1,-1,-1,-1],"split_conditions":[-9.935989E-1,1.151268E2,9.50663E-1,8.118441E-2,1.6459304E-1,-8.724798E-2,5.4100018E-2],"split_indices":[24,8,4,0,0,0,0],"split_type":[0,0,0,0,0,0,0],"sum_hessian":[1.01834305E5,1.1683181E4,9.015112E4,4.9077803E3,6.7754004E3,5.942497E4,3.072615E4],"tree_param":{"num_deleted":"0","num_feature":"27","num_nodes":"7","size_leaf_vector":"0"}},{"base_weights":[9.88823E-3,-4.5312074E-1,1.7830212E-2,-4.9886993E-1,-2.812799E-1,-4.209077E-3,1.8488263E-1],"categories":[],"categories_nodes":[],"categories_segments":[],"categories_sizes":[],"default_left":[1,1,1,0,0,0,0],"id":55,"left_children":[1,3,5,-1,-1,-1,-1],"loss_changes":[1.0356578E3,3.7198547E1,1.0194372E3,0E0,0E0,0E0,0E0],"parents":[2147483647,0,0,1,1,2,2],"right_children":[2,4,6,-1,-1,-1,-1],"split_conditions":[-9.936092E-1,-9.974231E-1,1.0062412E2,-1.4966099E-1,-8.438397E-2,-1.2627231E-3,5.546479E-2],"split_indices":[24,24,12,0,0,0,0],"split_type":[0,0,0,0,0,0,0],"sum_hessian":[2.8163916E5,4.748537E3,2.7689062E5,3.7486348E3,9.999022E2,2.4461894E5,3.2271693E4],"tree_param":{"num_deleted":"0","num_feature":"27","num_nodes":"7","size_leaf_vector":"0"}},{"base_weights":[1.263507E-2,-1.5259328E-1,3.8954727E-2,-3.6520943E-1,-1.87524E-2,1.1921896E-1,-4.7080044E-2],"categories":[],"categories_nodes":[],"categories_segments":[],"categories_sizes":[],"default_left":[1,1,1,0,0,0,0],"id":56,"left_children":[1,3,5,-1,-1,-1,-1],"loss_changes":[1.3458857E3,1.2101207E3,1.8435168E3,0E0,0E0,0E0,0E0],"parents":[2147483647,0,0,1,1,2,2],"right_children":[2,4,6,-1,-1,-1,-1],"split_conditions":[2.0887177E2,-2.8581592E-1,-2.9958227E-1,-1.0956284E-1,-5.62572E-3,3.576569E-2,-1.41240135E-2],"split_indices":[3,24,24,0,0,0,0],"split_type":[0,0,0,0,0,0,0],"sum_hessian":[3.094853E5,4.252417E4,2.6696116E5,1.6426977E4,2.6097195E4,1.3811212E5,1.2884903E5],"tree_param":{"num_deleted":"0","num_feature":"27","num_nodes":"7","size_leaf_vector":"0"}},{"base_weights":[-5.5608734E-2,-1.1476669E-1,4.5835808E-1,-2.2415228E-1,2.6120263E-1,5.0361585E-2,5.1207334E-1],"categories":[],"categories_nodes":[],"categories_segments":[],"categories_sizes":[],"default_left":[1,1,1,0,0,0,0],"id":57,"left_children":[1,3,5,-1,-1,-1,-1],"loss_changes":[2.9759885E3,3.609813E3,2.2138647E2,0E0,0E0,0E0,0E0],"parents":[2147483647,0,0,1,1,2,2],"right_children":[2,4,6,-1,-1,-1,-1],"split_conditions":[1.790365E-1,3.5796316E0,7.181312E-1,-6.7245685E-2,7.8360796E-2,1.5108476E-2,1.53622E-1],"split_indices":[24,23,4,0,0,0,0],"split_type":[0,0,0,0,0,0,0],"sum_hessian":[9.7874805E4,8.777286E4,1.0101943E4,6.799159E4,1.9781266E4,1.1754791E3,8.926464E3],"tree_param":{"num_deleted":"0","num_feature":"27","num_nodes":"7","size_leaf_vector":"0"}},{"base_weights":[7.4773594E-3,1.6721461E-2,-3.502366E-1,-1.1919012E-1,4.2330388E-2,-1.7432941E-1,-4.7613075E-1],"categories":[],"categories_nodes":[],"categories_segments":[],"categories_sizes":[],"default_left":[1,1,1,0,0,0,0],"id":58,"left_children":[1,3,5,-1,-1,-1,-1],"loss_changes":[9.19977E2,9.4394073E2,1.5512494E2,0E0,0E0,0E0,0E0],"parents":[2147483647,0,0,1,1,2,2],"right_children":[2,4,6,-1,-1,-1,-1],"split_conditions":[1.79301E-1,-7.3578334E-1,8.396101E-1,-3.575704E-2,1.2699117E-2,-5.2298825E-2,-1.4283924E-1],"split_indices":[24,24,4,0,0,0,0],"split_type":[0,0,0,0,0,0,0],"sum_hessian":[2.7820953E5,2.7120203E5,7.0074946E3,4.2998254E4,2.282038E5,2.924119E3,4.0833757E3],"tree_param":{"num_deleted":"0","num_feature":"27","num_nodes":"7","size_leaf_vector":"0"}},{"base_weights":[1.0980772E-2,1.8826585E-2,-4.6590623E-1,-4.279375E-1,2.6971243E-2,-1.7344294E-1,-5.1468635E-1],"categories":[],"categories_nodes":[],"categories_segments":[],"categories_sizes":[],"default_left":[1,1,1,0,0,0,0],"id":59,"left_children":[1,3,5,-1,-1,-1,-1],"loss_changes":[1.14573E3,1.0962146E3,7.062048E1,0E0,0E0,0E0,0E0],"parents":[2147483647,0,0,1,1,2,2],"right_children":[2,4,6,-1,-1,-1,-1],"split_conditions":[2.4725963E-1,-9.9795306E-1,2.467134E0,-1.2838125E-1,8.091373E-3,-5.2032884E-2,-1.544059E-1],"split_indices":[24,24,22,0,0,0,0],"split_type":[0,0,0,0,0,0,0],"sum_hessian":[3.062133E5,3.0125794E5,4.955378E3,5.3927803E3,2.9586516E5,7.0901355E2,4.2463647E3],"tree_param":{"num_deleted":"0","num_feature":"27","num_nodes":"7","size_leaf_vector":"0"}},{"base_weights":[-5.626918E-2,-1.4419833E-1,2.4117988E-1,2.1094173E-1,-2.7074218E-1,1.5199716E-1,5.1322436E-1],"categories":[],"categories_nodes":[],"categories_segments":[],"categories_sizes":[],"default_left":[1,1,1,0,0,0,0],"id":60,"left_children":[1,3,5,-1,-1,-1,-1],"loss_changes":[2.4506423E3,3.2501677E3,5.186052E2,0E0,0E0,0E0,0E0],"parents":[2147483647,0,0,1,1,2,2],"right_children":[2,4,6,-1,-1,-1,-1],"split_conditions":[3.1171348E0,9.735971E0,1.14976105E2,6.328252E-2,-8.122265E-2,4.559915E-2,1.5396732E-1],"split_indices":[22,18,26,0,0,0,0],"split_type":[0,0,0,0,0,0,0],"sum_hessian":[9.3696555E4,7.231884E4,2.1377715E4,1.8998809E4,5.3320035E4,1.6100983E4,5.276731E3],"tree_param":{"num_deleted":"0","num_feature":"27","num_nodes":"7","size_leaf_vector":"0"}},{"base_weights":[8.438958E-3,4.9341816E-2,-6.55562E-2,1.7199095E-2,1.965996E-1,-2.5572693E-1,4.3816134E-2],"categories":[],"categories_nodes":[],"categories_segments":[],"categories_sizes":[],"default_left":[1,1,1,0,0,0,0],"id":61,"left_children":[1,3,5,-1,-1,-1,-1],"loss_changes":[8.3692725E2,8.429083E2,2.0475079E3,0E0,0E0,0E0,0E0],"parents":[2147483647,0,0,1,1,2,2],"right_children":[2,4,6,-1,-1,-1,-1],"split_conditions":[4.0247925E1,1.0499601E0,-1.2966084E-1,5.1597287E-3,5.8979884E-2,-7.6718085E-2,1.31448405E-2],"split_indices":[17,21,24,0,0,0,0],"split_type":[0,0,0,0,0,0,0],"sum_hessian":[2.7652056E5,1.7808148E5,9.84391E4,1.46176E5,3.1905477E4,3.5942637E4,6.249646E4],"tree_param":{"num_deleted":"0","num_feature":"27","num_nodes":"7","size_leaf_vector":"0"}},{"base_weights":[9.663106E-3,-1.5204462E-1,3.0962856E-2,-1.1376461E-1,-4.7814816E-1,1.4140692E-1,-1.3766977E-2],"categories":[],"categories_nodes":[],"categories_segments":[],"categories_sizes":[],"default_left":[1,1,1,0,0,0,0],"id":62,"left_children":[1,3,5,-1,-1,-1,-1],"loss_changes":[1.0474912E3,4.4179926E2,1.3275371E3,0E0,0E0,0E0,0E0],"parents":[2147483647,0,0,1,1,2,2],"right_children":[2,4,6,-1,-1,-1,-1],"split_conditions":[4.4187172E1,3.6464696E0,6.086167E1,-3.4129385E-2,-1.4344445E-1,4.242208E-2,-4.1300934E-3],"split_indices":[26,23,2,0,0,0,0],"split_type":[0,0,0,0,0,0,0],"sum_hessian":[3.041177E5,3.5394727E4,2.6872294E5,3.167757E4,3.7171567E3,7.746042E4,1.9126252E5],"tree_param":{"num_deleted":"0","num_feature":"27","num_nodes":"7","size_leaf_vector":"0"}},{"base_weights":[-4.754965E-2,-3.2372302E-1,4.2868845E-2,-3.4551522E-1,9.0920824E-1,-7.3588113E-3,5.0950915E-1],"categories":[],"categories_nodes":[],"categories_segments":[],"categories_sizes":[],"default_left":[1,1,1,0,0,0,0],"id":63,"left_children":[1,3,5,-1,-1,-1,-1],"loss_changes":[2.2700608E3,6.0275195E2,1.6051901E3,0E0,0E0,0E0,0E0],"parents":[2147483647,0,0,1,1,2,2],"right_children":[2,4,6,-1,-1,-1,-1],"split_conditions":[2.7108884E0,9.922495E-1,1.6566828E-1,-1.0365457E-1,2.7276248E-1,-2.2076436E-3,1.5285274E-1],"split_indices":[22,4,24,0,0,0,0],"split_type":[0,0,0,0,0,0,0],"sum_hessian":[9.0905664E4,2.24209E4,6.8484766E4,2.20322E4,3.8870175E2,6.183051E4,6.6542524E3],"tree_param":{"num_deleted":"0","num_feature":"27","num_nodes":"7","size_leaf_vector":"0"}},{"base_weights":[7.080386E-3,5.585525E-2,-5.070912E-2,8.809875E-2,-8.3840705E-2,-1.6007212E-1,1.74082E-2],"categories":[],"categories_nodes":[],"categories_segments":[],"categories_sizes":[],"default_left":[1,1,1,0,0,0,0],"id":64,"left_children":[1,3,5,-1,-1,-1,-1],"loss_changes":[7.727259E2,6.6965E2,9.347467E2,0E0,0E0,0E0,0E0],"parents":[2147483647,0,0,1,1,2,2],"right_children":[2,4,6,-1,-1,-1,-1],"split_conditions":[1.1035995E0,9.584148E1,8.174811E1,2.6429625E-2,-2.5152212E-2,-4.8021637E-2,5.2224603E-3],"split_indices":[15,26,2,0,0,0,0],"split_type":[0,0,0,0,0,0,0],"sum_hessian":[2.7414303E5,1.4866688E5,1.2547616E5,1.2078795E5,2.7878934E4,4.8157496E4,7.731866E4],"tree_param":{"num_deleted":"0","num_feature":"27","num_nodes":"7","size_leaf_vector":"0"}},{"base_weights":[7.907593E-3,1.3540932E-2,-5.5576813E-1,-3.7719358E-2,8.18193E-2,-7.533288E-1,-5.297593E-1],"categories":[],"categories_nodes":[],"categories_segments":[],"categories_sizes":[],"default_left":[1,1,1,0,0,0,0],"id":65,"left_children":[1,3,5,-1,-1,-1,-1],"loss_changes":[9.563378E2,1.0436644E3,1.4913757E1,0E0,0E0,0E0,0E0],"parents":[2147483647,0,0,1,1,2,2],"right_children":[2,4,6,-1,-1,-1,-1],"split_conditions":[1.2455434E2,8.215373E1,3.0806422E0,-1.1315808E-2,2.4545792E-2,-2.2599865E-1,-1.589278E-1],"split_indices":[26,26,22,0,0,0,0],"split_type":[0,0,0,0,0,0,0],"sum_hessian":[3.011697E5,2.9819056E5,2.9791213E3,1.7032144E5,1.2786912E5,3.4332117E2,2.6358003E3],"tree_param":{"num_deleted":"0","num_feature":"27","num_nodes":"7","size_leaf_vector":"0"}},{"base_weights":[-4.376947E-2,1.4146386E-1,-1.6474959E-1,4.1172576E-1,5.2731942E-2,-2.3234294E-1,5.5122554E-1],"categories":[],"categories_nodes":[],"categories_segments":[],"categories_sizes":[],"default_left":[1,1,1,0,0,0,0],"id":66,"left_children":[1,3,5,-1,-1,-1,-1],"loss_changes":[1.9687246E3,8.323319E2,2.5719878E3,0E0,0E0,0E0,0E0],"parents":[2147483647,0,0,1,1,2,2],"right_children":[2,4,6,-1,-1,-1,-1],"split_conditions":[3.5239185E1,6.9741526E0,1.2065546E2,1.2351773E-1,1.5819583E-2,-6.9702886E-2,1.6536766E-1],"split_indices":[12,18,26,0,0,0,0],"split_type":[0,0,0,0,0,0,0],"sum_hessian":[8.784999E4,3.4708086E4,5.3141906E4,8.57784E3,2.6130244E4,4.855832E4,4.5835894E3],"tree_param":{"num_deleted":"0","num_feature":"27","num_nodes":"7","size_leaf_vector":"0"}},{"base_weights":[6.798055E-3,1.2416841E-2,-4.476857E-1,1.893382E-2,-3.53719E-1,-4.931893E-1,1.0648619E-1],"categories":[],"categories_nodes":[],"categories_segments":[],"categories_sizes":[],"default_left":[1,1,1,0,0,0,0],"id":67,"left_children":[1,3,5,-1,-1,-1,-1],"loss_changes":[6.978926E2,6.4414343E2,8.4212585E1,0E0,0E0,0E0,0E0],"parents":[2147483647,0,0,1,1,2,2],"right_children":[2,4,6,-1,-1,-1,-1],"split_conditions":[1.1994119E2,1.9355679E-1,1.3242877E2,5.680146E-3,-1.06115706E-1,-1.479568E-1,3.194586E-2],"split_indices":[26,24,2,0,0,0,0],"split_type":[0,0,0,0,0,0,0],"sum_hessian":[2.732893E5,2.6995284E5,3.3364565E3,2.652328E5,4.720023E3,3.0833867E3,2.5307E2],"tree_param":{"num_deleted":"0","num_feature":"27","num_nodes":"7","size_leaf_vector":"0"}},{"base_weights":[6.6303783E-3,1.1459866E-2,-5.4974896E-1,-3.6967748E-1,1.8060753E-2,3.8247836E-1,-5.557813E-1],"categories":[],"categories_nodes":[],"categories_segments":[],"categories_sizes":[],"default_left":[1,1,1,0,0,0,0],"id":68,"left_children":[1,3,5,-1,-1,-1,-1],"loss_changes":[8.05399E2,7.4760364E2,1.4717834E1,0E0,0E0,0E0,0E0],"parents":[2147483647,0,0,1,1,2,2],"right_children":[2,4,6,-1,-1,-1,-1],"split_conditions":[1.2492052E2,1.3004004E1,2.5386024E0,-1.1090325E-1,5.418226E-3,1.1474351E-1,-1.667344E-1],"split_indices":[26,12,23,0,0,0,0],"split_type":[0,0,0,0,0,0,0],"sum_hessian":[2.997328E5,2.9715444E5,2.5783818E3,5.0578457E3,2.9209656E5,1.6175987E1,2.562206E3],"tree_param":{"num_deleted":"0","num_feature":"27","num_nodes":"7","size_leaf_vector":"0"}},{"base_weights":[-4.3305762E-2,-1.0993679E-1,2.6498395E-1,3.1899193E-1,-1.8418531E-1,1.5057382E-1,5.4000604E-1],"categories":[],"categories_nodes":[],"categories_segments":[],"categories_sizes":[],"default_left":[1,1,1,0,0,0,0],"id":69,"left_children":[1,3,5,-1,-1,-1,-1],"loss_changes":[1.7522477E3,2.2338857E3,4.7693164E2,0E0,0E0,0E0,0E0],"parents":[2147483647,0,0,1,1,2,2],"right_children":[2,4,6,-1,-1,-1,-1],"split_conditions":[9.8794734E-1,-9.8897123E-1,1.1160232E2,9.569758E-2,-5.5255596E-2,4.5172147E-2,1.6200182E-1],"split_indices":[4,24,2,0,0,0,0],"split_type":[0,0,0,0,0,0,0],"sum_hessian":[8.529972E4,7.014076E4,1.5158964E4,1.0349439E4,5.9791316E4,1.070655E4,4.452414E3],"tree_param":{"num_deleted":"0","num_feature":"27","num_nodes":"7","size_leaf_vector":"0"}},{"base_weights":[6.767042E-3,-4.4303074E-1,1.1690948E-2,-4.8559132E-1,-2.2151321E-1,-8.781967E-3,1.1749634E-1],"categories":[],"categories_nodes":[],"categories_segments":[],"categories_sizes":[],"default_left":[1,1,1,0,0,0,0],"id":70,"left_children":[1,3,5,-1,-1,-1,-1],"loss_changes":[6.03936E2,2.7730774E1,5.842807E2,0E0,0E0,0E0,0E0],"parents":[2147483647,0,0,1,1,2,2],"right_children":[2,4,6,-1,-1,-1,-1],"split_conditions":[-9.958564E-1,8.01046E-1,9.268179E1,-1.456774E-1,-6.645396E-2,-2.63459E-3,3.5248905E-2],"split_indices":[24,21,12,0,0,0,0],"split_type":[0,0,0,0,0,0,0],"sum_hessian":[2.7268328E5,2.9517588E3,2.697315E5,2.4750337E3,4.767251E2,2.2600197E5,4.3729547E4],"tree_param":{"num_deleted":"0","num_feature":"27","num_nodes":"7","size_leaf_vector":"0"}},{"base_weights":[6.1843107E-3,-1.5073334E-1,2.2609305E-2,-3.2650563E-1,-6.1542992E-3,-6.7102658E-3,1.4410932E-1],"categories":[],"categories_nodes":[],"categories_segments":[],"categories_sizes":[],"default_left":[1,1,1,0,0,0,0],"id":71,"left_children":[1,3,5,-1,-1,-1,-1],"loss_changes":[7.704868E2,7.1985095E2,9.6402515E2,0E0,0E0,0E0,0E0],"parents":[2147483647,0,0,1,1,2,2],"right_children":[2,4,6,-1,-1,-1,-1],"split_conditions":[2.0246094E2,-1.943371E-1,9.5326096E1,-9.7951695E-2,-1.8462898E-3,-2.0130798E-3,4.32328E-2],"split_indices":[3,24,26,0,0,0,0],"split_type":[0,0,0,0,0,0,0],"sum_hessian":[2.9894053E5,2.8325182E4,2.7061534E5,1.2782983E4,1.5542199E4,2.1800805E5,5.2607297E4],"tree_param":{"num_deleted":"0","num_feature":"27","num_nodes":"7","size_leaf_vector":"0"}},{"base_weights":[-3.8152047E-2,-8.0903284E-2,4.180507E-1,-1.9899751E-1,1.1905966E-1,1.5589309E-1,5.036249E-1],"categories":[],"categories_nodes":[],"categories_segments":[],"categories_sizes":[],"default_left":[1,1,1,0,0,0,0],"id":72,"left_children":[1,3,5,-1,-1,-1,-1],"loss_changes":[1.620377E3,1.7938518E3,1.5962097E2,0E0,0E0,0E0,0E0],"parents":[2147483647,0,0,1,1,2,2],"right_children":[2,4,6,-1,-1,-1,-1],"split_conditions":[1.758978E-1,3.3386302E0,2.4942598E0,-5.9699256E-2,3.57179E-2,4.6767928E-2,1.5108748E-1],"split_indices":[24,23,22,0,0,0,0],"split_type":[0,0,0,0,0,0,0],"sum_hessian":[8.307975E4,7.5962086E4,7.117663E3,4.7757465E4,2.8204625E4,1.7522979E3,5.3653657E3],"tree_param":{"num_deleted":"0","num_feature":"27","num_nodes":"7","size_leaf_vector":"0"}},{"base_weights":[5.707603E-3,4.232694E-2,-5.1879115E-2,-1.7660087E-1,5.596031E-2,-1.5489578E-1,1.2704683E-2],"categories":[],"categories_nodes":[],"categories_segments":[],"categories_sizes":[],"default_left":[1,1,1,0,0,0,0],"id":73,"left_children":[1,3,5,-1,-1,-1,-1],"loss_changes":[5.720963E2,4.949855E2,7.0161755E2,0E0,0E0,0E0,0E0],"parents":[2147483647,0,0,1,1,2,2],"right_children":[2,4,6,-1,-1,-1,-1],"split_conditions":[1.1913269E0,1.2541779E1,8.397159E1,-5.2980263E-2,1.6788093E-2,-4.6468735E-2,3.8114048E-3],"split_indices":[15,1,2,0,0,0,0],"split_type":[0,0,0,0,0,0,0],"sum_hessian":[2.7128956E5,1.6583533E5,1.0545424E5,9.721018E3,1.561143E5,4.0635598E4,6.4818645E4],"tree_param":{"num_deleted":"0","num_feature":"27","num_nodes":"7","size_leaf_vector":"0"}},{"base_weights":[5.4497337E-3,2.8100546E-2,-9.709339E-2,-1.0376729E-2,1.169871E-1,-2.5972888E-1,-7.587067E-3],"categories":[],"categories_nodes":[],"categories_segments":[],"categories_sizes":[],"default_left":[1,1,1,0,0,0,0],"id":74,"left_children":[1,3,5,-1,-1,-1,-1],"loss_changes":[6.909954E2,8.33391E2,7.835259E2,0E0,0E0,0E0,0E0],"parents":[2147483647,0,0,1,1,2,2],"right_children":[2,4,6,-1,-1,-1,-1],"split_conditions":[7.194446E-2,3.935528E1,6.007231E1,-3.1130188E-3,3.509613E-2,-7.791866E-2,-2.2761202E-3],"split_indices":[24,17,1,0,0,0,0],"split_type":[0,0,0,0,0,0,0],"sum_hessian":[2.9749638E5,2.436722E5,5.3824176E4,1.7005817E5,7.361402E4,1.9106049E4,3.4718125E4],"tree_param":{"num_deleted":"0","num_feature":"27","num_nodes":"7","size_leaf_vector":"0"}},{"base_weights":[-3.4677297E-2,-1.3097085E-1,1.5996347E-1,1.7210451E-1,-2.6246792E-1,4.718191E-1,1.0685472E-1],"categories":[],"categories_nodes":[],"categories_segments":[],"categories_sizes":[],"default_left":[1,1,1,0,0,0,0],"id":75,"left_children":[1,3,5,-1,-1,-1,-1],"loss_changes":[1.5168308E3,2.1578398E3,4.4358813E2,0E0,0E0,0E0,0E0],"parents":[2147483647,0,0,1,1,2,2],"right_children":[2,4,6,-1,-1,-1,-1],"split_conditions":[3.1002781E0,4.802401E1,-9.9901545E-1,5.1631354E-2,-7.874038E-2,1.4154574E-1,3.2056417E-2],"split_indices":[22,26,24,0,0,0,0],"split_type":[0,0,0,0,0,0,0],"sum_hessian":[8.092725E4,5.4142133E4,2.6785113E4,1.638275E4,3.7759383E4,3.8965586E3,2.2888555E4],"tree_param":{"num_deleted":"0","num_feature":"27","num_nodes":"7","size_leaf_vector":"0"}},{"base_weights":[5.1327576E-3,2.00798E-2,-1.1819644E-1,-1.023267E-1,3.6460564E-2,-3.3363453E-1,6.5743834E-2],"categories":[],"categories_nodes":[],"categories_segments":[],"categories_sizes":[],"default_left":[1,1,1,0,0,0,0],"id":76,"left_children":[1,3,5,-1,-1,-1,-1],"loss_changes":[4.970516E2,4.8221426E2,1.1550363E3,0E0,0E0,0E0,0E0],"parents":[2147483647,0,0,1,1,2,2],"right_children":[2,4,6,-1,-1,-1,-1],"split_conditions":[1.0668506E2,3.9025772E1,1.139538E2,-3.069801E-2,1.0938169E-2,-1.0009036E-1,1.972315E-2],"split_indices":[26,2,2,0,0,0,0],"split_type":[0,0,0,0,0,0,0],"sum_hessian":[2.6963522E5,2.404896E5,2.9145611E4,2.838385E4,2.1210573E5,1.3423116E4,1.5722495E4],"tree_param":{"num_deleted":"0","num_feature":"27","num_nodes":"7","size_leaf_vector":"0"}},{"base_weights":[4.8093693E-3,-4.2756557E-1,1.0095627E-2,-4.5676482E-1,9.562265E-2,-9.328943E-2,2.7720246E-2],"categories":[],"categories_nodes":[],"categories_segments":[],"categories_sizes":[],"default_left":[1,1,1,0,0,0,0],"id":77,"left_children":[1,3,5,-1,-1,-1,-1],"loss_changes":[6.759956E2,5.4616272E1,5.323973E2,0E0,0E0,0E0,0E0],"parents":[2147483647,0,0,1,1,2,2],"right_children":[2,4,6,-1,-1,-1,-1],"split_conditions":[-9.987179E-1,1.1696596E0,4.7824604E1,-1.3702945E-1,2.8686797E-2,-2.798683E-2,8.3160745E-3],"split_indices":[24,21,26,0,0,0,0],"split_type":[0,0,0,0,0,0,0],"sum_hessian":[2.9575412E5,3.5712786E3,2.9218284E5,3.3826206E3,1.8865776E2,4.2554746E4,2.496281E5],"tree_param":{"num_deleted":"0","num_feature":"27","num_nodes":"7","size_leaf_vector":"0"}},{"base_weights":[-3.4208048E-2,-1.3812126E-1,1.253439E-1,3.9498585E-1,-1.9483432E-1,3.011174E-1,-7.853242E-3],"categories":[],"categories_nodes":[],"categories_segments":[],"categories_sizes":[],"default_left":[1,1,1,0,0,0,0],"id":78,"left_children":[1,3,5,-1,-1,-1,-1],"loss_changes":[1.2973239E3,1.4327612E3,7.225607E2,0E0,0E0,0E0,0E0],"parents":[2147483647,0,0,1,1,2,2],"right_children":[2,4,6,-1,-1,-1,-1],"split_conditions":[9.186845E-1,-9.978081E-1,1.7592651E1,1.1849576E-1,-5.84503E-2,9.033522E-2,-2.3559725E-3],"split_indices":[4,24,18,0,0,0,0],"split_type":[0,0,0,0,0,0,0],"sum_hessian":[7.824636E4,4.7385316E4,3.0861043E4,4.555673E3,4.2829645E4,1.3303642E4,1.75574E4],"tree_param":{"num_deleted":"0","num_feature":"27","num_nodes":"7","size_leaf_vector":"0"}},{"base_weights":[5.3564045E-3,1.1756199E-2,-2.6644656E-1,-8.07479E-2,2.9263332E-2,-1.0970674E-1,-4.3606037E-1],"categories":[],"categories_nodes":[],"categories_segments":[],"categories_sizes":[],"default_left":[1,1,1,0,0,0,0],"id":79,"left_children":[1,3,5,-1,-1,-1,-1],"loss_changes":[4.6657498E2,4.2439578E2,1.6399094E2,0E0,0E0,0E0,0E0],"parents":[2147483647,0,0,1,1,2,2],"right_children":[2,4,6,-1,-1,-1,-1],"split_conditions":[1.7343614E-1,-7.2217315E-1,9.690546E1,-2.4224373E-2,8.7790005E-3,-3.2912023E-2,-1.3081811E-1],"split_indices":[24,24,6,0,0,0,0],"split_type":[0,0,0,0,0,0,0],"sum_hessian":[2.682234E5,2.6205411E5,6.169295E3,4.1702586E4,2.2035153E5,3.2071868E3,2.9621082E3],"tree_param":{"num_deleted":"0","num_feature":"27","num_nodes":"7","size_leaf_vector":"0"}},{"base_weights":[4.223077E-3,7.6803854E-3,-5.4109424E-1,1.17320875E-2,-4.2575282E-1,6.034907E-2,-5.5616355E-1],"categories":[],"categories_nodes":[],"categories_segments":[],"categories_sizes":[],"default_left":[1,1,1,0,0,0,0],"id":80,"left_children":[1,3,5,-1,-1,-1,-1],"loss_changes":[5.5357056E2,5.1239276E2,1.6799072E1,0E0,0E0,0E0,0E0],"parents":[2147483647,0,0,1,1,2,2],"right_children":[2,4,6,-1,-1,-1,-1],"split_conditions":[1.2432405E2,2.561545E-1,2.8914444E0,3.5196263E-3,-1.2772585E-1,1.810472E-2,-1.6684908E-1],"split_indices":[26,24,23,0,0,0,0],"split_type":[0,0,0,0,0,0,0],"sum_hessian":[2.9361678E5,2.9176797E5,1.848821E3,2.8906675E5,2.7012021E3,4.5116898E1,1.8037042E3],"tree_param":{"num_deleted":"0","num_feature":"27","num_nodes":"7","size_leaf_vector":"0"}},{"base_weights":[-3.4452867E-2,5.523493E-2,-2.0306042E-1,4.3543765E-1,6.9611985E-3,3.5996318E-1,-2.845147E-1],"categories":[],"categories_nodes":[],"categories_segments":[],"categories_sizes":[],"default_left":[1,1,1,0,0,0,0],"id":81,"left_children":[1,3,5,-1,-1,-1,-1],"loss_changes":[1.1487706E3,9.101452E2,1.2098077E3,0E0,0E0,0E0,0E0],"parents":[2147483647,0,0,1,1,2,2],"right_children":[2,4,6,-1,-1,-1,-1],"split_conditions":[3.2288345E1,2.211376E2,-9.928903E-1,1.306313E-1,2.0883596E-3,1.0798896E-1,-8.535441E-2],"split_indices":[7,3,24,0,0,0,0],"split_type":[0,0,0,0,0,0,0],"sum_hessian":[7.596491E4,4.9588082E4,2.6376826E4,5.585872E3,4.4002207E4,3.3332827E3,2.3043545E4],"tree_param":{"num_deleted":"0","num_feature":"27","num_nodes":"7","size_leaf_vector":"0"}},{"base_weights":[5.4371185E-3,4.9537353E-2,-3.1049853E-2,7.674041E-2,-3.185659E-2,-1.4373161E-1,6.439057E-3],"categories":[],"categories_nodes":[],"categories_segments":[],"categories_sizes":[],"default_left":[1,1,1,0,0,0,0],"id":82,"left_children":[1,3,5,-1,-1,-1,-1],"loss_changes":[4.3001508E2,2.6791077E2,6.177846E2,0E0,0E0,0E0,0E0],"parents":[2147483647,0,0,1,1,2,2],"right_children":[2,4,6,-1,-1,-1,-1],"split_conditions":[9.77834E-1,8.952106E1,6.6475815E1,2.3022123E-2,-9.556977E-3,-4.3119483E-2,1.9317173E-3],"split_indices":[15,26,2,0,0,0,0],"split_type":[0,0,0,0,0,0,0],"sum_hessian":[2.672402E5,1.2099653E5,1.4624366E5,9.068749E4,3.0309035E4,3.650786E4,1.09735805E5],"tree_param":{"num_deleted":"0","num_feature":"27","num_nodes":"7","size_leaf_vector":"0"}},{"base_weights":[3.982817E-3,6.859285E-3,-5.505867E-1,1.454429E-2,-1.9634967E-1,-7.344054E-1,-5.221302E-1],"categories":[],"categories_nodes":[],"categories_segments":[],"categories_sizes":[],"default_left":[1,1,1,0,0,0,0],"id":83,"left_children":[1,3,5,-1,-1,-1,-1],"loss_changes":[4.6629846E2,4.5413953E2,7.506531E0,0E0,0E0,0E0,0E0],"parents":[2147483647,0,0,1,1,2,2],"right_children":[2,4,6,-1,-1,-1,-1],"split_conditions":[1.2523421E2,1.3724194E2,3.0649261E0,4.3632872E-3,-5.89049E-2,-2.2032163E-1,-1.5663907E-1],"split_indices":[26,11,22,0,0,0,0],"split_type":[0,0,0,0,0,0,0],"sum_hessian":[2.9230984E5,2.908025E5,1.5073607E3,2.802065E5,1.0595988E4,1.9874307E2,1.3086177E3],"tree_param":{"num_deleted":"0","num_feature":"27","num_nodes":"7","size_leaf_vector":"0"}},{"base_weights":[-3.0134669E-2,-6.214509E-2,4.1069132E-1,-1.1113278E-1,2.8281677E-1,2.0481561E-1,5.043065E-1],"categories":[],"categories_nodes":[],"categories_segments":[],"categories_sizes":[],"default_left":[1,1,1,0,0,0,0],"id":84,"left_children":[1,3,5,-1,-1,-1,-1],"loss_changes":[1.0485212E3,1.1706835E3,9.684741E1,0E0,0E0,0E0,0E0],"parents":[2147483647,0,0,1,1,2,2],"right_children":[2,4,6,-1,-1,-1,-1],"split_conditions":[2.0108911E-1,3.8800552E0,2.909835E0,-3.3339836E-2,8.4845036E-2,6.1444685E-2,1.5129195E-1],"split_indices":[24,23,23,0,0,0,0],"split_type":[0,0,0,0,0,0,0],"sum_hessian":[7.430229E4,6.927292E4,5.0293696E3,6.0659414E4,8.613505E3,1.5730815E3,3.4562878E3],"tree_param":{"num_deleted":"0","num_feature":"27","num_nodes":"7","size_leaf_vector":"0"}},{"base_weights":[4.494708E-3,7.791365E-3,-4.4321156E-1,1.5080757E-2,-1.972488E-1,-1.743829E-1,-4.859144E-1],"categories":[],"categories_nodes":[],"categories_segments":[],"categories_sizes":[],"default_left":[1,1,1,0,0,0,0],"id":85,"left_children":[1,3,5,-1,-1,-1,-1],"loss_changes":[3.9302942E2,3.950966E2,2.2260498E1,0E0,0E0,0E0,0E0],"parents":[2147483647,0,0,1,1,2,2],"right_children":[2,4,6,-1,-1,-1,-1],"split_conditions":[3.4019142E-1,1.1471077E2,4.1342533E-1,4.524227E-3,-5.9174642E-2,-5.231487E-2,-1.4577433E-1],"split_indices":[24,26,4,0,0,0,0],"split_type":[0,0,0,0,0,0,0],"sum_hessian":[2.6628866E5,2.643432E5,1.9454917E3,2.5526902E5,9.074154E3,2.67373E2,1.6781187E3],"tree_param":{"num_deleted":"0","num_feature":"27","num_nodes":"7","size_leaf_vector":"0"}},{"base_weights":[3.5794752E-3,7.346677E-3,-3.7878144E-1,1.0725924E-2,-4.1312414E-1,-4.9492317E-1,-1.6630186E-1],"categories":[],"categories_nodes":[],"categories_segments":[],"categories_sizes":[],"default_left":[1,1,1,0,0,0,0],"id":86,"left_children":[1,3,5,-1,-1,-1,-1],"loss_changes":[4.19403E2,4.0967578E2,7.001996E1,0E0,0E0,0E0,0E0],"parents":[2147483647,0,0,1,1,2,2],"right_children":[2,4,6,-1,-1,-1,-1],"split_conditions":[4.378025E0,2.5981233E-1,7.160638E0,3.2177772E-3,-1.2393725E-1,-1.4847696E-1,-4.989056E-2],"split_indices":[23,24,1,0,0,0,0],"split_type":[0,0,0,0,0,0,0],"sum_hessian":[2.9116206E5,2.8832238E5,2.8397085E3,2.8602462E5,2.2977527E3,1.8352358E3,1.0044726E3],"tree_param":{"num_deleted":"0","num_feature":"27","num_nodes":"7","size_leaf_vector":"0"}},{"base_weights":[-2.9644081E-2,-9.231544E-2,1.9269222E-1,9.613748E-2,-2.3959628E-1,1.2988608E-1,4.3225563E-1],"categories":[],"categories_nodes":[],"categories_segments":[],"categories_sizes":[],"default_left":[1,1,1,0,0,0,0],"id":87,"left_children":[1,3,5,-1,-1,-1,-1],"loss_changes":[1.0133836E3,1.5747124E3,2.405633E2,0E0,0E0,0E0,0E0],"parents":[2147483647,0,0,1,1,2,2],"right_children":[2,4,6,-1,-1,-1,-1],"split_conditions":[3.1191955E0,5.9161736E1,1.0987212E2,2.8841244E-2,-7.187889E-2,3.8965825E-2,1.296767E-1],"split_indices":[22,26,26,0,0,0,0],"split_type":[0,0,0,0,0,0,0],"sum_hessian":[7.272451E4,5.673331E4,1.5991198E4,2.4888115E4,3.1845193E4,1.2670838E4,3.3203606E3],"tree_param":{"num_deleted":"0","num_feature":"27","num_nodes":"7","size_leaf_vector":"0"}},{"base_weights":[4.7128857E-3,3.0875636E-2,-4.7441367E-2,-8.928152E-2,4.687349E-2,-1.1288696E-1,2.9811792E-2],"categories":[],"categories_nodes":[],"categories_segments":[],"categories_sizes":[],"default_left":[1,1,1,0,0,0,0],"id":88,"left_children":[1,3,5,-1,-1,-1,-1],"loss_changes":[3.629851E2,3.405382E2,4.4930695E2,0E0,0E0,0E0,0E0],"parents":[2147483647,0,0,1,1,2,2],"right_children":[2,4,6,-1,-1,-1,-1],"split_conditions":[1.2602286E0,3.661309E1,9.9856735E1,-2.6784457E-2,1.4062048E-2,-3.386609E-2,8.943538E-3],"split_indices":[15,2,2,0,0,0,0],"split_type":[0,0,0,0,0,0,0],"sum_hessian":[2.6601878E5,1.7715223E5,8.886655E4,2.0814385E4,1.5633784E5,4.810964E4,4.0756902E4],"tree_param":{"num_deleted":"0","num_feature":"27","num_nodes":"7","size_leaf_vector":"0"}},{"base_weights":[3.1049193E-3,-8.864415E-2,1.7893571E-2,-5.5187833E-1,-4.49295E-2,-5.328964E-4,1.5471283E-1],"categories":[],"categories_nodes":[],"categories_segments":[],"categories_sizes":[],"default_left":[1,1,1,0,0,0,0],"id":89,"left_children":[1,3,5,-1,-1,-1,-1],"loss_changes":[3.942442E2,8.167229E2,6.3084467E2,0E0,0E0,0E0,0E0],"parents":[2147483647,0,0,1,1,2,2],"right_children":[2,4,6,-1,-1,-1,-1],"split_conditions":[2.0970175E2,9.3933395E1,9.880606E1,-1.6556351E-1,-1.3478851E-2,-1.5986891E-4,4.641385E-2],"split_indices":[3,6,26,0,0,0,0],"split_type":[0,0,0,0,0,0,0],"sum_hessian":[2.9055734E5,4.0331984E4,2.5022536E5,3.47686E3,3.6855125E4,2.2052642E5,2.9698938E4],"tree_param":{"num_deleted":"0","num_feature":"27","num_nodes":"7","size_leaf_vector":"0"}},{"base_weights":[-2.528545E-2,-2.5061014E-1,3.1397536E-2,-2.820704E-1,4.451786E-1,1.8546374E-1,-6.995148E-2],"categories":[],"categories_nodes":[],"categories_segments":[],"categories_sizes":[],"default_left":[1,1,1,0,0,0,0],"id":90,"left_children":[1,3,5,-1,-1,-1,-1],"loss_changes":[9.1024115E2,3.136895E2,8.891583E2,0E0,0E0,0E0,0E0],"parents":[2147483647,0,0,1,1,2,2],"right_children":[2,4,6,-1,-1,-1,-1],"split_conditions":[2.683332E0,9.833426E-1,5.020611E-1,-8.4621124E-2,1.3355358E-1,5.5639125E-2,-2.0985445E-2],"split_indices":[22,4,21,0,0,0,0],"split_type":[0,0,0,0,0,0,0],"sum_hessian":[7.1266445E4,1.4323728E4,5.6942723E4,1.3704663E4,6.1906506E2,2.25946E4,3.434812E4],"tree_param":{"num_deleted":"0","num_feature":"27","num_nodes":"7","size_leaf_vector":"0"}},{"base_weights":[3.8967123E-3,6.9672856E-3,-4.1361186E-1,1.1900204E-2,-2.197531E-1,-4.572539E-1,9.7560905E-2],"categories":[],"categories_nodes":[],"categories_segments":[],"categories_sizes":[],"default_left":[1,1,1,0,0,0,0],"id":91,"left_children":[1,3,5,-1,-1,-1,-1],"loss_changes":[3.392648E2,2.938109E2,4.314673E1,0E0,0E0,0E0,0E0],"parents":[2147483647,0,0,1,1,2,2],"right_children":[2,4,6,-1,-1,-1,-1],"split_conditions":[1.2050074E2,1.7343614E-1,1.3242877E2,3.5700614E-3,-6.592593E-2,-1.3717617E-1,2.9268272E-2],"split_indices":[26,24,2,0,0,0,0],"split_type":[0,0,0,0,0,0,0],"sum_hessian":[2.646358E5,2.6270472E5,1.9310828E3,2.5711152E5,5.5932124E3,1.7792799E3,1.5180286E2],"tree_param":{"num_deleted":"0","num_feature":"27","num_nodes":"7","size_leaf_vector":"0"}},{"base_weights":[2.6686152E-3,7.4546593E-3,-2.6189968E-1,9.5290085E-3,-5.427543E-1,-1.588083E-1,-4.6500912E-1],"categories":[],"categories_nodes":[],"categories_segments":[],"categories_sizes":[],"default_left":[1,1,1,0,0,0,0],"id":92,"left_children":[1,3,5,-1,-1,-1,-1],"loss_changes":[3.6574753E2,3.2381448E2,1.07392395E2,0E0,0E0,0E0,0E0],"parents":[2147483647,0,0,1,1,2,2],"right_children":[2,4,6,-1,-1,-1,-1],"split_conditions":[9.9602354E-1,1.25351654E2,1.0145921E2,2.8587026E-3,-1.628263E-1,-4.7642495E-2,-1.3950275E-1],"split_indices":[4,26,2,0,0,0,0],"split_type":[0,0,0,0,0,0,0],"sum_hessian":[2.8884384E5,2.8371244E5,5.13139E3,2.826478E5,1.064631E3,3.4049412E3,1.726449E3],"tree_param":{"num_deleted":"0","num_feature":"27","num_nodes":"7","size_leaf_vector":"0"}},{"base_weights":[-2.636626E-2,2.6505464E-1,-6.4519435E-2,-3.6640413E-2,3.5898143E-1,-1.829194E-1,8.278486E-2],"categories":[],"categories_nodes":[],"categories_segments":[],"categories_sizes":[],"default_left":[1,1,1,0,0,0,0],"id":93,"left_children":[1,3,5,-1,-1,-1,-1],"loss_changes":[7.745976E2,2.2855249E2,1.0743893E3,0E0,0E0,0E0,0E0],"parents":[2147483647,0,0,1,1,2,2],"right_children":[2,4,6,-1,-1,-1,-1],"split_conditions":[1.7556892E1,2.7369292E0,3.0847318E0,-1.0992125E-2,1.0769443E-1,-5.487582E-2,2.483546E-2],"split_indices":[12,22,22,0,0,0,0],"split_type":[0,0,0,0,0,0,0],"sum_hessian":[6.9664086E4,8.063981E3,6.160011E4,1.914659E3,6.149322E3,3.415047E4,2.744964E4],"tree_param":{"num_deleted":"0","num_feature":"27","num_nodes":"7","size_leaf_vector":"0"}},{"base_weights":[3.8529567E-3,2.092043E-2,-6.372321E-2,1.3922944E-3,1.2882787E-1,-1.7832272E-1,2.3417555E-2],"categories":[],"categories_nodes":[],"categories_segments":[],"categories_sizes":[],"default_left":[1,1,1,0,0,0,0],"id":94,"left_children":[1,3,5,-1,-1,-1,-1],"loss_changes":[3.04846E2,4.4466058E2,5.3223114E2,0E0,0E0,0E0,0E0],"parents":[2147483647,0,0,1,1,2,2],"right_children":[2,4,6,-1,-1,-1,-1],"split_conditions":[3.6909584E1,1.1849163E0,-3.513262E-2,4.1768834E-4,3.8648363E-2,-5.349682E-2,7.0252665E-3],"split_indices":[18,21,24,0,0,0,0],"split_type":[0,0,0,0,0,0,0],"sum_hessian":[2.6431038E5,2.1101561E5,5.329477E4,1.7868058E5,3.233502E4,2.3019975E4,3.0274797E4],"tree_param":{"num_deleted":"0","num_feature":"27","num_nodes":"7","size_leaf_vector":"0"}},{"base_weights":[2.8393208E-3,-1.0381017E-1,1.4412433E-2,-6.0010783E-2,-3.728358E-1,1.1132393E-1,-8.74383E-3],"categories":[],"categories_nodes":[],"categories_segments":[],"categories_sizes":[],"default_left":[1,1,1,0,0,0,0],"id":95,"left_children":[1,3,5,-1,-1,-1,-1],"loss_changes":[3.557761E2,3.324681E2,5.835395E2,0E0,0E0,0E0,0E0],"parents":[2147483647,0,0,1,1,2,2],"right_children":[2,4,6,-1,-1,-1,-1],"split_conditions":[3.564135E1,1.2057111E0,5.2567894E1,-1.8003237E-2,-1.1185074E-1,3.339718E-2,-2.6231492E-3],"split_indices":[11,15,2,0,0,0,0],"split_type":[0,0,0,0,0,0,0],"sum_hessian":[2.882468E5,2.8216436E4,2.6003038E5,2.4266836E4,3.9495994E3,5.0148715E4,2.0988166E5],"tree_param":{"num_deleted":"0","num_feature":"27","num_nodes":"7","size_leaf_vector":"0"}},{"base_weights":[-2.227499E-2,-3.978954E-2,5.8573365E-1,5.5762984E-2,-1.8422557E-1,1.3201888E0,5.5017954E-1],"categories":[],"categories_nodes":[],"categories_segments":[],"categories_sizes":[],"default_left":[1,1,1,0,0,0,0],"id":96,"left_children":[1,3,5,-1,-1,-1,-1],"loss_changes":[7.229711E2,9.1073773E2,4.891266E1,0E0,0E0,0E0,0E0],"parents":[2147483647,0,0,1,1,2,2],"right_children":[2,4,6,-1,-1,-1,-1],"split_conditions":[1.226904E2,4.5673126E1,3.000948E0,1.6728897E-2,-5.5267673E-2,3.9605665E-1,1.6505387E-1],"split_indices":[26,12,22,0,0,0,0],"split_type":[0,0,0,0,0,0,0],"sum_hessian":[6.788781E4,6.598787E4,1.8999397E3,3.971487E4,2.6272998E4,8.605868E1,1.813881E3],"tree_param":{"num_deleted":"0","num_feature":"27","num_nodes":"7","size_leaf_vector":"0"}},{"base_weights":[3.0849916E-3,2.2990473E-2,-5.160246E-2,3.4376923E-2,-1.0355829E-1,-1.0450017E-1,2.9559288E-2],"categories":[],"categories_nodes":[],"categories_segments":[],"categories_sizes":[],"default_left":[1,1,1,0,0,0,0],"id":97,"left_children":[1,3,5,-1,-1,-1,-1],"loss_changes":[2.8666058E2,2.781949E2,3.017001E2,0E0,0E0,0E0,0E0],"parents":[2147483647,0,0,1,1,2,2],"right_children":[2,4,6,-1,-1,-1,-1],"split_conditions":[1.3480148E0,1.0649541E2,8.6336334E1,1.0313077E-2,-3.1067487E-2,-3.135005E-2,8.867787E-3],"split_indices":[15,26,1,0,0,0,0],"split_type":[0,0,0,0,0,0,0],"sum_hessian":[2.633323E5,1.9306127E5,7.027106E4,1.7712486E5,1.59363955E4,4.2543055E4,2.7728008E4],"tree_param":{"num_deleted":"0","num_feature":"27","num_nodes":"7","size_leaf_vector":"0"}},{"base_weights":[2.441395E-3,4.477617E-3,-5.090892E-1,-3.183207E-2,3.642698E-2,8.884415E-2,-5.441164E-1],"categories":[],"categories_nodes":[],"categories_segments":[],"categories_sizes":[],"default_left":[1,1,1,0,0,0,0],"id":98,"left_children":[1,3,5,-1,-1,-1,-1],"loss_changes":[2.9858057E2,3.3122565E2,2.3852417E1,0E0,0E0,0E0,0E0],"parents":[2147483647,0,0,1,1,2,2],"right_children":[2,4,6,-1,-1,-1,-1],"split_conditions":[1.2391692E2,3.0326109E1,2.891973E0,-9.5496215E-3,1.0928094E-2,2.6653247E-2,-1.6323492E-1],"split_indices":[26,17,23,0,0,0,0],"split_type":[0,0,0,0,0,0,0],"sum_hessian":[2.8665534E5,2.8551978E5,1.1355618E3,1.3364053E5,1.5187925E5,6.27555E1,1.0728063E3],"tree_param":{"num_deleted":"0","num_feature":"27","num_nodes":"7","size_leaf_vector":"0"}},{"base_weights":[-2.0251794E-2,-4.617413E-2,3.8530517E-1,-9.800962E-2,1.5893772E-1,1.9489639E-1,4.9402794E-1],"categories":[],"categories_nodes":[],"categories_segments":[],"categories_sizes":[],"default_left":[1,1,1,0,0,0,0],"id":99,"left_children":[1,3,5,-1,-1,-1,-1],"loss_changes":[7.04702E2,6.6987646E2,8.327222E1,0E0,0E0,0E0,0E0],"parents":[2147483647,0,0,1,1,2,2],"right_children":[2,4,6,-1,-1,-1,-1],"split_conditions":[2.0108911E-1,3.121928E0,2.909835E0,-2.9402887E-2,4.768132E-2,5.846892E-2,1.482084E-1],"split_indices":[24,22,23,0,0,0,0],"split_type":[0,0,0,0,0,0,0],"sum_hessian":[6.70289E4,6.300278E4,4.0261174E3,5.0293277E4,1.2709503E4,1.4643534E3,2.561764E3],"tree_param":{"num_deleted":"0","num_feature":"27","num_nodes":"7","size_leaf_vector":"0"}},{"base_weights":[2.9229568E-3,5.4000537E-3,-4.2612574E-1,-4.1309184E-1,7.7706072E-3,-2.1850698E-1,-4.8440683E-1],"categories":[],"categories_nodes":[],"categories_segments":[],"categories_sizes":[],"default_left":[1,1,1,0,0,0,0],"id":100,"left_children":[1,3,5,-1,-1,-1,-1],"loss_changes":[2.7964713E2,2.595379E2,1.8170563E1,0E0,0E0,0E0,0E0],"parents":[2147483647,0,0,1,1,2,2],"right_children":[2,4,6,-1,-1,-1,-1],"split_conditions":[3.4727404E-1,-9.974231E-1,5.324491E-1,-1.23927556E-1,2.3311824E-3,-6.555209E-2,-1.4532205E-1],"split_indices":[24,24,4,0,0,0,0],"split_type":[0,0,0,0,0,0,0],"sum_hessian":[2.6312097E5,2.6161156E5,1.5094175E3,1.4725797E3,2.6013898E5,3.3188168E2,1.1775358E3],"tree_param":{"num_deleted":"0","num_feature":"27","num_nodes":"7","size_leaf_vector":"0"}},{"base_weights":[2.0555502E-3,-3.715922E-1,4.7084265E-3,-4.3089616E-1,1.125005E-1,2.137467E-2,-5.9207987E-2],"categories":[],"categories_nodes":[],"categories_segments":[],"categories_sizes":[],"default_left":[1,1,1,0,0,0,0],"id":101,"left_children":[1,3,5,-1,-1,-1,-1],"loss_changes":[2.837349E2,5.798172E1,3.0276913E2,0E0,0E0,0E0,0E0],"parents":[2147483647,0,0,1,1,2,2],"right_children":[2,4,6,-1,-1,-1,-1],"split_conditions":[-9.990167E-1,9.4921255E-1,4.818537E-2,-1.2926885E-1,3.3750154E-2,6.4124013E-3,-1.7762396E-2],"split_indices":[24,21,24,0,0,0,0],"split_type":[0,0,0,0,0,0,0],"sum_hessian":[2.8623925E5,2.0169734E3,2.8422228E5,1.7969475E3,2.2002586E2,2.2543947E5,5.8782812E4],"tree_param":{"num_deleted":"0","num_feature":"27","num_nodes":"7","size_leaf_vector":"0"}},{"base_weights":[-1.9626366E-2,-5.553546E-2,2.4322674E-1,9.647562E-2,-1.4286816E-1,1.581457E-1,6.1406904E-1],"categories":[],"categories_nodes":[],"categories_segments":[],"categories_sizes":[],"default_left":[1,1,1,0,0,0,0],"id":102,"left_children":[1,3,5,-1,-1,-1,-1],"loss_changes":[6.197163E2,7.6686597E2,2.4889008E2,0E0,0E0,0E0,0E0],"parents":[2147483647,0,0,1,1,2,2],"right_children":[2,4,6,-1,-1,-1,-1],"split_conditions":[9.940606E-1,3.2380772E-1,1.23664024E2,2.8942687E-2,-4.286045E-2,4.744371E-2,1.8422072E-1],"split_indices":[4,21,2,0,0,0,0],"split_type":[0,0,0,0,0,0,0],"sum_hessian":[6.565371E4,5.7763293E4,7.8904165E3,2.107686E4,3.6686434E4,6.4191255E3,1.4712908E3],"tree_param":{"num_deleted":"0","num_feature":"27","num_nodes":"7","size_leaf_vector":"0"}},{"base_weights":[2.6601222E-3,-1.6604717E-1,8.353657E-3,-6.2005572E-2,-3.6043245E-1,2.1979341E-2,-6.751782E-2],"categories":[],"categories_nodes":[],"categories_segments":[],"categories_sizes":[],"default_left":[1,1,1,0,0,0,0],"id":103,"left_children":[1,3,5,-1,-1,-1,-1],"loss_changes":[2.5179588E2,1.7305356E2,2.621541E2,0E0,0E0,0E0,0E0],"parents":[2147483647,0,0,1,1,2,2],"right_children":[2,4,6,-1,-1,-1,-1],"split_conditions":[1.0657576E1,3.4780943E0,4.0509544E1,-1.8601673E-2,-1.0812974E-1,6.5938025E-3,-2.0255346E-2],"split_indices":[1,23,18,0,0,0,0],"split_type":[0,0,0,0,0,0,0],"sum_hessian":[2.6213725E5,8.556882E3,2.5358038E5,5.5745254E3,2.9823562E3,2.149741E5,3.8606277E4],"tree_param":{"num_deleted":"0","num_feature":"27","num_nodes":"7","size_leaf_vector":"0"}},{"base_weights":[2.073449E-3,8.117127E-3,-1.6114071E-1,5.601281E-2,-1.3448215E-2,-1.0371772E-1,-2.662224E-1],"categories":[],"categories_nodes":[],"categories_segments":[],"categories_sizes":[],"default_left":[1,1,1,0,0,0,0],"id":104,"left_children":[1,3,5,-1,-1,-1,-1],"loss_changes":[2.8127695E2,2.8401245E2,6.1410828E1,0E0,0E0,0E0,0E0],"parents":[2147483647,0,0,1,1,2,2],"right_children":[2,4,6,-1,-1,-1,-1],"split_conditions":[1.3724194E2,-5.2679425E-1,2.9014087E0,1.6803844E-2,-4.0344647E-3,-3.1115318E-2,-7.986672E-2],"split_indices":[11,24,23,0,0,0,0],"split_type":[0,0,0,0,0,0,0],"sum_hessian":[2.8514872E5,2.7496784E5,1.0180869E4,8.53679E4,1.8959995E5,6.5846206E3,3.5962485E3],"tree_param":{"num_deleted":"0","num_feature":"27","num_nodes":"7","size_leaf_vector":"0"}},{"base_weights":[-1.5813217E-2,-3.0163337E-2,5.5907035E-1,5.1189493E-2,-1.5336387E-1,7.90713E-1,5.142404E-1],"categories":[],"categories_nodes":[],"categories_segments":[],"categories_sizes":[],"default_left":[1,1,1,0,0,0,0],"id":105,"left_children":[1,3,5,-1,-1,-1,-1],"loss_changes":[5.3626465E2,6.3565216E2,1.6033295E1,0E0,0E0,0E0,0E0],"parents":[2147483647,0,0,1,1,2,2],"right_children":[2,4,6,-1,-1,-1,-1],"split_conditions":[1.2221686E2,4.5412323E1,3.0724983E0,1.5356849E-2,-4.600916E-2,2.3721391E-1,1.5427212E-1],"split_indices":[26,12,22,0,0,0,0],"split_type":[0,0,0,0,0,0,0],"sum_hessian":[6.5001508E4,6.3419395E4,1.5821138E3,3.8197246E4,2.5222146E4,2.538415E2,1.3282723E3],"tree_param":{"num_deleted":"0","num_feature":"27","num_nodes":"7","size_leaf_vector":"0"}},{"base_weights":[1.8012254E-3,3.906109E-2,-2.2838404E-2,4.606507E-2,-1.6913518E-1,-1.00746155E-1,3.9564753E-3],"categories":[],"categories_nodes":[],"categories_segments":[],"categories_sizes":[],"default_left":[1,1,1,0,0,0,0],"id":106,"left_children":[1,3,5,-1,-1,-1,-1],"loss_changes":[2.3984908E2,1.5165248E2,3.2828412E2,0E0,0E0,0E0,0E0],"parents":[2147483647,0,0,1,1,2,2],"right_children":[2,4,6,-1,-1,-1,-1],"split_conditions":[9.020623E-1,3.581831E0,6.620693E1,1.3819521E-2,-5.074056E-2,-3.0223848E-2,1.1869427E-3],"split_indices":[15,23,2,0,0,0,0],"split_type":[0,0,0,0,0,0,0],"sum_hessian":[2.612518E5,1.03993305E5,1.572585E5,1.0060945E5,3.3838462E3,4.024396E4,1.1701453E5],"tree_param":{"num_deleted":"0","num_feature":"27","num_nodes":"7","size_leaf_vector":"0"}},{"base_weights":[1.9586964E-3,4.284507E-3,-3.8866267E-1,-1.0345906E-1,1.219285E-2,-5.2867573E-1,-2.6757658E-1],"categories":[],"categories_nodes":[],"categories_segments":[],"categories_sizes":[],"default_left":[1,1,1,0,0,0,0],"id":107,"left_children":[1,3,5,-1,-1,-1,-1],"loss_changes":[2.5850766E2,2.4101425E2,2.8411148E1,0E0,0E0,0E0,0E0],"parents":[2147483647,0,0,1,1,2,2],"right_children":[2,4,6,-1,-1,-1,-1],"split_conditions":[4.528404E0,1.9818402E2,6.3075882E1,-3.103772E-2,3.657855E-3,-1.5860273E-1,-8.027297E-2],"split_indices":[23,3,8,0,0,0,0],"split_type":[0,0,0,0,0,0,0],"sum_hessian":[2.84537E5,2.828538E5,1.6831597E3,1.9340879E4,2.6351294E5,7.790128E2,9.0414685E2],"tree_param":{"num_deleted":"0","num_feature":"27","num_nodes":"7","size_leaf_vector":"0"}},{"base_weights":[-1.4833479E-2,-1.9993097E-1,2.705175E-2,-2.1876273E-1,1.0570111E0,9.8500684E-2,-1.2616667E-1],"categories":[],"categories_nodes":[],"categories_segments":[],"categories_sizes":[],"default_left":[1,1,1,0,0,0,0],"id":108,"left_children":[1,3,5,-1,-1,-1,-1],"loss_changes":[4.981497E2,2.8088602E2,5.7362085E2,0E0,0E0,0E0,0E0],"parents":[2147483647,0,0,1,1,2,2],"right_children":[2,4,6,-1,-1,-1,-1],"split_conditions":[2.683332E0,1.4488304E2,8.363783E-1,-6.562882E-2,3.1710336E-1,2.9550206E-2,-3.7850004E-2],"split_indices":[22,2,21,0,0,0,0],"split_type":[0,0,0,0,0,0,0],"sum_hessian":[6.4252047E4,1.1855765E4,5.239628E4,1.1681575E4,1.7418979E2,3.5733406E4,1.6662873E4],"tree_param":{"num_deleted":"0","num_feature":"27","num_nodes":"7","size_leaf_vector":"0"}},{"base_weights":[1.6657851E-3,9.886923E-3,-9.888444E-2,-3.4759033E-3,8.780157E-2,-2.669585E-1,5.3321023E-2],"categories":[],"categories_nodes":[],"categories_segments":[],"categories_sizes":[],"default_left":[1,1,1,0,0,0,0],"id":109,"left_children":[1,3,5,-1,-1,-1,-1],"loss_changes":[2.1519028E2,2.5054962E2,5.033479E2,0E0,0E0,0E0,0E0],"parents":[2147483647,0,0,1,1,2,2],"right_children":[2,4,6,-1,-1,-1,-1],"split_conditions":[1.0926555E2,1.2524353E0,1.1918983E2,-1.042771E-3,2.6340472E-2,-8.008756E-2,1.5996307E-2],"split_indices":[26,21,2,0,0,0,0],"split_type":[0,0,0,0,0,0,0],"sum_hessian":[2.6031789E5,2.4064342E5,1.9674465E4,2.0541455E5,3.5228863E4,9.349478E3,1.0324988E4],"tree_param":{"num_deleted":"0","num_feature":"27","num_nodes":"7","size_leaf_vector":"0"}},{"base_weights":[1.8316092E-3,-3.7071207E-1,4.072031E-3,2.4725279E-2,-4.4056356E-1,-7.540355E-2,1.5173379E-2],"categories":[],"categories_nodes":[],"categories_segments":[],"categories_sizes":[],"default_left":[1,1,1,0,0,0,0],"id":110,"left_children":[1,3,5,-1,-1,-1,-1],"loss_changes":[2.367173E2,4.6841003E1,2.4873062E2,0E0,0E0,0E0,0E0],"parents":[2147483647,0,0,1,1,2,2],"right_children":[2,4,6,-1,-1,-1,-1],"split_conditions":[-9.991953E-1,8.5356155E1,3.8638466E1,7.417584E-3,-1.3216907E-1,-2.2621065E-2,4.552014E-3],"split_indices":[24,8,11,0,0,0,0],"split_type":[0,0,0,0,0,0,0],"sum_hessian":[2.8360816E5,1.6943978E3,2.8191375E5,2.5446848E2,1.4399294E3,3.4551387E4,2.4736238E5],"tree_param":{"num_deleted":"0","num_feature":"27","num_nodes":"7","size_leaf_vector":"0"}},{"base_weights":[-1.584993E-2,-3.924905E-2,3.3342713E-1,-9.432199E-2,1.1154694E-1,1.3341E-1,4.522821E-1],"categories":[],"categories_nodes":[],"categories_segments":[],"categories_sizes":[],"default_left":[1,1,1,0,0,0,0],"id":111,"left_children":[1,3,5,-1,-1,-1,-1],"loss_changes":[5.170692E2,4.9243658E2,9.437442E1,0E0,0E0,0E0,0E0],"parents":[2147483647,0,0,1,1,2,2],"right_children":[2,4,6,-1,-1,-1,-1],"split_conditions":[1.7090484E-1,3.1136465E0,2.4942598E0,-2.8296597E-2,3.3464085E-2,4.0023003E-2,1.3568464E-1],"split_indices":[24,22,22,0,0,0,0],"split_type":[0,0,0,0,0,0,0],"sum_hessian":[6.3264652E4,5.9293305E4,3.9713496E3,4.3431754E4,1.5861548E4,1.4810542E3,2.4902954E3],"tree_param":{"num_deleted":"0","num_feature":"27","num_nodes":"7","size_leaf_vector":"0"}},{"base_weights":[1.9923835E-3,6.372597E-3,-1.8434353E-1,-9.1965616E-2,1.4744131E-2,-7.379095E-2,-4.0703818E-1],"categories":[],"categories_nodes":[],"categories_segments":[],"categories_sizes":[],"default_left":[1,1,1,0,0,0,0],"id":112,"left_children":[1,3,5,-1,-1,-1,-1],"loss_changes":[2.1219307E2,2.0911148E2,1.4697285E2,0E0,0E0,0E0,0E0],"parents":[2147483647,0,0,1,1,2,2],"right_children":[2,4,6,-1,-1,-1,-1],"split_conditions":[1.6978444E-1,3.4501526E1,1.0599945E2,-2.7589686E-2,4.4232393E-3,-2.2137286E-2,-1.2211146E-1],"split_indices":[24,2,6,0,0,0,0],"split_type":[0,0,0,0,0,0,0],"sum_hessian":[2.5997722E5,2.5400722E5,5.970002E3,1.992645E4,2.3408077E5,3.9903828E3,1.9796193E3],"tree_param":{"num_deleted":"0","num_feature":"27","num_nodes":"7","size_leaf_vector":"0"}},{"base_weights":[1.7130874E-3,3.5968611E-3,-4.0676874E-1,-2.5817849E-2,2.9433219E-2,-4.354132E-1,2.0460367E0],"categories":[],"categories_nodes":[],"categories_segments":[],"categories_sizes":[],"default_left":[1,1,1,0,0,0,0],"id":113,"left_children":[1,3,5,-1,-1,-1,-1],"loss_changes":[2.1775554E2,2.140748E2,9.216118E1,0E0,0E0,0E0,0E0],"parents":[2147483647,0,0,1,1,2,2],"right_children":[2,4,6,-1,-1,-1,-1],"split_conditions":[3.2370287E-1,3.0326109E1,9.987112E-1,-7.745355E-3,8.829966E-3,-1.3062397E-1,6.13811E-1],"split_indices":[24,17,24,0,0,0,0],"split_type":[0,0,0,0,0,0,0],"sum_hessian":[2.829849E5,2.8168688E5,1.2980491E3,1.3172167E5,1.499652E5,1.2838782E3,1.4170967E1],"tree_param":{"num_deleted":"0","num_feature":"27","num_nodes":"7","size_leaf_vector":"0"}},{"base_weights":[-1.5828108E-2,2.3447205E-1,-4.674393E-2,4.419253E-1,9.9084266E-2,-1.7456877E-1,5.9100647E-2],"categories":[],"categories_nodes":[],"categories_segments":[],"categories_sizes":[],"default_left":[1,1,1,0,0,0,0],"id":114,"left_children":[1,3,5,-1,-1,-1,-1],"loss_changes":[4.8163763E2,1.9214127E2,7.4952496E2,0E0,0E0,0E0,0E0],"parents":[2147483647,0,0,1,1,2,2],"right_children":[2,4,6,-1,-1,-1,-1],"split_conditions":[5.6808395E0,1.4060778E1,3.0608044E0,1.325776E-1,2.9725282E-2,-5.2370634E-2,1.7730195E-2],"split_indices":[18,1,22,0,0,0,0],"split_type":[0,0,0,0,0,0,0],"sum_hessian":[6.2238863E4,6.841581E3,5.539728E4,2.7008438E3,4.1407373E3,2.5092857E4,3.0304426E4],"tree_param":{"num_deleted":"0","num_feature":"27","num_nodes":"7","size_leaf_vector":"0"}},{"base_weights":[2.123138E-3,-3.9257285E-1,4.0548937E-3,-4.5361015E-1,4.774532E-2,2.0644164E-2,-4.190665E-2],"categories":[],"categories_nodes":[],"categories_segments":[],"categories_sizes":[],"default_left":[1,1,1,0,0,0,0],"id":115,"left_children":[1,3,5,-1,-1,-1,-1],"loss_changes":[1.97962E2,3.4007492E1,1.97001E2,0E0,0E0,0E0,0E0],"parents":[2147483647,0,0,1,1,2,2],"right_children":[2,4,6,-1,-1,-1,-1],"split_conditions":[-9.974231E-1,8.01046E-1,1.3480148E0,-1.3608305E-1,1.4323597E-2,6.1932495E-3,-1.2571996E-2],"split_indices":[24,21,15,0,0,0,0],"split_type":[0,0,0,0,0,0,0],"sum_hessian":[2.596341E5,1.2635503E3,2.5837053E5,1.1096934E3,1.5385692E2,1.898478E5,6.852274E4],"tree_param":{"num_deleted":"0","num_feature":"27","num_nodes":"7","size_leaf_vector":"0"}},{"base_weights":[1.5363581E-3,-1.0971102E-1,8.19874E-3,-8.480514E-2,-3.9979327E-1,9.060141E-2,-8.549415E-3],"categories":[],"categories_nodes":[],"categories_segments":[],"categories_sizes":[],"default_left":[1,1,1,0,0,0,0],"id":116,"left_children":[1,3,5,-1,-1,-1,-1],"loss_changes":[2.0932281E2,1.1525833E2,3.6774445E2,0E0,0E0,0E0,0E0],"parents":[2147483647,0,0,1,1,2,2],"right_children":[2,4,6,-1,-1,-1,-1],"split_conditions":[3.523832E1,3.6447406E0,4.5972816E1,-2.5441542E-2,-1.19937986E-1,2.7180424E-2,-2.5648244E-3],"split_indices":[26,23,2,0,0,0,0],"split_type":[0,0,0,0,0,0,0],"sum_hessian":[2.8241897E5,1.5956949E4,2.6646203E5,1.4696436E4,1.2605139E3,4.500894E4,2.214531E5],"tree_param":{"num_deleted":"0","num_feature":"27","num_nodes":"7","size_leaf_vector":"0"}},{"base_weights":[-1.2958166E-2,-1.1167515E-1,6.2397502E-2,7.627833E-2,-2.0898144E-1,3.0311164E-2,5.2114266E-1],"categories":[],"categories_nodes":[],"categories_segments":[],"categories_sizes":[],"default_left":[1,1,1,0,0,0,0],"id":117,"left_children":[1,3,5,-1,-1,-1,-1],"loss_changes":[4.542472E2,4.8347577E2,5.0971262E2,0E0,0E0,0E0,0E0],"parents":[2147483647,0,0,1,1,2,2],"right_children":[2,4,6,-1,-1,-1,-1],"split_conditions":[7.9449123E-1,-9.4556E-1,1.2866673E2,2.2883499E-2,-6.269444E-2,9.09335E-3,1.563428E-1],"split_indices":[4,24,2,0,0,0,0],"split_type":[0,0,0,0,0,0,0],"sum_hessian":[6.1061953E4,2.6433377E4,3.462858E4,9.016887E3,1.741649E4,3.2365855E4,2.262722E3],"tree_param":{"num_deleted":"0","num_feature":"27","num_nodes":"7","size_leaf_vector":"0"}},{"base_weights":[1.3952518E-3,1.7251048E-2,-4.1226387E-2,5.7390286E-4,1.6303864E-1,-1.4947352E-1,3.214743E-2],"categories":[],"categories_nodes":[],"categories_segments":[],"categories_sizes":[],"default_left":[1,1,1,0,0,0,0],"id":118,"left_children":[1,3,5,-1,-1,-1,-1],"loss_changes":[1.7505222E2,4.5902176E2,5.57841E2,0E0,0E0,0E0,0E0],"parents":[2147483647,0,0,1,1,2,2],"right_children":[2,4,6,-1,-1,-1,-1],"split_conditions":[4.5317432E1,1.2747746E0,-3.513262E-2,1.7217087E-4,4.8911594E-2,-4.4842057E-2,9.644229E-3],"split_indices":[19,21,24,0,0,0,0],"split_type":[0,0,0,0,0,0,0],"sum_hessian":[2.5902755E5,1.8879425E5,7.023329E4,1.6941527E5,1.9378992E4,2.8373426E4,4.1859863E4],"tree_param":{"num_deleted":"0","num_feature":"27","num_nodes":"7","size_leaf_vector":"0"}},{"base_weights":[1.5266102E-3,-6.3566E-2,1.2311712E-2,3.7389603E-2,-1.7469946E-1,9.5098615E-2,-3.9990307E-3],"categories":[],"categories_nodes":[],"categories_segments":[],"categories_sizes":[],"default_left":[1,1,1,0,0,0,0],"id":119,"left_children":[1,3,5,-1,-1,-1,-1],"loss_changes":[1.976744E2,4.4904114E2,3.261727E2,0E0,0E0,0E0,0E0],"parents":[2147483647,0,0,1,1,2,2],"right_children":[2,4,6,-1,-1,-1,-1],"split_conditions":[4.092581E1,-4.31916E-1,5.323529E1,1.1216881E-2,-5.240984E-2,2.8529586E-2,-1.1997093E-3],"split_indices":[11,24,2,0,0,0,0],"split_type":[0,0,0,0,0,0,0],"sum_hessian":[2.8157316E5,4.0021535E4,2.4155161E5,2.0971404E4,1.905013E4,3.9756824E4,2.017948E5],"tree_param":{"num_deleted":"0","num_feature":"27","num_nodes":"7","size_leaf_vector":"0"}},{"base_weights":[-8.952292E-3,-2.078528E-2,5.7383823E-1,7.1479104E-2,-1.02878466E-1,1.1283505E0,5.4532945E-1],"categories":[],"categories_nodes":[],"categories_segments":[],"categories_sizes":[],"default_left":[1,1,1,0,0,0,0],"id":120,"left_children":[1,3,5,-1,-1,-1,-1],"loss_changes":[4.1665186E2,4.4851785E2,1.839151E1,0E0,0E0,0E0,0E0],"parents":[2147483647,0,0,1,1,2,2],"right_children":[2,4,6,-1,-1,-1,-1],"split_conditions":[1.2303467E2,6.3814266E1,3.0925496E0,2.1443732E-2,-3.086354E-2,3.3850515E-1,1.6359884E-1],"split_indices":[26,26,23,0,0,0,0],"split_type":[0,0,0,0,0,0,0],"sum_hessian":[6.0415277E4,5.921396E4,1.2013169E3,2.787991E4,3.133405E4,5.685603E1,1.1444608E3],"tree_param":{"num_deleted":"0","num_feature":"27","num_nodes":"7","size_leaf_vector":"0"}},{"base_weights":[6.7323924E-4,2.26711E-3,-3.9764553E-1,2.5065126E-2,-2.4153927E-2,5.6137496E-1,-4.112436E-1],"categories":[],"categories_nodes":[],"categories_segments":[],"categories_sizes":[],"default_left":[1,1,1,0,0,0,0],"id":121,"left_children":[1,3,5,-1,-1,-1,-1],"loss_changes":[1.6375026E2,1.5474326E2,1.3636581E1,0E0,0E0,0E0,0E0],"parents":[2147483647,0,0,1,1,2,2],"right_children":[2,4,6,-1,-1,-1,-1],"split_conditions":[3.6710328E-1,1.0868781E0,5.8132872E-2,7.519538E-3,-7.2461786E-3,1.6841249E-1,-1.23373084E-1],"split_indices":[24,15,23,0,0,0,0],"split_type":[0,0,0,0,0,0,0],"sum_hessian":[2.5792539E5,2.568984E5,1.0269835E3,1.3790439E5,1.18994016E5,1.3794918E1,1.01318854E3],"tree_param":{"num_deleted":"0","num_feature":"27","num_nodes":"7","size_leaf_vector":"0"}},{"base_weights":[1.3093423E-3,2.5165605E-3,-5.4417366E-1,4.3378924E-3,-3.4785235E-1,5.172969E-1,-5.481914E-1],"categories":[],"categories_nodes":[],"categories_segments":[],"categories_sizes":[],"default_left":[1,1,1,0,0,0,0],"id":122,"left_children":[1,3,5,-1,-1,-1,-1],"loss_changes":[1.8468893E2,1.7857898E2,2.92482E0,0E0,0E0,0E0,0E0],"parents":[2147483647,0,0,1,1,2,2],"right_children":[2,4,6,-1,-1,-1,-1],"split_conditions":[1.2605934E2,4.528404E0,2.0776906E0,1.3013678E-3,-1.0435571E-1,1.5518908E-1,-1.6445744E-1],"split_indices":[26,23,23,0,0,0,0],"split_type":[0,0,0,0,0,0,0],"sum_hessian":[2.804588E5,2.798405E5,6.183246E2,2.7839428E5,1.4461967E3,1.849855E0,6.1647473E2],"tree_param":{"num_deleted":"0","num_feature":"27","num_nodes":"7","size_leaf_vector":"0"}},{"base_weights":[-9.611143E-3,-2.1268312E-2,5.0098383E-1,-4.400893E-2,2.516154E-1,1.746204E0,3.4525463E-1],"categories":[],"categories_nodes":[],"categories_segments":[],"categories_sizes":[],"default_left":[1,1,1,0,0,0,0],"id":123,"left_children":[1,3,5,-1,-1,-1,-1],"loss_changes":[3.5673444E2,3.6362924E2,2.588178E2,0E0,0E0,0E0,0E0],"parents":[2147483647,0,0,1,1,2,2],"right_children":[2,4,6,-1,-1,-1,-1],"split_conditions":[1.1989572E2,4.0634394E0,1.01723816E2,-1.3202679E-2,7.5484626E-2,5.238612E-1,1.0357639E-1],"split_indices":[0,23,6,0,0,0,0],"split_type":[0,0,0,0,0,0,0],"sum_hessian":[5.9931492E4,5.85947E4,1.3367915E3,5.4088133E4,4.5065664E3,1.4746216E2,1.1893293E3],"tree_param":{"num_deleted":"0","num_feature":"27","num_nodes":"7","size_leaf_vector":"0"}},{"base_weights":[1.1213111E-3,-3.6835042E-1,2.6622931E-3,-4.5601493E-1,-2.8827233E-2,-4.006952E-3,9.707872E-2],"categories":[],"categories_nodes":[],"categories_segments":[],"categories_sizes":[],"default_left":[1,1,1,0,0,0,0],"id":124,"left_children":[1,3,5,-1,-1,-1,-1],"loss_changes":[1.468242E2,3.186705E1,1.6170943E2,0E0,0E0,0E0,0E0],"parents":[2147483647,0,0,1,1,2,2],"right_children":[2,4,6,-1,-1,-1,-1],"split_conditions":[-9.9755275E-1,6.510334E-1,1.1231798E2,-1.3680449E-1,-8.64817E-3,-1.2020856E-3,2.9123617E-2],"split_indices":[24,21,12,0,0,0,0],"split_type":[0,0,0,0,0,0,0],"sum_hessian":[2.5787798E5,1.0700941E3,2.5680789E5,8.502242E2,2.1986998E2,2.3986558E5,1.6942307E4],"tree_param":{"num_deleted":"0","num_feature":"27","num_nodes":"7","size_leaf_vector":"0"}},{"base_weights":[1.0234398E-3,-3.4983107E-1,2.817226E-3,-3.9734897E-1,2.5188318E-1,5.8523007E-3,-1.9626391E-1],"categories":[],"categories_nodes":[],"categories_segments":[],"categories_sizes":[],"default_left":[1,1,1,0,0,0,0],"id":125,"left_children":[1,3,5,-1,-1,-1,-1],"loss_changes":[1.7640219E2,4.0864624E1,1.6849734E2,0E0,0E0,0E0,0E0],"parents":[2147483647,0,0,1,1,2,2],"right_children":[2,4,6,-1,-1,-1,-1],"split_conditions":[-9.992573E-1,1.1264688E0,9.9602354E-1,-1.1920469E-1,7.556496E-2,1.7556903E-3,-5.8879174E-2],"split_indices":[24,21,4,0,0,0,0],"split_type":[0,0,0,0,0,0,0],"sum_hessian":[2.8028653E5,1.4247228E3,2.788618E5,1.3207609E3,1.0396198E2,2.7467525E5,4.186568E3],"tree_param":{"num_deleted":"0","num_feature":"27","num_nodes":"7","size_leaf_vector":"0"}},{"base_weights":[-1.1361493E-2,-4.7459636E-2,1.4276084E-1,4.9326833E-2,-1.8349433E-1,-5.7772055E-2,2.4402139E-1],"categories":[],