{"learner":{"attributes":{"best_iteration":"199","best_ntree_limit":"200","scikit_learn":"{\"use_label_encoder\": false, \"n_estimators\": 200, \"objective\": \"multi:softprob\", \"max_depth\": 2, \"max_leaves\": null, \"max_bin\": null, \"grow_policy\": null, \"learning_rate\": 0.3, \"verbosity\": null, \"booster\": null, \"tree_method\": null, \"gamma\": null, \"min_child_weight\": null, \"max_delta_step\": null, \"subsample\": null, \"sampling_method\": null, \"colsample_bytree\": null, \"colsample_bylevel\": null, \"colsample_bynode\": null, \"reg_alpha\": null, \"reg_lambda\": null, \"scale_pos_weight\": null, \"base_score\": null, \"missing\": NaN, \"num_parallel_tree\": null, \"random_state\": null, \"n_jobs\": null, \"monotone_constraints\": null, \"interaction_constraints\": null, \"importance_type\": null, \"gpu_id\": null, \"validate_parameters\": null, \"predictor\": null, \"enable_categorical\": false, \"max_cat_to_onehot\": null, \"eval_metric\": null, \"early_stopping_rounds\": null, \"callbacks\": null, \"classes_\": [0, 1, 2], \"n_classes_\": 3, \"_estimator_type\": \"classifier\"}"},"feature_names":[],"feature_types":[],"gradient_booster":{"model":{"gbtree_model_param":{"num_parallel_tree":"1","num_trees":"600","size_leaf_vector":"0"},"tree_info":[0,1,2,0,1,2,0,1,2,0,1,2,0,1,2,0,1,2,0,1,2,0,1,2,0,1,2,0,1,2,0,1,2,0,1,2,0,1,2,0,1,2,0,1,2,0,1,2,0,1,2,0,1,2,0,1,2,0,1,2,0,1,2,0,1,2,0,1,2,0,1,2,0,1,2,0,1,2,0,1,2,0,1,2,0,1,2,0,1,2,0,1,2,0,1,2,0,1,2,0,1,2,0,1,2,0,1,2,0,1,2,0,1,2,0,1,2,0,1,2,0,1,2,0,1,2,0,1,2,0,1,2,0,1,2,0,1,2,0,1,2,0,1,2,0,1,2,0,1,2,0,1,2,0,1,2,0,1,2,0,1,2,0,1,2,0,1,2,0,1,2,0,1,2,0,1,2,0,1,2,0,1,2,0,1,2,0,1,2,0,1,2,0,1,2,0,1,2,0,1,2,0,1,2,0,1,2,0,1,2,0,1,2,0,1,2,0,1,2,0,1,2,0,1,2,0,1,2,0,1,2,0,1,2,0,1,2,0,1,2,0,1,2,0,1,2,0,1,2,0,1,2,0,1,2,0,1,2,0,1,2,0,1,2,0,1,2,0,1,2,0,1,2,0,1,2,0,1,2,0,1,2,0,1,2,0,1,2,0,1,2,0,1,2,0,1,2,0,1,2,0,1,2,0,1,2,0,1,2,0,1,2,0,1,2,0,1,2,0,1,2,0,1,2,0,1,2,0,1,2,0,1,2,0,1,2,0,1,2,0,1,2,0,1,2,0,1,2,0,1,2,0,1,2,0,1,2,0,1,2,0,1,2,0,1,2,0,1,2,0,1,2,0,1,2,0,1,2,0,1,2,0,1,2,0,1,2,0,1,2,0,1,2,0,1,2,0,1,2,0,1,2,0,1,2,0,1,2,0,1,2,0,1,2,0,1,2,0,1,2,0,1,2,0,1,2,0,1,2,0,1,2,0,1,2,0,1,2,0,1,2,0,1,2,0,1,2,0,1,2,0,1,2,0,1,2,0,1,2,0,1,2,0,1,2,0,1,2,0,1,2,0,1,2,0,1,2,0,1,2,0,1,2,0,1,2,0,1,2,0,1,2,0,1,2,0,1,2,0,1,2,0,1,2,0,1,2,0,1,2,0,1,2,0,1,2,0,1,2,0,1,2,0,1,2,0,1,2,0,1,2,0,1,2,0,1,2,0,1,2,0,1,2,0,1,2,0,1,2,0,1,2,0,1,2,0,1,2,0,1,2,0,1,2,0,1,2,0,1,2,0,1,2,0,1,2,0,1,2,0,1,2,0,1,2,0,1,2,0,1,2,0,1,2,0,1,2,0,1,2],"trees":[{"base_weights":[-4.4026944E-8,-5.7787746E-1,9.5788074E-1,-6.241951E-1,1.2951975E0,3.7725165E-1,1.2941135E0],"categories":[],"categories_nodes":[],"categories_segments":[],"categories_sizes":[],"default_left":[1,1,1,0,0,0,0],"id":0,"left_children":[1,3,5,-1,-1,-1,-1],"loss_changes":[2.4672122E5,2.4119273E4,3.2741953E4,0E0,0E0,0E0,0E0],"parents":[2147483647,0,0,1,1,2,2],"right_children":[2,4,6,-1,-1,-1,-1],"split_conditions":[3.102231E0,2.50573E-1,3.0548396E0,-1.8725854E-1,3.8855925E-1,1.13175504E-1,3.8823408E-1],"split_indices":[23,24,22,0,0,0,0],"split_type":[0,0,0,0,0,0,0],"sum_hessian":[4.457151E5,2.78001E5,1.6771411E5,2.712931E5,6.707906E3,6.150511E4,1.0620899E5],"tree_param":{"num_deleted":"0","num_feature":"33","num_nodes":"7","size_leaf_vector":"0"}},{"base_weights":[-2.1140565E-8,6.402647E-1,-4.1628295E-1,2.234175E-1,8.420068E-1,-9.6264645E-2,-6.0591507E-1],"categories":[],"categories_nodes":[],"categories_segments":[],"categories_sizes":[],"default_left":[1,1,1,0,0,0,0],"id":1,"left_children":[1,3,5,-1,-1,-1,-1],"loss_changes":[1.1879754E5,1.4768172E4,1.6391355E4,0E0,0E0,0E0,0E0],"parents":[2147483647,0,0,1,1,2,2],"right_children":[2,4,6,-1,-1,-1,-1],"split_conditions":[2.486527E0,-1.7348146E-1,3.0944736E0,6.702525E-2,2.5260204E-1,-2.8879395E-2,-1.8177453E-1],"split_indices":[23,24,23,0,0,0,0],"split_type":[0,0,0,0,0,0,0],"sum_hessian":[4.457151E5,1.7561288E5,2.7010222E5,5.7273773E4,1.183391E5,1.0050092E5,1.696013E5],"tree_param":{"num_deleted":"0","num_feature":"33","num_nodes":"7","size_leaf_vector":"0"}},{"base_weights":[-6.894265E-8,1.862635E-1,-5.948781E-1,4.2258403E-1,-1.9125E-1,-7.192049E-1,-4.7643274E-1],"categories":[],"categories_nodes":[],"categories_segments":[],"categories_sizes":[],"default_left":[1,1,1,0,0,0,0],"id":2,"left_children":[1,3,5,-1,-1,-1,-1],"loss_changes":[4.938728E4,3.0282553E4,1.5647539E3,0E0,0E0,0E0,0E0],"parents":[2147483647,0,0,1,1,2,2],"right_children":[2,4,6,-1,-1,-1,-1],"split_conditions":[3.0628192E0,-1.1316892E-1,9.9989074E-1,1.2677522E-1,-5.7375003E-2,-2.1576148E-1,-1.4292982E-1],"split_indices":[22,24,28,0,0,0,0],"split_type":[0,0,0,0,0,0,0],"sum_hessian":[4.457151E5,3.3943466E5,1.06280445E5,2.0875533E5,1.3067933E5,5.1850363E4,5.4430082E4],"tree_param":{"num_deleted":"0","num_feature":"33","num_nodes":"7","size_leaf_vector":"0"}},{"base_weights":[-7.008652E-3,-5.1417375E-1,6.6823876E-1,-5.557446E-1,9.7921497E-1,2.4318475E-1,8.6642694E-1],"categories":[],"categories_nodes":[],"categories_segments":[],"categories_sizes":[],"default_left":[1,1,1,0,0,0,0],"id":3,"left_children":[1,3,5,-1,-1,-1,-1],"loss_changes":[1.4877328E5,1.5402219E4,1.5696727E4,0E0,0E0,0E0,0E0],"parents":[2147483647,0,0,1,1,2,2],"right_children":[2,4,6,-1,-1,-1,-1],"split_conditions":[3.0881925E0,2.393946E-1,3.0289237E0,-1.6672339E-1,2.937645E-1,7.295543E-2,2.599281E-1],"split_indices":[23,24,22,0,0,0,0],"split_type":[0,0,0,0,0,0,0],"sum_hessian":[4.344208E5,2.4808744E5,1.8633338E5,2.4136917E5,6.718265E3,5.9253875E4,1.2707951E5],"tree_param":{"num_deleted":"0","num_feature":"33","num_nodes":"7","size_leaf_vector":"0"}},{"base_weights":[1.2520497E-3,4.355697E-1,-3.779511E-1,4.9958315E-2,5.712413E-1,-2.0941171E-1,-6.034837E-1],"categories":[],"categories_nodes":[],"categories_segments":[],"categories_sizes":[],"default_left":[1,1,1,0,0,0,0],"id":4,"left_children":[1,3,5,-1,-1,-1,-1],"loss_changes":[7.2153484E4,1.0683633E4,8.890398E3,0E0,0E0,0E0,0E0],"parents":[2147483647,0,0,1,1,2,2],"right_children":[2,4,6,-1,-1,-1,-1],"split_conditions":[2.5912342E0,-2.7596664E-1,3.0416265E0,1.4987495E-2,1.713724E-1,-6.282352E-2,-1.8104511E-1],"split_indices":[23,24,22,0,0,0,0],"split_type":[0,0,0,0,0,0,0],"sum_hessian":[4.381027E5,2.0421095E5,2.3389175E5,5.314928E4,1.5106167E5,1.3386044E5,1.00031305E5],"tree_param":{"num_deleted":"0","num_feature":"33","num_nodes":"7","size_leaf_vector":"0"}},{"base_weights":[5.6775524E-3,1.4173523E-1,-5.180625E-1,2.9825693E-1,-1.7578368E-1,-3.7653753E-1,-6.231861E-1],"categories":[],"categories_nodes":[],"categories_segments":[],"categories_sizes":[],"default_left":[1,1,1,0,0,0,0],"id":5,"left_children":[1,3,5,-1,-1,-1,-1],"loss_changes":[3.1329508E4,1.7344633E4,1.3486055E3,0E0,0E0,0E0,0E0],"parents":[2147483647,0,0,1,1,2,2],"right_children":[2,4,6,-1,-1,-1,-1],"split_conditions":[3.0704813E0,-6.890688E-2,9.6668446E-1,8.9477085E-2,-5.2735105E-2,-1.1296126E-1,-1.8695584E-1],"split_indices":[22,24,4,0,0,0,0],"split_type":[0,0,0,0,0,0,0],"sum_hessian":[4.3965572E5,3.4899438E5,9.066136E4,2.3376127E5,1.1523311E5,3.864258E4,5.201878E4],"tree_param":{"num_deleted":"0","num_feature":"33","num_nodes":"7","size_leaf_vector":"0"}},{"base_weights":[-1.4288297E-2,-4.4735625E-1,5.400132E-1,-4.9712852E-1,8.214234E-1,3.5403004E-1,8.030829E-1],"categories":[],"categories_nodes":[],"categories_segments":[],"categories_sizes":[],"default_left":[1,1,1,0,0,0,0],"id":6,"left_children":[1,3,5,-1,-1,-1,-1],"loss_changes":[9.7914805E4,1.4461E4,8.752918E3,0E0,0E0,0E0,0E0],"parents":[2147483647,0,0,1,1,2,2],"right_children":[2,4,6,-1,-1,-1,-1],"split_conditions":[3.1128597E0,2.3061627E-1,9.779507E-1,-1.4913855E-1,2.4642703E-1,1.0620902E-1,2.4092488E-1],"split_indices":[23,24,4,0,0,0,0],"split_type":[0,0,0,0,0,0,0],"sum_hessian":[4.0789103E5,2.2898694E5,1.7890408E5,2.203438E5,8.643136E3,1.0480918E5,7.40949E4],"tree_param":{"num_deleted":"0","num_feature":"33","num_nodes":"7","size_leaf_vector":"0"}},{"base_weights":[2.082783E-3,3.9810792E-1,-2.70386E-1,4.1651937E-1,-4.4071758E-1,-7.1640916E-2,-4.6737117E-1],"categories":[],"categories_nodes":[],"categories_segments":[],"categories_sizes":[],"default_left":[1,1,1,0,0,0,0],"id":7,"left_children":[1,3,5,-1,-1,-1,-1],"loss_changes":[4.5635367E4,2.6623867E3,9.808797E3,0E0,0E0,0E0,0E0],"parents":[2147483647,0,0,1,1,2,2],"right_children":[2,4,6,-1,-1,-1,-1],"split_conditions":[2.3626041E0,2.1993715E-1,3.1194434E0,1.2495582E-1,-1.3221528E-1,-2.1492276E-2,-1.4021136E-1],"split_indices":[23,24,23,0,0,0,0],"split_type":[0,0,0,0,0,0,0],"sum_hessian":[4.2292175E5,1.7237681E5,2.5054494E5,1.6867505E5,3.7017605E3,1.24716016E5,1.2582892E5],"tree_param":{"num_deleted":"0","num_feature":"33","num_nodes":"7","size_leaf_vector":"0"}},{"base_weights":[1.153449E-2,1.0987464E-1,-4.822313E-1,-3.198042E-1,2.0815623E-1,-5.972261E-1,-3.613392E-1],"categories":[],"categories_nodes":[],"categories_segments":[],"categories_sizes":[],"default_left":[1,1,1,0,0,0,0],"id":8,"left_children":[1,3,5,-1,-1,-1,-1],"loss_changes":[2.0826432E4,1.5104367E4,9.9009375E2,0E0,0E0,0E0,0E0],"parents":[2147483647,0,0,1,1,2,2],"right_children":[2,4,6,-1,-1,-1,-1],"split_conditions":[3.0887966E0,2.3419952E2,9.999661E-1,-9.594126E-2,6.244687E-2,-1.7916784E-1,-1.0840177E-1],"split_indices":[22,3,28,0,0,0,0],"split_type":[0,0,0,0,0,0,0],"sum_hessian":[4.2890478E5,3.5767062E5,7.123418E4,6.658116E4,2.9108947E5,3.650551E4,3.4728664E4],"tree_param":{"num_deleted":"0","num_feature":"33","num_nodes":"7","size_leaf_vector":"0"}},{"base_weights":[-2.2969147E-2,-4.2824405E-1,4.037985E-1,-4.5360437E-1,2.0026479E0,6.8091697E-1,2.3295881E-1],"categories":[],"categories_nodes":[],"categories_segments":[],"categories_sizes":[],"default_left":[1,1,1,0,0,0,0],"id":9,"left_children":[1,3,5,-1,-1,-1,-1],"loss_changes":[6.5407758E4,1.1958785E4,8.720445E3,0E0,0E0,0E0,0E0],"parents":[2147483647,0,0,1,1,2,2],"right_children":[2,4,6,-1,-1,-1,-1],"split_conditions":[3.0599298E0,1.187575E2,9.9982727E-1,-1.3608132E-1,6.007944E-1,2.042751E-1,6.9887646E-2],"split_indices":[23,26,28,0,0,0,0],"split_type":[0,0,0,0,0,0,0],"sum_hessian":[3.7816884E5,1.9396872E5,1.8420012E5,1.9196683E5,2.0018822E3,7.024804E4,1.13952086E5],"tree_param":{"num_deleted":"0","num_feature":"33","num_nodes":"7","size_leaf_vector":"0"}},{"base_weights":[3.5715534E-3,3.4930208E-1,-2.1297471E-1,2.2851193E-1,4.349684E-1,-9.885491E-2,-5.1577854E-1],"categories":[],"categories_nodes":[],"categories_segments":[],"categories_sizes":[],"default_left":[1,1,1,0,0,0,0],"id":10,"left_children":[1,3,5,-1,-1,-1,-1],"loss_changes":[3.0473883E4,1.6220156E3,8.64862E3,0E0,0E0,0E0,0E0],"parents":[2147483647,0,0,1,1,2,2],"right_children":[2,4,6,-1,-1,-1,-1],"split_conditions":[2.263579E0,-2.7602833E-2,3.0634067E0,6.855358E-2,1.3049053E-1,-2.9656474E-2,-1.5473357E-1],"split_indices":[23,24,22,0,0,0,0],"split_type":[0,0,0,0,0,0,0],"sum_hessian":[4.0704016E5,1.5676067E5,2.5027947E5,6.5047242E4,9.171343E4,1.8177427E5,6.850521E4],"tree_param":{"num_deleted":"0","num_feature":"33","num_nodes":"7","size_leaf_vector":"0"}},{"base_weights":[1.7251065E-2,9.189754E-2,-4.407758E-1,-3.423711E-1,1.6241813E-1,-5.560458E-1,-3.1779164E-1],"categories":[],"categories_nodes":[],"categories_segments":[],"categories_sizes":[],"default_left":[1,1,1,0,0,0,0],"id":11,"left_children":[1,3,5,-1,-1,-1,-1],"loss_changes":[1.4334143E4,1.1040221E4,8.32708E2,0E0,0E0,0E0,0E0],"parents":[2147483647,0,0,1,1,2,2],"right_children":[2,4,6,-1,-1,-1,-1],"split_conditions":[3.094426E0,2.2663348E2,9.999855E-1,-1.02711335E-1,4.872544E-2,-1.6681373E-1,-9.5337495E-2],"split_indices":[22,3,28,0,0,0,0],"split_type":[0,0,0,0,0,0,0],"sum_hessian":[4.1924625E5,3.6049562E5,5.875062E4,5.036179E4,3.1013384E5,3.0324604E4,2.8426018E4],"tree_param":{"num_deleted":"0","num_feature":"33","num_nodes":"7","size_leaf_vector":"0"}},{"base_weights":[-3.0470015E-2,-3.5960886E-1,3.5684884E-1,-4.1553193E-1,7.742851E-1,2.585747E-1,8.122518E-1],"categories":[],"categories_nodes":[],"categories_segments":[],"categories_sizes":[],"default_left":[1,1,1,0,0,0,0],"id":12,"left_children":[1,3,5,-1,-1,-1,-1],"loss_changes":[4.4636555E4,1.2003168E4,7.198701E3,0E0,0E0,0E0,0E0],"parents":[2147483647,0,0,1,1,2,2],"right_children":[2,4,6,-1,-1,-1,-1],"split_conditions":[3.1229224E0,2.5910595E-1,1.0944067E2,-1.2465958E-1,2.3228553E-1,7.757241E-2,2.4367554E-1],"split_indices":[23,24,26,0,0,0,0],"split_type":[0,0,0,0,0,0,0],"sum_hessian":[3.501389E5,1.8928602E5,1.6085288E5,1.803899E5,8.8961045E3,1.3230381E5,2.854907E4],"tree_param":{"num_deleted":"0","num_feature":"33","num_nodes":"7","size_leaf_vector":"0"}},{"base_weights":[4.6870564E-3,-2.8928098E-1,1.9808827E-1,-1.5022732E-1,-5.1181656E-1,2.6270533E-1,-5.336587E-1],"categories":[],"categories_nodes":[],"categories_segments":[],"categories_sizes":[],"default_left":[1,1,1,0,0,0,0],"id":13,"left_children":[1,3,5,-1,-1,-1,-1],"loss_changes":[2.2291102E4,4.814468E3,1.1182211E4,0E0,0E0,0E0,0E0],"parents":[2147483647,0,0,1,1,2,2],"right_children":[2,4,6,-1,-1,-1,-1],"split_conditions":[-4.3872947E-1,2.9379166E1,2.025184E-1,-4.5068197E-2,-1.5354498E-1,7.88116E-2,-1.6009761E-1],"split_indices":[24,17,24,0,0,0,0],"split_type":[0,0,0,0,0,0,0],"sum_hessian":[3.920758E5,1.5558602E5,2.3648978E5,9.575451E4,5.983151E4,2.1730158E5,1.9188213E4],"tree_param":{"num_deleted":"0","num_feature":"33","num_nodes":"7","size_leaf_vector":"0"}},{"base_weights":[2.1538323E-2,7.722792E-2,-4.5954457E-1,1.1940745E-1,-6.4136195E-1,-5.8294725E-1,-2.96625E-1],"categories":[],"categories_nodes":[],"categories_segments":[],"categories_sizes":[],"default_left":[1,1,1,0,0,0,0],"id":14,"left_children":[1,3,5,-1,-1,-1,-1],"loss_changes":[1.098493E4,1.1138285E4,8.550615E2,0E0,0E0,0E0,0E0],"parents":[2147483647,0,0,1,1,2,2],"right_children":[2,4,6,-1,-1,-1,-1],"split_conditions":[9.839765E-1,1.15473495E2,9.998895E-1,3.582224E-2,-1.9240859E-1,-1.7488419E-1,-8.89875E-2],"split_indices":[4,26,28,0,0,0,0],"split_type":[0,0,0,0,0,0,0],"sum_hessian":[4.1001603E5,3.6747803E5,4.253799E4,3.4710462E5,2.037339E4,2.4202979E4,1.8335012E4],"tree_param":{"num_deleted":"0","num_feature":"33","num_nodes":"7","size_leaf_vector":"0"}},{"base_weights":[-3.6625613E-2,-2.693643E-1,3.9711696E-1,-3.419983E-1,8.7601686E-1,6.101291E-1,2.4738424E-1],"categories":[],"categories_nodes":[],"categories_segments":[],"categories_sizes":[],"default_left":[1,1,1,0,0,0,0],"id":15,"left_children":[1,3,5,-1,-1,-1,-1],"loss_changes":[3.2725025E4,1.7551758E4,3.610463E3,0E0,0E0,0E0,0E0],"parents":[2147483647,0,0,1,1,2,2],"right_children":[2,4,6,-1,-1,-1,-1],"split_conditions":[2.9832044E0,1.13129166E2,9.998587E-1,-1.02599494E-1,2.6280507E-1,1.8303874E-1,7.421527E-2],"split_indices":[22,26,28,0,0,0,0],"split_type":[0,0,0,0,0,0,0],"sum_hessian":[3.241728E5,2.1097023E5,1.1320257E5,1.983901E5,1.25801455E4,4.672614E4,6.647643E4],"tree_param":{"num_deleted":"0","num_feature":"33","num_nodes":"7","size_leaf_vector":"0"}},{"base_weights":[6.565968E-3,-2.3809095E-1,1.7794517E-1,-1.215645E-1,-4.7736743E-1,2.3090577E-1,-4.928395E-1],"categories":[],"categories_nodes":[],"categories_segments":[],"categories_sizes":[],"default_left":[1,1,1,0,0,0,0],"id":16,"left_children":[1,3,5,-1,-1,-1,-1],"loss_changes":[1.5920457E4,4.360997E3,7.9324727E3,0E0,0E0,0E0,0E0],"parents":[2147483647,0,0,1,1,2,2],"right_children":[2,4,6,-1,-1,-1,-1],"split_conditions":[-3.9434466E-1,3.1194668E1,2.0511001E-1,-3.646935E-2,-1.4321023E-1,6.9271736E-2,-1.4785185E-1],"split_indices":[24,17,24,0,0,0,0],"split_type":[0,0,0,0,0,0,0],"sum_hessian":[3.7969738E5,1.5640989E5,2.2328748E5,1.05186234E5,5.1223664E4,2.0694888E5,1.6338622E4],"tree_param":{"num_deleted":"0","num_feature":"33","num_nodes":"7","size_leaf_vector":"0"}},{"base_weights":[2.3353744E-2,9.194088E-2,-2.8399917E-1,1.9846995E-1,-2.1503787E-1,-5.2704924E-1,-1.7325406E-1],"categories":[],"categories_nodes":[],"categories_segments":[],"categories_sizes":[],"default_left":[1,1,1,0,0,0,0],"id":17,"left_children":[1,3,5,-1,-1,-1,-1],"loss_changes":[8.466942E3,1.0738489E4,1.972291E3,0E0,0E0,0E0,0E0],"parents":[2147483647,0,0,1,1,2,2],"right_children":[2,4,6,-1,-1,-1,-1],"split_conditions":[8.870551E1,2.4330334E-3,-7.59272E-1,5.9540987E-2,-6.4511366E-2,-1.5811478E-1,-5.197622E-2],"split_indices":[11,24,24,0,0,0,0],"split_type":[0,0,0,0,0,0,0],"sum_hessian":[4.0164666E5,3.2837016E5,7.3276516E4,2.4377475E5,8.45954E4,2.2935871E4,5.0340645E4],"tree_param":{"num_deleted":"0","num_feature":"33","num_nodes":"7","size_leaf_vector":"0"}},{"base_weights":[-3.499499E-2,-3.4941623E-1,2.2183254E-1,-3.8252074E-1,6.299644E-1,5.5352468E-2,5.034752E-1],"categories":[],"categories_nodes":[],"categories_segments":[],"categories_sizes":[],"default_left":[1,1,1,0,0,0,0],"id":18,"left_children":[1,3,5,-1,-1,-1,-1],"loss_changes":[2.4448076E4,4.413365E3,7.8133486E3,0E0,0E0,0E0,0E0],"parents":[2147483647,0,0,1,1,2,2],"right_children":[2,4,6,-1,-1,-1,-1],"split_conditions":[2.990001E0,2.7721572E-1,9.7011745E-1,-1.1475623E-1,1.8898933E-1,1.660574E-2,1.5104257E-1],"split_indices":[23,24,4,0,0,0,0],"split_type":[0,0,0,0,0,0,0],"sum_hessian":[3.02753E5,1.3611445E5,1.6663855E5,1.316646E5,4.449848E3,1.04732164E5,6.1906387E4],"tree_param":{"num_deleted":"0","num_feature":"33","num_nodes":"7","size_leaf_vector":"0"}},{"base_weights":[4.451515E-3,-2.2270659E-1,1.4249715E-1,-9.711939E-2,-4.2051736E-1,-2.1663077E-2,2.5507885E-1],"categories":[],"categories_nodes":[],"categories_segments":[],"categories_sizes":[],"default_left":[1,1,1,0,0,0,0],"id":19,"left_children":[1,3,5,-1,-1,-1,-1],"loss_changes":[1.1482483E4,3.4384487E3,4.2093423E3,0E0,0E0,0E0,0E0],"parents":[2147483647,0,0,1,1,2,2],"right_children":[2,4,6,-1,-1,-1,-1],"split_conditions":[3.2046616E1,2.9229836E0,-2.3883544E-1,-2.9135818E-2,-1.2615521E-1,-6.4989235E-3,7.652366E-2],"split_indices":[1,22,24,0,0,0,0],"split_type":[0,0,0,0,0,0,0],"sum_hessian":[3.661698E5,1.3841056E5,2.2775923E5,8.466162E4,5.374895E4,9.265533E4,1.351039E5],"tree_param":{"num_deleted":"0","num_feature":"33","num_nodes":"7","size_leaf_vector":"0"}},{"base_weights":[2.28044E-2,6.2053107E-2,-4.549896E-1,1.3616806E-1,-2.0069498E-1,-5.621544E-1,-2.9179958E-1],"categories":[],"categories_nodes":[],"categories_segments":[],"categories_sizes":[],"default_left":[1,1,1,0,0,0,0],"id":20,"left_children":[1,3,5,-1,-1,-1,-1],"loss_changes":[7.372117E3,7.074357E3,5.217168E2,0E0,0E0,0E0,0E0],"parents":[2147483647,0,0,1,1,2,2],"right_children":[2,4,6,-1,-1,-1,-1],"split_conditions":[9.9029636E-1,8.315367E1,9.999637E-1,4.085042E-2,-6.0208496E-2,-1.6864634E-1,-8.7539874E-2],"split_indices":[4,11,28,0,0,0,0],"split_type":[0,0,0,0,0,0,0],"sum_hessian":[3.9311844E5,3.6327762E5,2.984081E4,2.8335144E5,7.992619E4,1.8010865E4,1.1829946E4],"tree_param":{"num_deleted":"0","num_feature":"33","num_nodes":"7","size_leaf_vector":"0"}},{"base_weights":[-3.823147E-2,-1.9504137E-1,3.8883668E-1,-2.8171226E-1,5.986017E-1,-1.39058735E-2,4.5816264E-1],"categories":[],"categories_nodes":[],"categories_segments":[],"categories_sizes":[],"default_left":[1,1,1,0,0,0,0],"id":21,"left_children":[1,3,5,-1,-1,-1,-1],"loss_changes":[1.8856559E4,1.4166748E4,2.1113877E3,0E0,0E0,0E0,0E0],"parents":[2147483647,0,0,1,1,2,2],"right_children":[2,4,6,-1,-1,-1,-1],"split_conditions":[3.4322119E0,2.0044564E-1,6.1579967E-1,-8.451368E-2,1.7958051E-1,-4.171762E-3,1.374488E-1],"split_indices":[23,24,4,0,0,0,0],"split_type":[0,0,0,0,0,0,0],"sum_hessian":[2.8157138E5,2.0595122E5,7.562015E4,1.8567497E5,2.0276252E4,1.1105369E4,6.451478E4],"tree_param":{"num_deleted":"0","num_feature":"33","num_nodes":"7","size_leaf_vector":"0"}},{"base_weights":[5.049612E-3,-2.5072894E-1,1.049116E-1,-1.06762975E-1,-4.5292693E-1,1.3881591E-1,-4.0382338E-1],"categories":[],"categories_nodes":[],"categories_segments":[],"categories_sizes":[],"default_left":[1,1,1,0,0,0,0],"id":22,"left_children":[1,3,5,-1,-1,-1,-1],"loss_changes":[9.057161E3,2.8983193E3,4.398783E3,0E0,0E0,0E0,0E0],"parents":[2147483647,0,0,1,1,2,2],"right_children":[2,4,6,-1,-1,-1,-1],"split_conditions":[-5.9282E-1,2.6390434E1,9.8365545E-1,-3.2028895E-2,-1.3587809E-1,4.1644774E-2,-1.21147014E-1],"split_indices":[24,17,4,0,0,0,0],"split_type":[0,0,0,0,0,0,0],"sum_hessian":[3.5458906E5,9.956631E4,2.5502273E5,5.815862E4,4.140769E4,2.390895E5,1.5933233E4],"tree_param":{"num_deleted":"0","num_feature":"33","num_nodes":"7","size_leaf_vector":"0"}},{"base_weights":[2.3272965E-2,4.802882E-2,-5.8754665E-1,1.1407303E-1,-1.7703526E-1,-5.971991E-1,3.834045E-2],"categories":[],"categories_nodes":[],"categories_segments":[],"categories_sizes":[],"default_left":[1,1,1,0,0,0,0],"id":23,"left_children":[1,3,5,-1,-1,-1,-1],"loss_changes":[5.831038E3,5.5086143E3,9.076318E1,0E0,0E0,0E0,0E0],"parents":[2147483647,0,0,1,1,2,2],"right_children":[2,4,6,-1,-1,-1,-1],"split_conditions":[1.1743034E2,3.3430107E-2,-3.5840994E-1,3.422191E-2,-5.311058E-2,-1.7915973E-1,1.1502136E-2],"split_indices":[26,24,24,0,0,0,0],"split_type":[0,0,0,0,0,0,0],"sum_hessian":[3.856131E5,3.7059422E5,1.5018858E4,2.8651728E5,8.407694E4,1.4790801E4,2.2805724E2],"tree_param":{"num_deleted":"0","num_feature":"33","num_nodes":"7","size_leaf_vector":"0"}},{"base_weights":[-3.7560817E-2,-1.9914302E-1,2.9603708E-1,-2.6621002E-1,6.7036515E-1,5.2727085E-1,1.5752268E-1],"categories":[],"categories_nodes":[],"categories_segments":[],"categories_sizes":[],"default_left":[1,1,1,0,0,0,0],"id":24,"left_children":[1,3,5,-1,-1,-1,-1],"loss_changes":[1.4282853E4,1.0409932E4,2.7692485E3,0E0,0E0,0E0,0E0],"parents":[2147483647,0,0,1,1,2,2],"right_children":[2,4,6,-1,-1,-1,-1],"split_conditions":[3.010226E0,1.11053894E2,9.998263E-1,-7.986301E-2,2.0110956E-1,1.5818126E-1,4.7256805E-2],"split_indices":[22,26,28,0,0,0,0],"split_type":[0,0,0,0,0,0,0],"sum_hessian":[2.6496878E5,1.785071E5,8.646168E4,1.6572506E5,1.2782028E4,3.2389072E4,5.4072605E4],"tree_param":{"num_deleted":"0","num_feature":"33","num_nodes":"7","size_leaf_vector":"0"}},{"base_weights":[3.8052634E-3,-2.4716668E-1,7.960013E-2,-1.1108639E-1,-4.519526E-1,1.05140045E-1,-3.8208207E-1],"categories":[],"categories_nodes":[],"categories_segments":[],"categories_sizes":[],"default_left":[1,1,1,0,0,0,0],"id":25,"left_children":[1,3,5,-1,-1,-1,-1],"loss_changes":[6.555176E3,2.2274438E3,3.1208633E3,0E0,0E0,0E0,0E0],"parents":[2147483647,0,0,1,1,2,2],"right_children":[2,4,6,-1,-1,-1,-1],"split_conditions":[-6.638026E-1,2.6508423E1,9.8546356E-1,-3.3325918E-2,-1.3558578E-1,3.1542014E-2,-1.1462463E-1],"split_indices":[24,17,4,0,0,0,0],"split_type":[0,0,0,0,0,0,0],"sum_hessian":[3.4460122E5,7.993111E4,2.6467012E5,4.802201E4,3.1909094E4,2.5079698E5,1.3873129E4],"tree_param":{"num_deleted":"0","num_feature":"33","num_nodes":"7","size_leaf_vector":"0"}},{"base_weights":[2.2809207E-2,4.4525493E-2,-5.699026E-1,-4.4335493E-1,7.204908E-2,-5.813196E-1,-1.2130262E-2],"categories":[],"categories_nodes":[],"categories_segments":[],"categories_sizes":[],"default_left":[1,1,1,0,0,0,0],"id":26,"left_children":[1,3,5,-1,-1,-1,-1],"loss_changes":[4.8763384E3,4.907466E3,8.526074E1,0E0,0E0,0E0,0E0],"parents":[2147483647,0,0,1,1,2,2],"right_children":[2,4,6,-1,-1,-1,-1],"split_conditions":[1.1743034E2,3.9511971E0,-3.9791098E-1,-1.3300648E-1,2.1614725E-2,-1.7439587E-1,-3.639079E-3],"split_indices":[26,1,24,0,0,0,0],"split_type":[0,0,0,0,0,0,0],"sum_hessian":[3.7884472E5,3.6545578E5,1.3388959E4,1.9515252E4,3.459405E5,1.3120358E4,2.686007E2],"tree_param":{"num_deleted":"0","num_feature":"33","num_nodes":"7","size_leaf_vector":"0"}},{"base_weights":[-4.0610746E-2,-1.5032028E-1,3.856912E-1,-2.2747175E-1,5.584955E-1,5.923629E-2,4.5725083E-1],"categories":[],"categories_nodes":[],"categories_segments":[],"categories_sizes":[],"default_left":[1,1,1,0,0,0,0],"id":27,"left_children":[1,3,5,-1,-1,-1,-1],"loss_changes":[1.1597633E4,1.0785321E4,1.1856592E3,0E0,0E0,0E0,0E0],"parents":[2147483647,0,0,1,1,2,2],"right_children":[2,4,6,-1,-1,-1,-1],"split_conditions":[3.5912814E0,1.9573608E-1,7.1403104E-1,-6.824153E-2,1.6754866E-1,1.7770888E-2,1.3717526E-1],"split_indices":[23,24,4,0,0,0,0],"split_type":[0,0,0,0,0,0,0],"sum_hessian":[2.4797264E5,1.972187E5,5.0753926E4,1.778601E5,1.935861E4,9.125453E3,4.1628473E4],"tree_param":{"num_deleted":"0","num_feature":"33","num_nodes":"7","size_leaf_vector":"0"}},{"base_weights":[6.5554585E-3,-1.2053224E-1,1.23845E-1,-7.0764944E-2,-4.0783283E-1,1.4384404E-1,-5.2410483E-1],"categories":[],"categories_nodes":[],"categories_segments":[],"categories_sizes":[],"default_left":[1,1,1,0,0,0,0],"id":28,"left_children":[1,3,5,-1,-1,-1,-1],"loss_changes":[5.027614E3,2.3145837E3,2.273038E3,0E0,0E0,0E0,0E0],"parents":[2147483647,0,0,1,1,2,2],"right_children":[2,4,6,-1,-1,-1,-1],"split_conditions":[4.178161E1,3.0771542E0,1.1653837E2,-2.1229483E-2,-1.2234985E-1,4.315321E-2,-1.5723145E-1],"split_indices":[1,22,26,0,0,0,0],"split_type":[0,0,0,0,0,0,0],"sum_hessian":[3.3728462E5,1.618807E5,1.7540394E5,1.3798045E5,2.3900248E4,1.7015292E5,5.2510083E3],"tree_param":{"num_deleted":"0","num_feature":"33","num_nodes":"7","size_leaf_vector":"0"}},{"base_weights":[2.1076242E-2,6.252475E-2,-2.4984199E-1,-3.6409035E-1,9.154761E-2,-4.5540306E-1,-9.790642E-2],"categories":[],"categories_nodes":[],"categories_segments":[],"categories_sizes":[],"default_left":[1,1,1,0,0,0,0],"id":29,"left_children":[1,3,5,-1,-1,-1,-1],"loss_changes":[4.187367E3,4.0044858E3,1.5453467E3,0E0,0E0,0E0,0E0],"parents":[2147483647,0,0,1,1,2,2],"right_children":[2,4,6,-1,-1,-1,-1],"split_conditions":[9.545297E1,5.132989E0,-5.358549E-1,-1.0922711E-1,2.7464284E-2,-1.3662092E-1,-2.9371927E-2],"split_indices":[13,1,24,0,0,0,0],"split_type":[0,0,0,0,0,0,0],"sum_hessian":[3.728989E5,3.2341894E5,4.9479965E4,2.060014E4,3.0281878E5,2.1028068E4,2.8451896E4],"tree_param":{"num_deleted":"0","num_feature":"33","num_nodes":"7","size_leaf_vector":"0"}},{"base_weights":[-4.2482987E-2,3.3978498E-1,-1.4363544E-1,6.054566E-1,-1.8073783E-3,-2.1868575E-1,5.335136E-1],"categories":[],"categories_nodes":[],"categories_segments":[],"categories_sizes":[],"default_left":[1,1,1,0,0,0,0],"id":30,"left_children":[1,3,5,-1,-1,-1,-1],"loss_changes":[9.06106E3,4.449793E3,9.41714E3,0E0,0E0,0E0,0E0],"parents":[2147483647,0,0,1,1,2,2],"right_children":[2,4,6,-1,-1,-1,-1],"split_conditions":[9.9982727E-1,1.643962E1,1.0797932E2,1.8163699E-1,-5.422135E-4,-6.560573E-2,1.6005409E-1],"split_indices":[28,1,26,0,0,0,0],"split_type":[0,0,0,0,0,0,0],"sum_hessian":[2.3433138E5,4.903176E4,1.8529961E5,2.7580445E4,2.1451314E4,1.6681205E5,1.8487566E4],"tree_param":{"num_deleted":"0","num_feature":"33","num_nodes":"7","size_leaf_vector":"0"}},{"base_weights":[7.7842157E-3,-1.2355986E-1,1.0962846E-1,-4.0088452E-2,-3.9064428E-1,1.3847142E-1,-3.6029842E-1],"categories":[],"categories_nodes":[],"categories_segments":[],"categories_sizes":[],"default_left":[1,1,1,0,0,0,0],"id":31,"left_children":[1,3,5,-1,-1,-1,-1],"loss_changes":[4.433804E3,3.2273308E3,2.5305312E3,0E0,0E0,0E0,0E0],"parents":[2147483647,0,0,1,1,2,2],"right_children":[2,4,6,-1,-1,-1,-1],"split_conditions":[-3.226958E-1,3.3634163E1,1.8751195E-1,-1.2026536E-2,-1.1719329E-1,4.1541427E-2,-1.0808953E-1],"split_indices":[24,17,24,0,0,0,0],"split_type":[0,0,0,0,0,0,0],"sum_hessian":[3.3145675E5,1.4476256E5,1.8669419E5,1.102938E5,3.4468773E4,1.7589866E5,1.0795522E4],"tree_param":{"num_deleted":"0","num_feature":"33","num_nodes":"7","size_leaf_vector":"0"}},{"base_weights":[2.003514E-2,-5.983253E-2,1.4416352E-1,9.913306E-3,-2.7728897E-1,2.553677E-1,-6.780899E-2],"categories":[],"categories_nodes":[],"categories_segments":[],"categories_sizes":[],"default_left":[1,1,1,0,0,0,0],"id":32,"left_children":[1,3,5,-1,-1,-1,-1],"loss_changes":[3.6493276E3,3.3971233E3,3.3972131E3,0E0,0E0,0E0,0E0],"parents":[2147483647,0,0,1,1,2,2],"right_children":[2,4,6,-1,-1,-1,-1],"split_conditions":[1.365878E-1,7.489737E1,-3.6956273E-2,2.973992E-3,-8.318669E-2,7.661031E-2,-2.0342698E-2],"split_indices":[15,11,24,0,0,0,0],"split_type":[0,0,0,0,0,0,0],"sum_hessian":[3.681023E5,2.2398478E5,1.4411755E5,1.6959177E5,5.439301E4,9.452698E4,4.9590574E4],"tree_param":{"num_deleted":"0","num_feature":"33","num_nodes":"7","size_leaf_vector":"0"}},{"base_weights":[-3.7212566E-2,-1.2567692E-1,3.553183E-1,-1.8855873E-1,3.534365E-1,5.8326334E-1,2.7348605E-1],"categories":[],"categories_nodes":[],"categories_segments":[],"categories_sizes":[],"default_left":[1,1,1,0,0,0,0],"id":33,"left_children":[1,3,5,-1,-1,-1,-1],"loss_changes":[7.80601E3,5.5269805E3,7.710449E2,0E0,0E0,0E0,0E0],"parents":[2147483647,0,0,1,1,2,2],"right_children":[2,4,6,-1,-1,-1,-1],"split_conditions":[3.1035469E0,3.7850919E0,-9.97614E-1,-5.656762E-2,1.06030956E-1,1.74979E-1,8.2045816E-2],"split_indices":[22,23,24,0,0,0,0],"split_type":[0,0,0,0,0,0,0],"sum_hessian":[2.2479289E5,1.8344967E5,4.134322E4,1.6216655E5,2.1283133E4,1.0919804E4,3.0423416E4],"tree_param":{"num_deleted":"0","num_feature":"33","num_nodes":"7","size_leaf_vector":"0"}},{"base_weights":[5.949849E-3,-2.3141228E-1,5.093621E-2,-1.107057E-1,-4.0927157E-1,6.3578285E-2,-4.5037872E-1],"categories":[],"categories_nodes":[],"categories_segments":[],"categories_sizes":[],"default_left":[1,1,1,0,0,0,0],"id":34,"left_children":[1,3,5,-1,-1,-1,-1],"loss_changes":[3.4634412E3,1.1094319E3,1.7281345E3,0E0,0E0,0E0,0E0],"parents":[2147483647,0,0,1,1,2,2],"right_children":[2,4,6,-1,-1,-1,-1],"split_conditions":[-7.651353E-1,2.464953E1,2.7500272E-1,-3.321171E-2,-1.2278148E-1,1.9073486E-2,-1.3511363E-1],"split_indices":[24,17,24,0,0,0,0],"split_type":[0,0,0,0,0,0,0],"sum_hessian":[3.243491E5,5.1677625E4,2.7267147E5,3.078595E4,2.0891674E4,2.6596525E5,6.706195E3],"tree_param":{"num_deleted":"0","num_feature":"33","num_nodes":"7","size_leaf_vector":"0"}},{"base_weights":[1.7710254E-2,3.4485027E-2,-5.167863E-1,5.0111968E-2,-5.468936E-1,-2.7701995E-1,-5.577884E-1],"categories":[],"categories_nodes":[],"categories_segments":[],"categories_sizes":[],"default_left":[1,1,1,0,0,0,0],"id":35,"left_children":[1,3,5,-1,-1,-1,-1],"loss_changes":[3.257987E3,3.2008318E3,1.0854614E2,0E0,0E0,0E0,0E0],"parents":[2147483647,0,0,1,1,2,2],"right_children":[2,4,6,-1,-1,-1,-1],"split_conditions":[2.3373361E-1,1.19275894E2,8.458617E-1,1.5033591E-2,-1.6406809E-1,-8.310599E-2,-1.6733652E-1],"split_indices":[24,26,4,0,0,0,0],"split_type":[0,0,0,0,0,0,0],"sum_hessian":[3.6336594E5,3.523099E5,1.1056046E4,3.430889E5,9.221011E3,1.6157043E3,9.440342E3],"tree_param":{"num_deleted":"0","num_feature":"33","num_nodes":"7","size_leaf_vector":"0"}},{"base_weights":[-3.864964E-2,-1.4425562E-1,2.5014108E-1,-2.2648314E-1,4.2867473E-1,4.101676E-1,-3.6712047E-2],"categories":[],"categories_nodes":[],"categories_segments":[],"categories_sizes":[],"default_left":[1,1,1,0,0,0,0],"id":36,"left_children":[1,3,5,-1,-1,-1,-1],"loss_changes":[6.5154575E3,7.369655E3,2.6259275E3,0E0,0E0,0E0,0E0],"parents":[2147483647,0,0,1,1,2,2],"right_children":[2,4,6,-1,-1,-1,-1],"split_conditions":[9.281231E-1,1.04022064E2,1.8228527E1,-6.7944944E-2,1.2860243E-1,1.2305029E-1,-1.1013614E-2],"split_indices":[4,26,18,0,0,0,0],"split_type":[0,0,0,0,0,0,0],"sum_hessian":[2.1363317E5,1.5642988E5,5.720331E4,1.367972E5,1.9632662E4,3.6718668E4,2.0484639E4],"tree_param":{"num_deleted":"0","num_feature":"33","num_nodes":"7","size_leaf_vector":"0"}},{"base_weights":[7.21006E-3,-2.517754E-1,3.926739E-2,-4.7821102E-1,-1.5010238E-1,-4.2620536E-2,1.1942497E-1],"categories":[],"categories_nodes":[],"categories_segments":[],"categories_sizes":[],"default_left":[1,1,1,0,0,0,0],"id":37,"left_children":[1,3,5,-1,-1,-1,-1],"loss_changes":[2.6573657E3,8.115801E2,1.86953E3,0E0,0E0,0E0,0E0],"parents":[2147483647,0,0,1,1,2,2],"right_children":[2,4,6,-1,-1,-1,-1],"split_conditions":[1.4706783E1,9.998316E-1,-2.08037E-1,-1.4346331E-1,-4.5030713E-2,-1.2786161E-2,3.582749E-2],"split_indices":[1,28,24,0,0,0,0],"split_type":[0,0,0,0,0,0,0],"sum_hessian":[3.2007044E5,3.5253867E4,2.8481656E5,1.0923186E4,2.433068E4,1.4088786E5,1.4392872E5],"tree_param":{"num_deleted":"0","num_feature":"33","num_nodes":"7","size_leaf_vector":"0"}},{"base_weights":[1.6561195E-2,-5.468772E-2,1.2691593E-1,1.10186795E-2,-2.2754516E-1,1.6625595E-1,-3.1004214E-1],"categories":[],"categories_nodes":[],"categories_segments":[],"categories_sizes":[],"default_left":[1,1,1,0,0,0,0],"id":38,"left_children":[1,3,5,-1,-1,-1,-1],"loss_changes":[2.824448E3,2.4792898E3,2.4227097E3,0E0,0E0,0E0,0E0],"parents":[2147483647,0,0,1,1,2,2],"right_children":[2,4,6,-1,-1,-1,-1],"split_conditions":[1.3630867E-1,7.038907E1,3.10628E0,3.305604E-3,-6.826355E-2,4.9876787E-2,-9.3012646E-2],"split_indices":[15,11,22,0,0,0,0],"split_type":[0,0,0,0,0,0,0],"sum_hessian":[3.5922128E5,2.1828761E5,1.4093367E5,1.5816647E5,6.0121145E4,1.2929377E5,1.16399E4],"tree_param":{"num_deleted":"0","num_feature":"33","num_nodes":"7","size_leaf_vector":"0"}},{"base_weights":[-3.7516583E-2,2.989118E-1,-1.2267728E-1,7.423666E-1,1.1960904E-1,-1.7133705E-1,5.1467335E-1],"categories":[],"categories_nodes":[],"categories_segments":[],"categories_sizes":[],"default_left":[1,1,1,0,0,0,0],"id":39,"left_children":[1,3,5,-1,-1,-1,-1],"loss_changes":[5.854208E3,3.2817925E3,5.0570215E3,0E0,0E0,0E0,0E0],"parents":[2147483647,0,0,1,1,2,2],"right_children":[2,4,6,-1,-1,-1,-1],"split_conditions":[9.998263E-1,4.6025333E1,2.2142787E-1,2.2271E-1,3.5882715E-2,-5.140112E-2,1.5440202E-1],"split_indices":[28,26,24,0,0,0,0],"split_type":[0,0,0,0,0,0,0],"sum_hessian":[2.0432969E5,4.1273945E4,1.6305575E5,1.1882584E4,2.9391361E4,1.5149062E5,1.1565114E4],"tree_param":{"num_deleted":"0","num_feature":"33","num_nodes":"7","size_leaf_vector":"0"}},{"base_weights":[7.6779597E-3,-2.154231E-1,3.786713E-2,-9.9453166E-2,-3.797928E-1,1.0095163E-1,-4.0086407E-2],"categories":[],"categories_nodes":[],"categories_segments":[],"categories_sizes":[],"default_left":[1,1,1,0,0,0,0],"id":40,"left_children":[1,3,5,-1,-1,-1,-1],"loss_changes":[2.123542E3,7.1628394E2,1.3656853E3,0E0,0E0,0E0,0E0],"parents":[2147483647,0,0,1,1,2,2],"right_children":[2,4,6,-1,-1,-1,-1],"split_conditions":[-8.2023823E-1,2.3542732E1,5.8296096E-1,-2.983595E-2,-1.1393785E-1,3.0285489E-2,-1.2025923E-2],"split_indices":[24,17,4,0,0,0,0],"split_type":[0,0,0,0,0,0,0],"sum_hessian":[3.1528622E5,3.757762E4,2.7770862E5,2.203358E4,1.5544039E4,1.5349297E5,1.2421565E5],"tree_param":{"num_deleted":"0","num_feature":"33","num_nodes":"7","size_leaf_vector":"0"}},{"base_weights":[1.4777214E-2,-7.1838796E-2,1.0119083E-1,-3.391573E-1,-2.6614178E-2,1.23279706E-1,-5.4122335E-1],"categories":[],"categories_nodes":[],"categories_segments":[],"categories_sizes":[],"default_left":[1,1,1,0,0,0,0],"id":41,"left_children":[1,3,5,-1,-1,-1,-1],"loss_changes":[2.6566646E3,2.1429917E3,2.5213552E3,0E0,0E0,0E0,0E0],"parents":[2147483647,0,0,1,1,2,2],"right_children":[2,4,6,-1,-1,-1,-1],"split_conditions":[1.7533308E1,9.9983174E-1,1.2047262E2,-1.017472E-1,-7.984254E-3,3.6983915E-2,-1.6236702E-1],"split_indices":[18,28,26,0,0,0,0],"split_type":[0,0,0,0,0,0,0],"sum_hessian":[3.549392E5,1.772621E5,1.776771E5,2.5648672E4,1.5161342E5,1.7177169E5,5.9054175E3],"tree_param":{"num_deleted":"0","num_feature":"33","num_nodes":"7","size_leaf_vector":"0"}},{"base_weights":[-3.798166E-2,2.4972694E-1,-1.19456455E-1,5.494569E-1,9.395343E-2,-1.7993274E-1,4.664726E-1],"categories":[],"categories_nodes":[],"categories_segments":[],"categories_sizes":[],"default_left":[1,1,1,0,0,0,0],"id":42,"left_children":[1,3,5,-1,-1,-1,-1],"loss_changes":[4.625322E3,2.0331062E3,5.4489463E3,0E0,0E0,0E0,0E0],"parents":[2147483647,0,0,1,1,2,2],"right_children":[2,4,6,-1,-1,-1,-1],"split_conditions":[-9.026621E-1,2.5046254E2,1.9120245E-1,1.6483708E-1,2.818603E-2,-5.3979825E-2,1.3994178E-1],"split_indices":[24,3,24,0,0,0,0],"split_type":[0,0,0,0,0,0,0],"sum_hessian":[1.9731534E5,4.3544918E4,1.5377044E5,1.4890668E4,2.8654248E4,1.3938462E5,1.4385802E4],"tree_param":{"num_deleted":"0","num_feature":"33","num_nodes":"7","size_leaf_vector":"0"}},{"base_weights":[9.379983E-3,-1.1433747E-1,5.796023E-2,-3.6741976E-2,-3.4070846E-1,6.899744E-2,-4.288487E-1],"categories":[],"categories_nodes":[],"categories_segments":[],"categories_sizes":[],"default_left":[1,1,1,0,0,0,0],"id":43,"left_children":[1,3,5,-1,-1,-1,-1],"loss_changes":[1.8797374E3,1.5489612E3,1.2066638E3,0E0,0E0,0E0,0E0],"parents":[2147483647,0,0,1,1,2,2],"right_children":[2,4,6,-1,-1,-1,-1],"split_conditions":[-5.296895E-1,2.9795586E1,3.0085164E-1,-1.1022593E-2,-1.0221254E-1,2.0699233E-2,-1.2865461E-1],"split_indices":[24,17,24,0,0,0,0],"split_type":[0,0,0,0,0,0,0],"sum_hessian":[3.127545E5,8.818241E4,2.245721E5,6.5672375E4,2.2510027E4,2.1959419E5,4.9779067E3],"tree_param":{"num_deleted":"0","num_feature":"33","num_nodes":"7","size_leaf_vector":"0"}},{"base_weights":[1.2948708E-2,-2.6282403E-1,3.601771E-2,-4.89486E-1,1.2620139E-2,4.813933E-2,-5.024658E-1],"categories":[],"categories_nodes":[],"categories_segments":[],"categories_sizes":[],"default_left":[1,1,1,0,0,0,0],"id":44,"left_children":[1,3,5,-1,-1,-1,-1],"loss_changes":[2.2407473E3,1.6975178E3,2.1215835E3,0E0,0E0,0E0,0E0],"parents":[2147483647,0,0,1,1,2,2],"right_children":[2,4,6,-1,-1,-1,-1],"split_conditions":[2.1667221E2,-2.8919423E-1,2.5460094E-1,-1.468458E-1,3.7860419E-3,1.4441799E-2,-1.5073974E-1],"split_indices":[3,24,24,0,0,0,0],"split_type":[0,0,0,0,0,0,0],"sum_hessian":[3.522165E5,2.7188451E4,3.2502806E5,1.4914547E4,1.2273904E4,3.1787344E5,7.1546304E3],"tree_param":{"num_deleted":"0","num_feature":"33","num_nodes":"7","size_leaf_vector":"0"}},{"base_weights":[-3.7025616E-2,3.2786763E-1,-9.559263E-2,5.656829E-1,5.0658803E-2,-1.3715461E-1,5.322533E-1],"categories":[],"categories_nodes":[],"categories_segments":[],"categories_sizes":[],"default_left":[1,1,1,0,0,0,0],"id":45,"left_children":[1,3,5,-1,-1,-1,-1],"loss_changes":[4.0507498E3,1.7282114E3,4.2621143E3,0E0,0E0,0E0,0E0],"parents":[2147483647,0,0,1,1,2,2],"right_children":[2,4,6,-1,-1,-1,-1],"split_conditions":[6.701618E0,9.9997574E-1,1.1614665E2,1.6970487E-1,1.5197641E-2,-4.1146383E-2,1.59676E-1],"split_indices":[1,28,26,0,0,0,0],"split_type":[0,0,0,0,0,0,0],"sum_hessian":[1.8954436E5,2.6214451E4,1.633299E5,1.4109222E4,1.210523E4,1.5318986E5,1.014004E4],"tree_param":{"num_deleted":"0","num_feature":"33","num_nodes":"7","size_leaf_vector":"0"}},{"base_weights":[9.388229E-3,-4.1984516E-1,2.1516485E-2,-5.281006E-1,-2.456227E-1,-3.867586E-2,9.877551E-2],"categories":[],"categories_nodes":[],"categories_segments":[],"categories_sizes":[],"default_left":[1,1,1,0,0,0,0],"id":46,"left_children":[1,3,5,-1,-1,-1,-1],"loss_changes":[1.6094019E3,1.6009521E2,1.398177E3,0E0,0E0,0E0,0E0],"parents":[2147483647,0,0,1,1,2,2],"right_children":[2,4,6,-1,-1,-1,-1],"split_conditions":[4.5772414E0,9.9996704E-1,-1.4792311E-1,-1.5843019E-1,-7.368681E-2,-1.1602758E-2,2.9632656E-2],"split_indices":[1,28,24,0,0,0,0],"split_type":[0,0,0,0,0,0,0],"sum_hessian":[3.0914966E5,8.494255E3,3.006554E5,5.2377065E3,3.2565483E3,1.6899347E5,1.3166194E5],"tree_param":{"num_deleted":"0","num_feature":"33","num_nodes":"7","size_leaf_vector":"0"}},{"base_weights":[1.18058305E-2,-4.8504747E-2,1.04396224E-1,-1.9588167E-2,-3.3463907E-1,1.7286745E-1,-6.816516E-2],"categories":[],"categories_nodes":[],"categories_segments":[],"categories_sizes":[],"default_left":[1,1,1,0,0,0,0],"id":47,"left_children":[1,3,5,-1,-1,-1,-1],"loss_changes":[1.9467183E3,1.7466864E3,1.6247317E3,0E0,0E0,0E0,0E0],"parents":[2147483647,0,0,1,1,2,2],"right_children":[2,4,6,-1,-1,-1,-1],"split_conditions":[1.3543762E-1,9.991348E1,2.475711E-2,-5.8764503E-3,-1.0039172E-1,5.1860236E-2,-2.0449549E-2],"split_indices":[15,11,24,0,0,0,0],"split_type":[0,0,0,0,0,0,0],"sum_hessian":[3.486112E5,2.1110455E5,1.3750664E5,1.9172953E5,1.9375016E4,9.84445E4,3.9062133E4],"tree_param":{"num_deleted":"0","num_feature":"33","num_nodes":"7","size_leaf_vector":"0"}},{"base_weights":[-3.1626523E-2,4.6420762E-1,-7.14769E-2,5.5917513E-1,2.8267097E-1,-1.805663E-1,1.2518992E-1],"categories":[],"categories_nodes":[],"categories_segments":[],"categories_sizes":[],"default_left":[1,1,1,0,0,0,0],"id":48,"left_children":[1,3,5,-1,-1,-1,-1],"loss_changes":[3.625263E3,2.351482E2,3.6434478E3,0E0,0E0,0E0,0E0],"parents":[2147483647,0,0,1,1,2,2],"right_children":[2,4,6,-1,-1,-1,-1],"split_conditions":[-9.92031E-1,-9.9841714E-1,8.678186E-1,1.6775255E-1,8.4801294E-2,-5.416989E-2,3.7556976E-2],"split_indices":[24,24,4,0,0,0,0],"split_type":[0,0,0,0,0,0,0],"sum_hessian":[1.8346969E5,1.3647793E4,1.6982189E5,8.958986E3,4.6888066E3,1.09231945E5,6.058994E4],"tree_param":{"num_deleted":"0","num_feature":"33","num_nodes":"7","size_leaf_vector":"0"}},{"base_weights":[7.5729843E-3,2.1076433E-2,-3.0180445E-1,-1.4420822E-2,1.11362725E-1,-3.807241E-1,-7.368062E-2],"categories":[],"categories_nodes":[],"categories_segments":[],"categories_sizes":[],"default_left":[1,1,1,0,0,0,0],"id":49,"left_children":[1,3,5,-1,-1,-1,-1],"loss_changes":[1.274854E3,9.3710876E2,2.2973767E2,0E0,0E0,0E0,0E0],"parents":[2147483647,0,0,1,1,2,2],"right_children":[2,4,6,-1,-1,-1,-1],"split_conditions":[3.103747E0,4.9384785E-1,1.3904339E-1,-4.3262467E-3,3.340882E-2,-1.1421724E-1,-2.2104185E-2],"split_indices":[22,21,21,0,0,0,0],"split_type":[0,0,0,0,0,0,0],"sum_hessian":[3.0515712E5,2.923958E5,1.2761316E4,2.0987967E5,8.251614E4,9.480768E3,3.2805488E3],"tree_param":{"num_deleted":"0","num_feature":"33","num_nodes":"7","size_leaf_vector":"0"}},{"base_weights":[1.0123399E-2,-4.7262186E-1,2.1455854E-2,-5.272448E-1,-3.0950037E-1,-4.1727E-2,1.0765921E-1],"categories":[],"categories_nodes":[],"categories_segments":[],"categories_sizes":[],"default_left":[1,1,1,0,0,0,0],"id":50,"left_children":[1,3,5,-1,-1,-1,-1],"loss_changes":[1.8868629E3,7.0324585E1,1.835458E3,0E0,0E0,0E0,0E0],"parents":[2147483647,0,0,1,1,2,2],"right_children":[2,4,6,-1,-1,-1,-1],"split_conditions":[-9.9662477E-1,-9.988337E-1,2.0008759E1,-1.5817344E-1,-9.285011E-2,-1.25181E-2,3.2297764E-2],"split_indices":[24,24,18,0,0,0,0],"split_type":[0,0,0,0,0,0,0],"sum_hessian":[3.449012E5,7.909922E3,3.3699128E5,5.923982E3,1.9859403E3,1.944612E5,1.4253006E5],"tree_param":{"num_deleted":"0","num_feature":"33","num_nodes":"7","size_leaf_vector":"0"}},{"base_weights":[-3.1070307E-2,2.4719302E-1,-9.509952E-2,4.1651747E-1,-2.4673833E-1,2.4456698E-1,-1.6773596E-1],"categories":[],"categories_nodes":[],"categories_segments":[],"categories_sizes":[],"default_left":[1,1,1,0,0,0,0],"id":51,"left_children":[1,3,5,-1,-1,-1,-1],"loss_changes":[3.1626204E3,2.7771309E3,3.5602676E3,0E0,0E0,0E0,0E0],"parents":[2147483647,0,0,1,1,2,2],"right_children":[2,4,6,-1,-1,-1,-1],"split_conditions":[9.997052E-1,1.5E0,2.290051E2,1.24955244E-1,-7.40215E-2,7.33701E-2,-5.0320793E-2],"split_indices":[28,32,3,0,0,0,0],"split_type":[0,0,0,0,0,0,0],"sum_hessian":[1.7750362E5,3.320328E4,1.4430034E5,2.4726838E4,8.476442E3,2.5421336E4,1.18879016E5],"tree_param":{"num_deleted":"0","num_feature":"33","num_nodes":"7","size_leaf_vector":"0"}},{"base_weights":[7.5471886E-3,-4.256939E-2,8.293843E-2,-7.5103925E-3,-2.362699E-1,8.9724496E-2,-7.8924066E-1],"categories":[],"categories_nodes":[],"categories_segments":[],"categories_sizes":[],"default_left":[1,1,1,0,0,0,0],"id":52,"left_children":[1,3,5,-1,-1,-1,-1],"loss_changes":[1.1487794E3,1.2402646E3,7.186404E2,0E0,0E0,0E0,0E0],"parents":[2147483647,0,0,1,1,2,2],"right_children":[2,4,6,-1,-1,-1,-1],"split_conditions":[5.334276E1,7.762808E1,1.4848315E2,-2.2531177E-3,-7.088097E-2,2.691735E-2,-2.3677221E-1],"split_indices":[1,26,2,0,0,0,0],"split_type":[0,0,0,0,0,0,0],"sum_hessian":[3.0404056E5,1.8263425E5,1.21406305E5,1.5464516E5,2.7989102E4,1.20469875E5,9.364299E2],"tree_param":{"num_deleted":"0","num_feature":"33","num_nodes":"7","size_leaf_vector":"0"}},{"base_weights":[9.380404E-3,2.5654623E-2,-2.6976603E-1,3.4795176E-2,-4.6767494E-1,-4.1079754E-1,-9.541892E-2],"categories":[],"categories_nodes":[],"categories_segments":[],"categories_sizes":[],"default_left":[1,1,1,0,0,0,0],"id":53,"left_children":[1,3,5,-1,-1,-1,-1],"loss_changes":[1.5596641E3,1.4628633E3,4.6499963E2,0E0,0E0,0E0,0E0],"parents":[2147483647,0,0,1,1,2,2],"right_children":[2,4,6,-1,-1,-1,-1],"split_conditions":[1.1380954E2,2.5460094E-1,-3.842137E-1,1.0438553E-2,-1.403025E-1,-1.23239264E-1,-2.8625678E-2],"split_indices":[13,24,24,0,0,0,0],"split_type":[0,0,0,0,0,0,0],"sum_hessian":[3.4331722E5,3.244053E5,1.8911902E4,3.185049E5,5.9004214E3,1.0454098E4,8.457804E3],"tree_param":{"num_deleted":"0","num_feature":"33","num_nodes":"7","size_leaf_vector":"0"}},{"base_weights":[-2.8779317E-2,-8.582697E-2,2.5317425E-1,-1.2941797E-1,4.0540606E-1,3.1798688E-1,-1.9993638E-1],"categories":[],"categories_nodes":[],"categories_segments":[],"categories_sizes":[],"default_left":[1,1,1,0,0,0,0],"id":54,"left_children":[1,3,5,-1,-1,-1,-1],"loss_changes":[2.7889539E3,3.0881108E3,8.569568E2,0E0,0E0,0E0,0E0],"parents":[2147483647,0,0,1,1,2,2],"right_children":[2,4,6,-1,-1,-1,-1],"split_conditions":[3.6744075E0,1.8442743E-1,8.304675E-1,-3.8825393E-2,1.21621825E-1,9.5396064E-2,-5.9980914E-2],"split_indices":[23,24,21,0,0,0,0],"split_type":[0,0,0,0,0,0,0],"sum_hessian":[1.733884E5,1.4421092E5,2.9177494E4,1.3245764E5,1.1753278E4,2.55265E4,3.6509944E3],"tree_param":{"num_deleted":"0","num_feature":"33","num_nodes":"7","size_leaf_vector":"0"}},{"base_weights":[8.272876E-3,1.489786E-2,-5.011475E-1,-3.2771625E-2,8.830638E-2,-5.190878E-1,9.3690455E-1],"categories":[],"categories_nodes":[],"categories_segments":[],"categories_sizes":[],"default_left":[1,1,1,0,0,0,0],"id":55,"left_children":[1,3,5,-1,-1,-1,-1],"loss_changes":[1.01959717E3,1.0436198E3,1.00548096E2,0E0,0E0,0E0,0E0],"parents":[2147483647,0,0,1,1,2,2],"right_children":[2,4,6,-1,-1,-1,-1],"split_conditions":[1.1990968E2,1.3867635E-1,1.1177727E1,-9.831488E-3,2.6491916E-2,-1.5572634E-1,2.8107136E-1],"split_indices":[26,21,15,0,0,0,0],"split_type":[0,0,0,0,0,0,0],"sum_hessian":[3.0210844E5,2.9823094E5,3.8775059E3,1.8081511E5,1.1741582E5,3.8303596E3,4.714623E1],"tree_param":{"num_deleted":"0","num_feature":"33","num_nodes":"7","size_leaf_vector":"0"}},{"base_weights":[7.3137106E-3,-7.976963E-2,5.6887716E-2,-2.1162584E-2,-2.1004237E-1,6.806175E-2,-5.1653165E-1],"categories":[],"categories_nodes":[],"categories_segments":[],"categories_sizes":[],"default_left":[1,1,1,0,0,0,0],"id":56,"left_children":[1,3,5,-1,-1,-1,-1],"loss_changes":[1.4702014E3,9.4321405E2,1.3905383E3,0E0,0E0,0E0,0E0],"parents":[2147483647,0,0,1,1,2,2],"right_children":[2,4,6,-1,-1,-1,-1],"split_conditions":[1.3376725E1,6.2450077E1,1.2056186E2,-6.3487757E-3,-6.301271E-2,2.0418525E-2,-1.549595E-1],"split_indices":[18,2,26,0,0,0,0],"split_type":[0,0,0,0,0,0,0],"sum_hessian":[3.4055334E5,1.2353937E5,2.1701397E5,8.520744E4,3.833193E4,2.128668E5,4.1471826E3],"tree_param":{"num_deleted":"0","num_feature":"33","num_nodes":"7","size_leaf_vector":"0"}},{"base_weights":[-2.7079003E-2,-2.6695713E-1,3.461996E-2,1.891176E-2,-3.85443E-1,2.6127687E-1,-4.3870922E-2],"categories":[],"categories_nodes":[],"categories_segments":[],"categories_sizes":[],"default_left":[1,1,1,0,0,0,0],"id":57,"left_children":[1,3,5,-1,-1,-1,-1],"loss_changes":[2.494338E3,1.1678909E3,2.3849026E3,0E0,0E0,0E0,0E0],"parents":[2147483647,0,0,1,1,2,2],"right_children":[2,4,6,-1,-1,-1,-1],"split_conditions":[2.3810606E0,1.9999727E1,2.4606496E2,5.673528E-3,-1.1563291E-1,7.8383066E-2,-1.3161277E-2],"split_indices":[23,17,3,0,0,0,0],"split_type":[0,0,0,0,0,0,0],"sum_hessian":[1.6853208E5,3.4478906E4,1.3405317E5,1.0103411E4,2.4375496E4,3.4480895E4,9.957228E4],"tree_param":{"num_deleted":"0","num_feature":"33","num_nodes":"7","size_leaf_vector":"0"}},{"base_weights":[7.75894E-3,-5.1129848E-2,6.627334E-2,-9.479115E-3,-3.0708125E-1,8.413694E-2,-2.354162E-1],"categories":[],"categories_nodes":[],"categories_segments":[],"categories_sizes":[],"default_left":[1,1,1,0,0,0,0],"id":58,"left_children":[1,3,5,-1,-1,-1,-1],"loss_changes":[1.0384521E3,1.6012294E3,8.146732E2,0E0,0E0,0E0,0E0],"parents":[2147483647,0,0,1,1,2,2],"right_children":[2,4,6,-1,-1,-1,-1],"split_conditions":[-2.2603804E-1,3.8584698E1,1.7982146E-1,-2.8437346E-3,-9.212438E-2,2.5241083E-2,-7.0624866E-2],"split_indices":[24,17,24,0,0,0,0],"split_type":[0,0,0,0,0,0,0],"sum_hessian":[3.013618E5,1.5020047E5,1.5116134E5,1.2918014E5,2.1020324E4,1.4271183E5,8.449512E3],"tree_param":{"num_deleted":"0","num_feature":"33","num_nodes":"7","size_leaf_vector":"0"}},{"base_weights":[6.56876E-3,-4.903253E-1,1.373006E-2,-5.4516536E-1,-2.5350353E-1,-4.5271558E-1,2.1119183E-2],"categories":[],"categories_nodes":[],"categories_segments":[],"categories_sizes":[],"default_left":[1,1,1,0,0,0,0],"id":59,"left_children":[1,3,5,-1,-1,-1,-1],"loss_changes":[1.2055715E3,6.2374756E1,1.1511162E3,0E0,0E0,0E0,0E0],"parents":[2147483647,0,0,1,1,2,2],"right_children":[2,4,6,-1,-1,-1,-1],"split_conditions":[1.3627808E0,9.999841E-1,-9.977325E-1,-1.6354962E-1,-7.6051064E-2,-1.3581468E-1,6.3357553E-3],"split_indices":[1,28,24,0,0,0,0],"split_type":[0,0,0,0,0,0,0],"sum_hessian":[3.3879228E5,4.8123887E3,3.339799E5,3.9064768E3,9.0591174E2,5.2072437E3,3.2877266E5],"tree_param":{"num_deleted":"0","num_feature":"33","num_nodes":"7","size_leaf_vector":"0"}},{"base_weights":[-2.7242135E-2,-4.107932E-2,9.57887E-1,2.0173126E-1,-1.0043201E-1,1.4931952E0,6.5665805E-1],"categories":[],"categories_nodes":[],"categories_segments":[],"categories_sizes":[],"default_left":[1,1,1,0,0,0,0],"id":60,"left_children":[1,3,5,-1,-1,-1,-1],"loss_changes":[2.2388687E3,2.3341934E3,3.6586694E2,0E0,0E0,0E0,0E0],"parents":[2147483647,0,0,1,1,2,2],"right_children":[2,4,6,-1,-1,-1,-1],"split_conditions":[1.4279819E2,9.9985784E-1,3.0980222E0,6.0519382E-2,-3.0129604E-2,4.4795856E-1,1.9699742E-1],"split_indices":[2,28,23,0,0,0,0],"split_type":[0,0,0,0,0,0,0],"sum_hessian":[1.6423945E5,1.6196542E5,2.274018E3,3.1813734E4,1.30151695E5,8.17427E2,1.456591E3],"tree_param":{"num_deleted":"0","num_feature":"33","num_nodes":"7","size_leaf_vector":"0"}},{"base_weights":[7.35938E-3,-4.1687372E-1,1.4181491E-2,-5.3350335E-1,-2.488417E-1,3.544671E-2,-1.1040834E-1],"categories":[],"categories_nodes":[],"categories_segments":[],"categories_sizes":[],"default_left":[1,1,1,0,0,0,0],"id":61,"left_children":[1,3,5,-1,-1,-1,-1],"loss_changes":[8.6306085E2,9.2359375E1,7.77576E2,0E0,0E0,0E0,0E0],"parents":[2147483647,0,0,1,1,2,2],"right_children":[2,4,6,-1,-1,-1,-1],"split_conditions":[3.4370177E0,9.998617E-1,8.817597E1,-1.6005102E-1,-7.4652515E-2,1.0634013E-2,-3.3122506E-2],"split_indices":[1,28,26,0,0,0,0],"split_type":[0,0,0,0,0,0,0],"sum_hessian":[2.982041E5,4.718587E3,2.9348553E5,2.784036E3,1.9345508E3,2.5069684E5,4.278868E4],"tree_param":{"num_deleted":"0","num_feature":"33","num_nodes":"7","size_leaf_vector":"0"}},{"base_weights":[6.7775818E-3,1.3742397E-2,-4.5206252E-1,-3.1651005E-2,8.315034E-2,-2.2166656E-1,-5.267087E-1],"categories":[],"categories_nodes":[],"categories_segments":[],"categories_sizes":[],"default_left":[1,1,1,0,0,0,0],"id":62,"left_children":[1,3,5,-1,-1,-1,-1],"loss_changes":[1.0748995E3,1.0438932E3,8.637695E1,0E0,0E0,0E0,0E0],"parents":[2147483647,0,0,1,1,2,2],"right_children":[2,4,6,-1,-1,-1,-1],"split_conditions":[2.6402146E-1,1.3425899E-1,2.5541635E0,-9.495302E-3,2.4945104E-2,-6.649997E-2,-1.5801263E-1],"split_indices":[24,15,22,0,0,0,0],"split_type":[0,0,0,0,0,0,0],"sum_hessian":[3.3635134E5,3.313231E5,5.028241E3,2.0031553E5,1.3100756E5,1.2314211E3,3.79682E3],"tree_param":{"num_deleted":"0","num_feature":"33","num_nodes":"7","size_leaf_vector":"0"}},{"base_weights":[-2.5721509E-2,3.437114E-1,-6.007342E-2,5.173674E-1,2.0367226E-1,-9.161565E-2,3.7481916E-1],"categories":[],"categories_nodes":[],"categories_segments":[],"categories_sizes":[],"default_left":[1,1,1,0,0,0,0],"id":63,"left_children":[1,3,5,-1,-1,-1,-1],"loss_changes":[2.0523474E3,3.344784E2,2.0296902E3,0E0,0E0,0E0,0E0],"parents":[2147483647,0,0,1,1,2,2],"right_children":[2,4,6,-1,-1,-1,-1],"split_conditions":[-9.845616E-1,-9.9868935E-1,9.9595565E-1,1.5521023E-1,6.110168E-2,-2.7484694E-2,1.1244575E-1],"split_indices":[24,24,4,0,0,0,0],"split_type":[0,0,0,0,0,0,0],"sum_hessian":[1.6171761E5,1.3757327E4,1.4796028E5,6.140315E3,7.617012E3,1.3795534E5,1.0004942E4],"tree_param":{"num_deleted":"0","num_feature":"33","num_nodes":"7","size_leaf_vector":"0"}},{"base_weights":[7.150863E-3,-8.9050055E-2,3.4377463E-2,-4.7703105E-1,-7.143772E-2,4.0101446E-2,-4.82765E-1],"categories":[],"categories_nodes":[],"categories_segments":[],"categories_sizes":[],"default_left":[1,1,1,0,0,0,0],"id":64,"left_children":[1,3,5,-1,-1,-1,-1],"loss_changes":[7.7998584E2,4.488385E2,6.870713E2,0E0,0E0,0E0,0E0],"parents":[2147483647,0,0,1,1,2,2],"right_children":[2,4,6,-1,-1,-1,-1],"split_conditions":[2.501664E1,1.9878869E0,1.1990968E2,-1.4310932E-1,-2.1431316E-2,1.2030435E-2,-1.448295E-1],"split_indices":[1,1,26,0,0,0,0],"split_type":[0,0,0,0,0,0,0],"sum_hessian":[2.977906E5,6.568846E4,2.3210212E5,2.8512983E3,6.2837164E4,2.2956214E5,2.5399827E3],"tree_param":{"num_deleted":"0","num_feature":"33","num_nodes":"7","size_leaf_vector":"0"}},{"base_weights":[6.0486323E-3,-2.4013059E-1,1.8266005E-2,-4.2628565E-1,6.1549485E-2,-4.8146236E-1,2.4419105E-2],"categories":[],"categories_nodes":[],"categories_segments":[],"categories_sizes":[],"default_left":[1,1,1,0,0,0,0],"id":65,"left_children":[1,3,5,-1,-1,-1,-1],"loss_changes":[1.00950476E3,8.912601E2,9.832779E2,0E0,0E0,0E0,0E0],"parents":[2147483647,0,0,1,1,2,2],"right_children":[2,4,6,-1,-1,-1,-1],"split_conditions":[2.091922E2,-1.8164527E-1,1.3032173E0,-1.278857E-1,1.8464847E-2,-1.4443871E-1,7.3257317E-3],"split_indices":[3,24,1,0,0,0,0],"split_type":[0,0,0,0,0,0,0],"sum_hessian":[3.3564172E5,1.5868756E4,3.1977297E5,9.813075E3,6.0556807E3,3.8884993E3,3.1588447E5],"tree_param":{"num_deleted":"0","num_feature":"33","num_nodes":"7","size_leaf_vector":"0"}},{"base_weights":[-2.5225496E-2,-4.618218E-2,5.2902544E-1,1.16644606E-1,-1.3326803E-1,5.4830843E-1,-7.876767E-1],"categories":[],"categories_nodes":[],"categories_segments":[],"categories_sizes":[],"default_left":[1,1,1,0,0,0,0],"id":66,"left_children":[1,3,5,-1,-1,-1,-1],"loss_changes":[1.8295415E3,2.1521296E3,1.4613672E2,0E0,0E0,0E0,0E0],"parents":[2147483647,0,0,1,1,2,2],"right_children":[2,4,6,-1,-1,-1,-1],"split_conditions":[1.2062494E2,2.0004356E1,7.4008007E0,3.4993384E-2,-3.998041E-2,1.6449253E-1,-2.3630302E-1],"split_indices":[26,17,21,0,0,0,0],"split_type":[0,0,0,0,0,0,0],"sum_hessian":[1.5750873E5,1.5177106E5,5.7376724E3,5.2886812E4,9.888426E4,5.6554326E3,8.223984E1],"tree_param":{"num_deleted":"0","num_feature":"33","num_nodes":"7","size_leaf_vector":"0"}},{"base_weights":[6.777439E-3,-1.2252885E-2,1.2610684E-1,-8.679332E-2,4.3256823E-2,2.6469886E-1,-3.5221457E-2],"categories":[],"categories_nodes":[],"categories_segments":[],"categories_sizes":[],"default_left":[1,1,1,0,0,0,0],"id":67,"left_children":[1,3,5,-1,-1,-1,-1],"loss_changes":[6.726142E2,1.0569952E3,9.1088165E2,0E0,0E0,0E0,0E0],"parents":[2147483647,0,0,1,1,2,2],"right_children":[2,4,6,-1,-1,-1,-1],"split_conditions":[9.208401E-1,-3.0497724E-1,2.5529306E1,-2.6037997E-2,1.2977048E-2,7.940966E-2,-1.0566438E-2],"split_indices":[21,24,18,0,0,0,0],"split_type":[0,0,0,0,0,0,0],"sum_hessian":[2.9618966E5,2.554518E5,4.0737848E4,1.0903505E5,1.4641675E5,2.1912703E4,1.8825145E4],"tree_param":{"num_deleted":"0","num_feature":"33","num_nodes":"7","size_leaf_vector":"0"}},{"base_weights":[5.891032E-3,-3.829007E-2,6.9131E-2,-2.0803213E-1,-6.4644585E-3,8.1724994E-2,-5.0547254E-1],"categories":[],"categories_nodes":[],"categories_segments":[],"categories_sizes":[],"default_left":[1,1,1,0,0,0,0],"id":68,"left_children":[1,3,5,-1,-1,-1,-1],"loss_changes":[9.323687E2,1.061274E3,9.932447E2,0E0,0E0,0E0,0E0],"parents":[2147483647,0,0,1,1,2,2],"right_children":[2,4,6,-1,-1,-1,-1],"split_conditions":[2.0449232E1,2.4973639E2,1.2049475E2,-6.2409643E-2,-1.9393376E-3,2.4517499E-2,-1.5164177E-1],"split_indices":[18,3,26,0,0,0,0],"split_type":[0,0,0,0,0,0,0],"sum_hessian":[3.337006E5,1.9645345E5,1.3724714E5,3.101725E4,1.654362E5,1.3430434E5,2.9427854E3],"tree_param":{"num_deleted":"0","num_feature":"33","num_nodes":"7","size_leaf_vector":"0"}},{"base_weights":[-2.2913089E-2,-4.863768E-2,4.0663257E-1,8.5783094E-2,-1.6259094E-1,4.9432997E-2,5.186405E-1],"categories":[],"categories_nodes":[],"categories_segments":[],"categories_sizes":[],"default_left":[1,1,1,0,0,0,0],"id":69,"left_children":[1,3,5,-1,-1,-1,-1],"loss_changes":[1.7188201E3,2.2480508E3,3.5162537E2,0E0,0E0,0E0,0E0],"parents":[2147483647,0,0,1,1,2,2],"right_children":[2,4,6,-1,-1,-1,-1],"split_conditions":[2.2498563E-1,-6.807822E-1,8.0747306E-1,2.573493E-2,-4.8777282E-2,1.4829899E-2,1.5559216E-1],"split_indices":[24,24,4,0,0,0,0],"split_type":[0,0,0,0,0,0,0],"sum_hessian":[1.5554812E5,1.4675988E5,8.788256E3,6.73331E4,7.942677E4,2.0982522E3,6.690003E3],"tree_param":{"num_deleted":"0","num_feature":"33","num_nodes":"7","size_leaf_vector":"0"}},{"base_weights":[7.0880926E-3,5.3864416E-2,-3.7391655E-2,1.658976E-2,1.1459173E-1,-2.6294274E-2,-3.6978775E-1],"categories":[],"categories_nodes":[],"categories_segments":[],"categories_sizes":[],"default_left":[1,1,1,0,0,0,0],"id":70,"left_children":[1,3,5,-1,-1,-1,-1],"loss_changes":[6.132181E2,3.251787E2,5.5726276E2,0E0,0E0,0E0,0E0],"parents":[2147483647,0,0,1,1,2,2],"right_children":[2,4,6,-1,-1,-1,-1],"split_conditions":[5.1143575E-1,1.3948771E-1,1.9046734E-1,4.9769282E-3,3.4377523E-2,-7.888283E-3,-1.1093633E-1],"split_indices":[4,21,24,0,0,0,0],"split_type":[0,0,0,0,0,0,0],"sum_hessian":[2.9472953E5,1.4365603E5,1.5107348E5,8.901783E4,5.4638207E4,1.4619373E5,4.879748E3],"tree_param":{"num_deleted":"0","num_feature":"33","num_nodes":"7","size_leaf_vector":"0"}},{"base_weights":[4.44438E-3,1.0635672E-2,-4.345923E-1,-4.584438E-1,1.5919644E-2,-1.8437204E-1,-5.228696E-1],"categories":[],"categories_nodes":[],"categories_segments":[],"categories_sizes":[],"default_left":[1,1,1,0,0,0,0],"id":71,"left_children":[1,3,5,-1,-1,-1,-1],"loss_changes":[9.021429E2,8.1118805E2,1.0184802E2,0E0,0E0,0E0,0E0],"parents":[2147483647,0,0,1,1,2,2],"right_children":[2,4,6,-1,-1,-1,-1],"split_conditions":[2.545902E-1,-9.9875957E-1,2.5541635E0,-1.3753314E-1,4.7758934E-3,-5.5311613E-2,-1.5686089E-1],"split_indices":[24,24,22,0,0,0,0],"split_type":[0,0,0,0,0,0,0],"sum_hessian":[3.3188656E5,3.2727234E5,4.614217E3,3.6445576E3,3.2362778E5,1.2041536E3,3.410063E3],"tree_param":{"num_deleted":"0","num_feature":"33","num_nodes":"7","size_leaf_vector":"0"}},{"base_weights":[-2.2456262E-2,-3.5399932E-2,7.576897E-1,-6.67735E-2,3.0499884E-1,9.6630496E-1,-1.22217685E-2],"categories":[],"categories_nodes":[],"categories_segments":[],"categories_sizes":[],"default_left":[1,1,1,0,0,0,0],"id":72,"left_children":[1,3,5,-1,-1,-1,-1],"loss_changes":[1.5315222E3,1.5932949E3,3.975807E2,0E0,0E0,0E0,0E0],"parents":[2147483647,0,0,1,1,2,2],"right_children":[2,4,6,-1,-1,-1,-1],"split_conditions":[1.4058249E2,1.0519653E2,1.2591967E-1,-2.003205E-2,9.149966E-2,2.898915E-1,-3.6665306E-3],"split_indices":[2,26,15,0,0,0,0],"split_type":[0,0,0,0,0,0,0],"sum_hessian":[1.5166297E5,1.4918867E5,2.4742861E3,1.365995E5,1.2589176E4,1.9465844E3,5.277017E2],"tree_param":{"num_deleted":"0","num_feature":"33","num_nodes":"7","size_leaf_vector":"0"}},{"base_weights":[6.246664E-3,-2.4208946E-2,7.410873E-2,2.2935513E-3,-1.9395697E-1,9.912784E-2,-1.7764261E-1],"categories":[],"categories_nodes":[],"categories_segments":[],"categories_sizes":[],"default_left":[1,1,1,0,0,0,0],"id":73,"left_children":[1,3,5,-1,-1,-1,-1],"loss_changes":[6.068538E2,9.117532E2,5.7290466E2,0E0,0E0,0E0,0E0],"parents":[2147483647,0,0,1,1,2,2],"right_children":[2,4,6,-1,-1,-1,-1],"split_conditions":[-1.8145692E-2,4.143553E1,1.7660011E-1,6.880654E-4,-5.8187094E-2,2.9738352E-2,-5.3292785E-2],"split_indices":[24,17,24,0,0,0,0],"split_type":[0,0,0,0,0,0,0],"sum_hessian":[2.936209E5,2.0266716E5,9.095374E4,1.7529898E5,2.7368174E4,8.273238E4,8.221358E3],"tree_param":{"num_deleted":"0","num_feature":"33","num_nodes":"7","size_leaf_vector":"0"}},{"base_weights":[4.7533573E-3,-6.959544E-2,3.490233E-2,-2.512555E-1,-3.804033E-2,4.0552713E-2,-4.9849513E-1],"categories":[],"categories_nodes":[],"categories_segments":[],"categories_sizes":[],"default_left":[1,1,1,0,0,0,0],"id":74,"left_children":[1,3,5,-1,-1,-1,-1],"loss_changes":[7.4114417E2,5.468188E2,7.0902954E2,0E0,0E0,0E0,0E0],"parents":[2147483647,0,0,1,1,2,2],"right_children":[2,4,6,-1,-1,-1,-1],"split_conditions":[1.1199629E1,9.999705E-1,1.22398544E2,-7.537666E-2,-1.1412099E-2,1.2165815E-2,-1.4954855E-1],"split_indices":[18,28,26,0,0,0,0],"split_type":[0,0,0,0,0,0,0],"sum_hessian":[3.3063856E5,9.5393164E4,2.3524539E5,1.411683E4,8.127633E4,2.3278042E5,2.464965E3],"tree_param":{"num_deleted":"0","num_feature":"33","num_nodes":"7","size_leaf_vector":"0"}},{"base_weights":[-2.180403E-2,-6.055337E-2,2.2703491E-1,9.794255E-2,-1.495305E-1,3.0728927E-1,1.8426878E-2],"categories":[],"categories_nodes":[],"categories_segments":[],"categories_sizes":[],"default_left":[1,1,1,0,0,0,0],"id":75,"left_children":[1,3,5,-1,-1,-1,-1],"loss_changes":[1.4427991E3,1.825866E3,3.3752747E2,0E0,0E0,0E0,0E0],"parents":[2147483647,0,0,1,1,2,2],"right_children":[2,4,6,-1,-1,-1,-1],"split_conditions":[3.1117468E0,1.9999754E1,1.3904339E-1,2.9382767E-2,-4.4859152E-2,9.2186786E-2,5.5280635E-3],"split_indices":[22,19,21,0,0,0,0],"split_type":[0,0,0,0,0,0,0],"sum_hessian":[1.4962914E5,1.2946892E5,2.0160215E4,4.654957E4,8.291935E4,1.455878E4,5.601435E3],"tree_param":{"num_deleted":"0","num_feature":"33","num_nodes":"7","size_leaf_vector":"0"}},{"base_weights":[6.8251137E-3,-1.954612E-2,7.426926E-2,-1.2371735E-1,2.1654021E-2,1.06259674E-1,-1.4599195E-1],"categories":[],"categories_nodes":[],"categories_segments":[],"categories_sizes":[],"default_left":[1,1,1,0,0,0,0],"id":76,"left_children":[1,3,5,-1,-1,-1,-1],"loss_changes":[5.197964E2,9.017309E2,5.788744E2,0E0,0E0,0E0,0E0],"parents":[2147483647,0,0,1,1,2,2],"right_children":[2,4,6,-1,-1,-1,-1],"split_conditions":[4.9384785E-1,-4.8473138E-1,9.437428E1,-3.711521E-2,6.4962064E-3,3.1877905E-2,-4.3797586E-2],"split_indices":[21,24,26,0,0,0,0],"split_type":[0,0,0,0,0,0,0],"sum_hessian":[2.922509E5,2.1010052E5,8.2150375E4,5.9544656E4,1.5055586E5,7.173256E4,1.0417814E4],"tree_param":{"num_deleted":"0","num_feature":"33","num_nodes":"7","size_leaf_vector":"0"}},{"base_weights":[3.853093E-3,-4.6296063E-1,8.537315E-3,-5.3257525E-1,-1.4744048E-1,1.6207483E-2,-2.611008E-1],"categories":[],"categories_nodes":[],"categories_segments":[],"categories_sizes":[],"default_left":[1,1,1,0,0,0,0],"id":77,"left_children":[1,3,5,-1,-1,-1,-1],"loss_changes":[7.195395E2,7.172717E1,6.73791E2,0E0,0E0,0E0,0E0],"parents":[2147483647,0,0,1,1,2,2],"right_children":[2,4,6,-1,-1,-1,-1],"split_conditions":[1.286267E0,9.9999636E-1,1.2470796E2,-1.5977257E-1,-4.4232145E-2,4.862245E-3,-7.833024E-2],"split_indices":[1,28,11,0,0,0,0],"split_type":[0,0,0,0,0,0,0],"sum_hessian":[3.2905606E5,3.2681228E3,3.2578794E5,2.6768333E3,5.912896E2,3.1677775E5,9.010171E3],"tree_param":{"num_deleted":"0","num_feature":"33","num_nodes":"7","size_leaf_vector":"0"}},{"base_weights":[-2.0308662E-2,1.7010069E-1,-6.7720756E-2,6.689276E-1,-2.6604822E-3,-1.10853754E-1,2.220583E-1],"categories":[],"categories_nodes":[],"categories_segments":[],"categories_sizes":[],"default_left":[1,1,1,0,0,0,0],"id":78,"left_children":[1,3,5,-1,-1,-1,-1],"loss_changes":[1.3287438E3,2.528708E3,1.4729355E3,0E0,0E0,0E0,0E0],"parents":[2147483647,0,0,1,1,2,2],"right_children":[2,4,6,-1,-1,-1,-1],"split_conditions":[9.999172E-1,4.3524094E1,1.03126465E2,2.0067829E-1,-7.9814467E-4,-3.325613E-2,6.661749E-2],"split_indices":[28,26,11,0,0,0,0],"split_type":[0,0,0,0,0,0,0],"sum_hessian":[1.471828E5,2.9341854E4,1.1784094E5,7.5472407E3,2.1794613E4,1.0257368E5,1.5267257E4],"tree_param":{"num_deleted":"0","num_feature":"33","num_nodes":"7","size_leaf_vector":"0"}},{"base_weights":[6.2507633E-3,-4.5148623E-1,9.929342E-3,-5.3785896E-1,-2.508011E-1,1.2127183E-2,-7.38996E-1],"categories":[],"categories_nodes":[],"categories_segments":[],"categories_sizes":[],"default_left":[1,1,1,0,0,0,0],"id":79,"left_children":[1,3,5,-1,-1,-1,-1],"loss_changes":[4.8943985E2,4.0033356E1,4.7464368E2,0E0,0E0,0E0,0E0],"parents":[2147483647,0,0,1,1,2,2],"right_children":[2,4,6,-1,-1,-1,-1],"split_conditions":[2.1036448E0,9.999859E-1,1.4989253E2,-1.613577E-1,-7.524033E-2,3.638155E-3,-2.2169882E-1],"split_indices":[1,28,2,0,0,0,0],"split_type":[0,0,0,0,0,0,0],"sum_hessian":[2.906684E5,2.3163474E3,2.8835206E5,1.6182079E3,6.9813947E2,2.875093E5,8.427585E2],"tree_param":{"num_deleted":"0","num_feature":"33","num_nodes":"7","size_leaf_vector":"0"}},{"base_weights":[3.5825695E-3,8.1980955E-3,-4.1954833E-1,-2.890445E-1,1.4556389E-2,-1.8147267E-1,-5.167169E-1],"categories":[],"categories_nodes":[],"categories_segments":[],"categories_sizes":[],"default_left":[1,1,1,0,0,0,0],"id":80,"left_children":[1,3,5,-1,-1,-1,-1],"loss_changes":[6.390059E2,6.117175E2,8.158038E1,0E0,0E0,0E0,0E0],"parents":[2147483647,0,0,1,1,2,2],"right_children":[2,4,6,-1,-1,-1,-1],"split_conditions":[2.7673832E-1,1.9994686E1,2.5541635E0,-8.671335E-2,4.366917E-3,-5.4441806E-2,-1.5501508E-1],"split_indices":[24,11,22,0,0,0,0],"split_type":[0,0,0,0,0,0,0],"sum_hessian":[3.2719397E5,3.236644E5,3.529561E3,6.777552E3,3.1688684E5,1.02385364E3,2.5057073E3],"tree_param":{"num_deleted":"0","num_feature":"33","num_nodes":"7","size_leaf_vector":"0"}},{"base_weights":[-1.9439185E-2,-2.487519E-1,1.7378306E-2,1.1632707E-2,-3.788519E-1,-4.629686E-3,4.7709727E-1],"categories":[],"categories_nodes":[],"categories_segments":[],"categories_sizes":[],"default_left":[1,1,1,0,0,0,0],"id":81,"left_children":[1,3,5,-1,-1,-1,-1],"loss_changes":[1.2239517E3,6.7941833E2,1.2638374E3,0E0,0E0,0E0,0E0],"parents":[2147483647,0,0,1,1,2,2],"right_children":[2,4,6,-1,-1,-1,-1],"split_conditions":[2.1578712E0,1.9978802E1,1.7511651E-1,3.4898121E-3,-1.13655575E-1,-1.3889058E-3,1.4312918E-1],"split_indices":[23,17,24,0,0,0,0],"split_type":[0,0,0,0,0,0,0],"sum_hessian":[1.4496977E5,2.0054887E4,1.24914875E5,6.682105E3,1.3372781E4,1.1920901E5,5.705868E3],"tree_param":{"num_deleted":"0","num_feature":"33","num_nodes":"7","size_leaf_vector":"0"}},{"base_weights":[6.4376877E-3,-2.1558695E-2,6.670982E-2,-3.1515898E-3,-2.0440058E-1,7.091049E-2,-7.4790025E-1],"categories":[],"categories_nodes":[],"categories_segments":[],"categories_sizes":[],"default_left":[1,1,1,0,0,0,0],"id":82,"left_children":[1,3,5,-1,-1,-1,-1],"loss_changes":[4.899124E2,6.672243E2,3.1516507E2,0E0,0E0,0E0,0E0],"parents":[2147483647,0,0,1,1,2,2],"right_children":[2,4,6,-1,-1,-1,-1],"split_conditions":[6.1208874E1,8.567442E1,1.5124689E2,-9.45477E-4,-6.132018E-2,2.1273147E-2,-2.2437008E-1],"split_indices":[1,26,2,0,0,0,0],"split_type":[0,0,0,0,0,0,0],"sum_hessian":[2.9033356E5,1.9824805E5,9.208551E4,1.8011636E5,1.8131701E4,9.161399E4,4.715103E2],"tree_param":{"num_deleted":"0","num_feature":"33","num_nodes":"7","size_leaf_vector":"0"}},{"base_weights":[2.9087416E-3,-4.3686366E-1,7.005342E-3,-2.8470328E-1,-4.858536E-1,-2.049058E-2,7.3854744E-2],"categories":[],"categories_nodes":[],"categories_segments":[],"categories_sizes":[],"default_left":[1,1,1,0,0,0,0],"id":83,"left_children":[1,3,5,-1,-1,-1,-1],"loss_changes":[5.877996E2,2.2308533E1,5.941785E2,0E0,0E0,0E0,0E0],"parents":[2147483647,0,0,1,1,2,2],"right_children":[2,4,6,-1,-1,-1,-1],"split_conditions":[-9.988337E-1,4.5157883E1,2.4552155E1,-8.541099E-2,-1.457561E-1,-6.147174E-3,2.2156425E-2],"split_indices":[24,11,18,0,0,0,0],"split_type":[0,0,0,0,0,0,0],"sum_hessian":[3.262678E5,3.0102483E3,3.2325756E5,7.348018E2,2.2754465E3,2.2904814E5,9.4209414E4],"tree_param":{"num_deleted":"0","num_feature":"33","num_nodes":"7","size_leaf_vector":"0"}},{"base_weights":[-1.8601794E-2,-4.7773525E-2,2.5612158E-1,-6.268059E-2,4.9636155E-1,3.5472858E-1,-4.5131594E-2],"categories":[],"categories_nodes":[],"categories_segments":[],"categories_sizes":[],"default_left":[1,1,1,0,0,0,0],"id":84,"left_children":[1,3,5,-1,-1,-1,-1],"loss_changes":[1.1435857E3,1.046388E3,4.0691736E2,0E0,0E0,0E0,0E0],"parents":[2147483647,0,0,1,1,2,2],"right_children":[2,4,6,-1,-1,-1,-1],"split_conditions":[3.9381402E0,1.20904755E2,4.9537426E-1,-1.8804178E-2,1.4890847E-1,1.0641858E-1,-1.3539479E-2],"split_indices":[23,26,21,0,0,0,0],"split_type":[0,0,0,0,0,0,0],"sum_hessian":[1.4269319E5,1.28996414E5,1.3696767E4,1.2555754E5,3.4388752E3,1.031896E4,3.3778066E3],"tree_param":{"num_deleted":"0","num_feature":"33","num_nodes":"7","size_leaf_vector":"0"}},{"base_weights":[5.401514E-3,-7.439315E-3,1.2728293E-1,-3.43261E-2,6.2206723E-2,3.0878854E-1,3.4688795E-3],"categories":[],"categories_nodes":[],"categories_segments":[],"categories_sizes":[],"default_left":[1,1,1,0,0,0,0],"id":85,"left_children":[1,3,5,-1,-1,-1,-1],"loss_changes":[4.5216666E2,4.8944507E2,6.188436E2,0E0,0E0,0E0,0E0],"parents":[2147483647,0,0,1,1,2,2],"right_children":[2,4,6,-1,-1,-1,-1],"split_conditions":[1.1216598E0,1.4371801E-2,3.39555E1,-1.029783E-2,1.8662017E-2,9.263656E-2,1.0406639E-3],"split_indices":[21,24,17,0,0,0,0],"split_type":[0,0,0,0,0,0,0],"sum_hessian":[2.88912E5,2.6137567E5,2.753632E4,1.8857644E5,7.2799234E4,1.1165997E4,1.6370323E4],"tree_param":{"num_deleted":"0","num_feature":"33","num_nodes":"7","size_leaf_vector":"0"}},{"base_weights":[3.3631122E-3,-4.4234523E-1,7.1090898E-3,-5.25221E-1,-1.21398546E-1,-2.2877447E-1,1.418841E-2],"categories":[],"categories_nodes":[],"categories_segments":[],"categories_sizes":[],"default_left":[1,1,1,0,0,0,0],"id":86,"left_children":[1,3,5,-1,-1,-1,-1],"loss_changes":[5.430191E2,7.203693E1,5.3858606E2,0E0,0E0,0E0,0E0],"parents":[2147483647,0,0,1,1,2,2],"right_children":[2,4,6,-1,-1,-1,-1],"split_conditions":[1.286267E0,9.9999636E-1,2.0285703E2,-1.5756631E-1,-3.6419567E-2,-6.863234E-2,4.256523E-3],"split_indices":[1,28,3,0,0,0,0],"split_type":[0,0,0,0,0,0,0],"sum_hessian":[3.252336E5,2.7096838E3,3.225239E5,2.1530745E3,5.5660944E2,9.396613E3,3.1312728E5],"tree_param":{"num_deleted":"0","num_feature":"33","num_nodes":"7","size_leaf_vector":"0"}},{"base_weights":[-1.616435E-2,4.1513178E-1,-3.3397507E-2,4.38983E-1,-4.8592124E-2,-5.5792518E-2,3.0259198E-1],"categories":[],"categories_nodes":[],"categories_segments":[],"categories_sizes":[],"default_left":[1,1,1,0,0,0,0],"id":87,"left_children":[1,3,5,-1,-1,-1,-1],"loss_changes":[1.0452424E3,5.9782776E1,1.0175197E3,0E0,0E0,0E0,0E0],"parents":[2147483647,0,0,1,1,2,2],"right_children":[2,4,6,-1,-1,-1,-1],"split_conditions":[-9.973578E-1,9.102406E-1,1.7638616E-1,1.316949E-1,-1.4577637E-2,-1.6737755E-2,9.07776E-2],"split_indices":[24,21,24,0,0,0,0],"split_type":[0,0,0,0,0,0,0],"sum_hessian":[1.4062672E5,5.4021987E3,1.3522452E5,5.1379844E3,2.6421426E2,1.2677528E5,8.449233E3],"tree_param":{"num_deleted":"0","num_feature":"33","num_nodes":"7","size_leaf_vector":"0"}},{"base_weights":[4.8172404E-3,-3.9123136E-1,8.560544E-3,-4.7343472E-1,-2.3887537E-1,-4.437918E-1,1.1325036E-2],"categories":[],"categories_nodes":[],"categories_segments":[],"categories_sizes":[],"default_left":[1,1,1,0,0,0,0],"id":88,"left_children":[1,3,5,-1,-1,-1,-1],"loss_changes":[4.2690915E2,3.3654694E1,3.567328E2,0E0,0E0,0E0,0E0],"parents":[2147483647,0,0,1,1,2,2],"right_children":[2,4,6,-1,-1,-1,-1],"split_conditions":[-9.945185E-1,-9.98648E-1,1.9292212E0,-1.4203042E-1,-7.166261E-2,-1.3313755E-1,3.397511E-3],"split_indices":[24,24,1,0,0,0,0],"split_type":[0,0,0,0,0,0,0],"sum_hessian":[2.8795666E5,2.695206E3,2.8526144E5,1.7492787E3,9.459273E2,1.7317798E3,2.8352966E5],"tree_param":{"num_deleted":"0","num_feature":"33","num_nodes":"7","size_leaf_vector":"0"}},{"base_weights":[2.7367845E-3,-4.494712E-1,5.9759193E-3,-4.6593708E-1,1.0550732E-1,9.667764E-3,-3.982943E-1],"categories":[],"categories_nodes":[],"categories_segments":[],"categories_sizes":[],"default_left":[1,1,1,0,0,0,0],"id":89,"left_children":[1,3,5,-1,-1,-1,-1],"loss_changes":[4.7419824E2,2.1089111E1,4.7974524E2,0E0,0E0,0E0,0E0],"parents":[2147483647,0,0,1,1,2,2],"right_children":[2,4,6,-1,-1,-1,-1],"split_conditions":[-9.992425E-1,9.6890056E-1,2.823809E-1,-1.3978113E-1,3.1652197E-2,2.9003294E-3,-1.1948829E-1],"split_indices":[24,21,24,0,0,0,0],"split_type":[0,0,0,0,0,0,0],"sum_hessian":[3.2373444E5,2.301416E3,3.2143303E5,2.2352578E3,6.615828E1,3.185252E5,2.9078354E3],"tree_param":{"num_deleted":"0","num_feature":"33","num_nodes":"7","size_leaf_vector":"0"}},{"base_weights":[-1.5892215E-2,2.4723354E-1,-4.189303E-2,4.0397203E-1,-9.0063184E-2,-9.258918E-2,1.4501362E-1],"categories":[],"categories_nodes":[],"categories_segments":[],"categories_sizes":[],"default_left":[1,1,1,0,0,0,0],"id":90,"left_children":[1,3,5,-1,-1,-1,-1],"loss_changes":[9.461829E2,6.575606E2,1.1926222E3,0E0,0E0,0E0,0E0],"parents":[2147483647,0,0,1,1,2,2],"right_children":[2,4,6,-1,-1,-1,-1],"split_conditions":[-5.8729218E1,1.2632647E-1,8.190563E-1,1.2119161E-1,-2.7018957E-2,-2.7776754E-2,4.3504085E-2],"split_indices":[10,15,14,0,0,0,0],"split_type":[0,0,0,0,0,0,0],"sum_hessian":[1.382983E5,1.243624E4,1.25862055E5,8.490562E3,3.9456785E3,9.900788E4,2.6854176E4],"tree_param":{"num_deleted":"0","num_feature":"33","num_nodes":"7","size_leaf_vector":"0"}},{"base_weights":[4.8681754E-3,1.3723412E-2,-1.3899145E-1,-1.9931354E-2,6.497393E-2,-3.3999076E-1,6.701051E-2],"categories":[],"categories_nodes":[],"categories_segments":[],"categories_sizes":[],"default_left":[1,1,1,0,0,0,0],"id":91,"left_children":[1,3,5,-1,-1,-1,-1],"loss_changes":[3.6608563E2,4.6692432E2,6.8999005E2,0E0,0E0,0E0,0E0],"parents":[2147483647,0,0,1,1,2,2],"right_children":[2,4,6,-1,-1,-1,-1],"split_conditions":[9.9259445E1,1.3867828E-1,1.0761938E2,-5.979406E-3,1.949218E-2,-1.01997234E-1,2.0103153E-2],"split_indices":[26,21,2,0,0,0,0],"split_type":[0,0,0,0,0,0,0],"sum_hessian":[2.8736897E5,2.707066E5,1.6662361E4,1.6340427E5,1.0730235E5,8.433253E3,8.229107E3],"tree_param":{"num_deleted":"0","num_feature":"33","num_nodes":"7","size_leaf_vector":"0"}},{"base_weights":[2.4745897E-3,5.7276115E-3,-4.345856E-1,-6.3045286E-2,2.5826262E-2,-5.180177E-1,-2.2234248E-1],"categories":[],"categories_nodes":[],"categories_segments":[],"categories_sizes":[],"default_left":[1,1,1,0,0,0,0],"id":92,"left_children":[1,3,5,-1,-1,-1,-1],"loss_changes":[4.590161E2,4.4295956E2,4.2121674E1,0E0,0E0,0E0,0E0],"parents":[2147483647,0,0,1,1,2,2],"right_children":[2,4,6,-1,-1,-1,-1],"split_conditions":[9.993545E-1,9.371246E0,9.999793E-1,-1.8913586E-2,7.747879E-3,-1.5540531E-1,-6.6702746E-2],"split_indices":[4,18,28,0,0,0,0],"split_type":[0,0,0,0,0,0,0],"sum_hessian":[3.2284644E5,3.2046225E5,2.3842007E3,7.247331E4,2.4798892E5,1.7104054E3,6.7379535E2],"tree_param":{"num_deleted":"0","num_feature":"33","num_nodes":"7","size_leaf_vector":"0"}},{"base_weights":[-1.51589075E-2,3.8725597E-1,-3.1920284E-2,5.8148634E-1,8.018997E-2,-6.245774E-2,2.1560226E-1],"categories":[],"categories_nodes":[],"categories_segments":[],"categories_sizes":[],"default_left":[1,1,1,0,0,0,0],"id":93,"left_children":[1,3,5,-1,-1,-1,-1],"loss_changes":[9.2322784E2,3.2638135E2,9.9323785E2,0E0,0E0,0E0,0E0],"parents":[2147483647,0,0,1,1,2,2],"right_children":[2,4,6,-1,-1,-1,-1],"split_conditions":[1.9997816E1,9.999998E-1,1.00731735E2,1.7444591E-1,2.4056993E-2,-1.8737324E-2,6.468068E-2],"split_indices":[11,28,26,0,0,0,0],"split_type":[0,0,0,0,0,0,0],"sum_hessian":[1.368725E5,5.472164E3,1.3140034E5,3.3513926E3,2.1207715E3,1.1697019E5,1.4430147E4],"tree_param":{"num_deleted":"0","num_feature":"33","num_nodes":"7","size_leaf_vector":"0"}},{"base_weights":[4.776238E-3,-9.6976005E-2,1.6798802E-2,-3.4045503E-1,-5.633045E-2,3.2644346E-2,-6.381511E-2],"categories":[],"categories_nodes":[],"categories_segments":[],"categories_sizes":[],"default_left":[1,1,1,0,0,0,0],"id":94,"left_children":[1,3,5,-1,-1,-1,-1],"loss_changes":[3.5102896E2,3.000542E2,3.2780762E2,0E0,0E0,0E0,0E0],"parents":[2147483647,0,0,1,1,2,2],"right_children":[2,4,6,-1,-1,-1,-1],"split_conditions":[1.6608723E1,9.9951226E-1,8.6628586E1,-1.02136515E-1,-1.6899135E-2,9.793304E-3,-1.9144533E-2],"split_indices":[1,28,26,0,0,0,0],"split_type":[0,0,0,0,0,0,0],"sum_hessian":[2.8694475E5,3.0320656E4,2.566241E5,4.3364785E3,2.5984178E4,2.1446855E5,4.215554E4],"tree_param":{"num_deleted":"0","num_feature":"33","num_nodes":"7","size_leaf_vector":"0"}},{"base_weights":[2.1861244E-3,4.9808775E-3,-4.748028E-1,-1.782075E-2,6.446887E-2,-4.8889655E-1,1.2720668E0],"categories":[],"categories_nodes":[],"categories_segments":[],"categories_sizes":[],"default_left":[1,1,1,0,0,0,0],"id":95,"left_children":[1,3,5,-1,-1,-1,-1],"loss_changes":[4.294933E2,4.3447296E2,4.6827057E1,0E0,0E0,0E0,0E0],"parents":[2147483647,0,0,1,1,2,2],"right_children":[2,4,6,-1,-1,-1,-1],"split_conditions":[1.2245087E2,2.5043556E1,1.2502504E1,-5.346225E-3,1.934066E-2,-1.4666897E-1,3.8162008E-1],"split_indices":[26,18,21,0,0,0,0],"split_type":[0,0,0,0,0,0,0],"sum_hessian":[3.2218175E5,3.2030603E5,1.8757336E3,2.3155294E5,8.875308E4,1.8614357E3,1.4297953E1],"tree_param":{"num_deleted":"0","num_feature":"33","num_nodes":"7","size_leaf_vector":"0"}},{"base_weights":[-1.5187444E-2,-2.4081195E-2,7.230838E-1,1.4827995E-1,-6.0603995E-2,8.599238E-1,5.0694246E-2],"categories":[],"categories_nodes":[],"categories_segments":[],"categories_sizes":[],"default_left":[1,1,1,0,0,0,0],"id":96,"left_children":[1,3,5,-1,-1,-1,-1],"loss_changes":[8.8921716E2,8.42382E2,1.4827972E2,0E0,0E0,0E0,0E0],"parents":[2147483647,0,0,1,1,2,2],"right_children":[2,4,6,-1,-1,-1,-1],"split_conditions":[1.4365485E2,9.996907E-1,1.2591967E-1,4.4483986E-2,-1.81812E-2,2.5797716E-1,1.5208274E-2],"split_indices":[2,28,15,0,0,0,0],"split_type":[0,0,0,0,0,0,0],"sum_hessian":[1.3542388E5,1.3381283E5,1.611039E3,2.3396281E4,1.10416555E5,1.3383821E3,2.7265698E2],"tree_param":{"num_deleted":"0","num_feature":"33","num_nodes":"7","size_leaf_vector":"0"}},{"base_weights":[4.4150194E-3,-2.944683E-2,4.114242E-2,-4.7863655E-2,1.1201311E-1,2.2057256E-2,1.7359008E-1],"categories":[],"categories_nodes":[],"categories_segments":[],"categories_sizes":[],"default_left":[1,1,1,0,0,0,0],"id":97,"left_children":[1,3,5,-1,-1,-1,-1],"loss_changes":[3.5629498E2,3.8834247E2,3.473891E2,0E0,0E0,0E0,0E0],"parents":[2147483647,0,0,1,1,2,2],"right_children":[2,4,6,-1,-1,-1,-1],"split_conditions":[4.7021355E1,9.7611606E-1,2.5435705E0,-1.4359097E-2,3.3603933E-2,6.617177E-3,5.2077025E-2],"split_indices":[1,21,22,0,0,0,0],"split_type":[0,0,0,0,0,0,0],"sum_hessian":[2.8648762E5,1.4905886E5,1.3742877E5,1.3188877E5,1.7170084E4,1.20120984E5,1.7307775E4],"tree_param":{"num_deleted":"0","num_feature":"33","num_nodes":"7","size_leaf_vector":"0"}},{"base_weights":[2.4620718E-3,7.405007E-3,-2.5262377E-1,1.02245E-2,-4.177595E-1,-4.007325E-1,-1.541951E-1],"categories":[],"categories_nodes":[],"categories_segments":[],"categories_sizes":[],"default_left":[1,1,1,0,0,0,0],"id":98,"left_children":[1,3,5,-1,-1,-1,-1],"loss_changes":[4.0555136E2,3.782437E2,8.9071594E1,0E0,0E0,0E0,0E0],"parents":[2147483647,0,0,1,1,2,2],"right_children":[2,4,6,-1,-1,-1,-1],"split_conditions":[1.2955789E2,9.993545E-1,2.0112827E1,3.06735E-3,-1.2532786E-1,-1.2021975E-1,-4.625853E-2],"split_indices":[11,4,19,0,0,0,0],"split_type":[0,0,0,0,0,0,0],"sum_hessian":[3.216409E5,3.1552772E5,6.113179E3,3.1345003E5,2.0776785E3,2.439426E3,3.6737532E3],"tree_param":{"num_deleted":"0","num_feature":"33","num_nodes":"7","size_leaf_vector":"0"}},{"base_weights":[-1.3019829E-2,1.2054911E-2,-2.4714717E-1,-2.146715E-1,4.402227E-2,-5.318318E-2,-4.206141E-1],"categories":[],"categories_nodes":[],"categories_segments":[],"categories_sizes":[],"default_left":[1,1,1,0,0,0,0],"id":99,"left_children":[1,3,5,-1,-1,-1,-1],"loss_changes":[7.884855E2,8.79294E2,4.37138E2,0E0,0E0,0E0,0E0],"parents":[2147483647,0,0,1,1,2,2],"right_children":[2,4,6,-1,-1,-1,-1],"split_conditions":[1.0839865E0,2.12147E0,3.0977263E0,-6.440145E-2,1.3206681E-2,-1.5954955E-2,-1.2618424E-1],"split_indices":[21,23,23,0,0,0,0],"split_type":[0,0,0,0,0,0,0],"sum_hessian":[1.343075E5,1.21315695E5,1.2991808E4,1.4990541E4,1.0632515E5,6.1341475E3,6.85766E3],"tree_param":{"num_deleted":"0","num_feature":"33","num_nodes":"7","size_leaf_vector":"0"}},{"base_weights":[4.187185E-3,7.1872766E-3,-3.5242867E-1,-1.2844066E-2,7.921583E-2,-4.5341045E-1,-7.646149E-2],"categories":[],"categories_nodes":[],"categories_segments":[],"categories_sizes":[],"default_left":[1,1,1,0,0,0,0],"id":100,"left_children":[1,3,5,-1,-1,-1,-1],"loss_changes":[3.0617343E2,4.094565E2,6.649701E1,0E0,0E0,0E0,0E0],"parents":[2147483647,0,0,1,1,2,2],"right_children":[2,4,6,-1,-1,-1,-1],"split_conditions":[3.5226965E-1,5.6368575E-2,5.014508E1,-3.85322E-3,2.376475E-2,-1.3602313E-1,-2.2938447E-2],"split_indices":[24,24,1,0,0,0,0],"split_type":[0,0,0,0,0,0,0],"sum_hessian":[2.8617203E5,2.8378562E5,2.386415E3,2.2203727E5,6.1748363E4,1.7466418E3,6.3977325E2],"tree_param":{"num_deleted":"0","num_feature":"33","num_nodes":"7","size_leaf_vector":"0"}},{"base_weights":[1.7157489E-3,-1.2681626E-2,7.644052E-2,-7.521312E-2,1.552673E-2,-2.8661558E-1,1.0510014E-1],"categories":[],"categories_nodes":[],"categories_segments":[],"categories_sizes":[],"default_left":[1,1,1,0,0,0,0],"id":101,"left_children":[1,3,5,-1,-1,-1,-1],"loss_changes":[3.4513168E2,4.7445355E2,5.3926587E2,0E0,0E0,0E0,0E0],"parents":[2147483647,0,0,1,1,2,2],"right_children":[2,4,6,-1,-1,-1,-1],"split_conditions":[1.1576197E0,2.6168063E2,3.5148228E1,-2.2563936E-2,4.658019E-3,-8.598468E-2,3.1530045E-2],"split_indices":[15,3,11,0,0,0,0],"split_type":[0,0,0,0,0,0,0],"sum_hessian":[3.208E5,2.6897656E5,5.1823438E4,8.361641E4,1.8536017E5,3.7909683E3,4.803247E4],"tree_param":{"num_deleted":"0","num_feature":"33","num_nodes":"7","size_leaf_vector":"0"}},{"base_weights":[-1.215424E-2,-3.605557E-2,2.1342537E-1,1.3655114E-1,-7.981411E-2,3.7150624E-1,-1.12573214E-1],"categories":[],"categories_nodes":[],"categories_segments":[],"categories_sizes":[],"default_left":[1,1,1,0,0,0,0],"id":102,"left_children":[1,3,5,-1,-1,-1,-1],"loss_changes":[7.191082E2,9.108755E2,6.585366E2,0E0,0E0,0E0,0E0],"parents":[2147483647,0,0,1,1,2,2],"right_children":[2,4,6,-1,-1,-1,-1],"split_conditions":[5.6504654E1,-8.652304E-1,1.2844801E-1,4.0965345E-2,-2.3944234E-2,1.1145188E-1,-3.3771966E-2],"split_indices":[10,14,15,0,0,0,0],"split_type":[0,0,0,0,0,0,0],"sum_hessian":[1.3337194E5,1.205951E5,1.2776836E4,2.4389191E4,9.6205914E4,8.604342E3,4.1724946E3],"tree_param":{"num_deleted":"0","num_feature":"33","num_nodes":"7","size_leaf_vector":"0"}},{"base_weights":[3.1175332E-3,-4.3231127E-1,5.514033E-3,-4.5849392E-1,-2.2408041E-1,6.945571E-3,-6.9095105E-1],"categories":[],"categories_nodes":[],"categories_segments":[],"categories_sizes":[],"default_left":[1,1,1,0,0,0,0],"id":103,"left_children":[1,3,5,-1,-1,-1,-1],"loss_changes":[2.973306E2,8.400421E0,2.825328E2,0E0,0E0,0E0,0E0],"parents":[2147483647,0,0,1,1,2,2],"right_children":[2,4,6,-1,-1,-1,-1],"split_conditions":[-9.979892E-1,5.859601E-1,1.5124542E2,-1.3754818E-1,-6.722413E-2,2.0836713E-3,-2.0728533E-1],"split_indices":[24,21,2,0,0,0,0],"split_type":[0,0,0,0,0,0,0],"sum_hessian":[2.8493122E5,1.5586302E3,2.833726E5,1.3834724E3,1.751578E2,2.8279234E5,5.802708E2],"tree_param":{"num_deleted":"0","num_feature":"33","num_nodes":"7","size_leaf_vector":"0"}},{"base_weights":[2.2897806E-3,5.1750373E-3,-3.7121806E-1,7.4756634E-3,-4.5887718E-1,-1.316576E-1,-5.0786626E-1],"categories":[],"categories_nodes":[],"categories_segments":[],"categories_sizes":[],"default_left":[1,1,1,0,0,0,0],"id":104,"left_children":[1,3,5,-1,-1,-1,-1],"loss_changes":[3.4486948E2,3.3903525E2,8.02363E1,0E0,0E0,0E0,0E0],"parents":[2147483647,0,0,1,1,2,2],"right_children":[2,4,6,-1,-1,-1,-1],"split_conditions":[2.823809E-1,1.2245087E2,2.6873407E0,2.242699E-3,-1.3766316E-1,-3.9497282E-2,-1.5235989E-1],"split_indices":[24,26,22,0,0,0,0],"split_type":[0,0,0,0,0,0,0],"sum_hessian":[3.200124E5,3.175603E5,2.4520896E3,3.1599472E5,1.5656193E3,8.913723E2,1.5607173E3],"tree_param":{"num_deleted":"0","num_feature":"33","num_nodes":"7","size_leaf_vector":"0"}},{"base_weights":[-1.2053222E-2,-3.8479187E-2,1.8094055E-1,8.245653E-2,-1.10854454E-1,5.5015497E-2,3.0612296E-1],"categories":[],"categories_nodes":[],"categories_segments":[],"categories_sizes":[],"default_left":[1,1,1,0,0,0,0],"id":105,"left_children":[1,3,5,-1,-1,-1,-1],"loss_changes":[6.7309875E2,1.0160603E3,2.5054529E2,0E0,0E0,0E0,0E0],"parents":[2147483647,0,0,1,1,2,2],"right_children":[2,4,6,-1,-1,-1,-1],"split_conditions":[3.114058E0,2.0005308E1,1.1319448E-1,2.473696E-2,-3.3256337E-2,1.650465E-2,9.183689E-2],"split_indices":[22,17,15,0,0,0,0],"split_type":[0,0,0,0,0,0,0],"sum_hessian":[1.3197656E5,1.16082586E5,1.5893982E4,4.346105E4,7.262154E4,7.9242056E3,7.969777E3],"tree_param":{"num_deleted":"0","num_feature":"33","num_nodes":"7","size_leaf_vector":"0"}},{"base_weights":[3.3035006E-3,-4.2258343E-1,5.5308845E-3,-5.300394E-1,-2.1076977E-1,7.7194097E-3,-4.158887E-1],"categories":[],"categories_nodes":[],"categories_segments":[],"categories_sizes":[],"default_left":[1,1,1,0,0,0,0],"id":106,"left_children":[1,3,5,-1,-1,-1,-1],"loss_changes":[2.6999066E2,3.3592102E1,2.6113388E2,0E0,0E0,0E0,0E0],"parents":[2147483647,0,0,1,1,2,2],"right_children":[2,4,6,-1,-1,-1,-1],"split_conditions":[1.8871572E0,9.999804E-1,1.2099883E2,-1.5901184E-1,-6.323093E-2,2.315823E-3,-1.2476661E-1],"split_indices":[1,28,26,0,0,0,0],"split_type":[0,0,0,0,0,0,0],"sum_hessian":[2.8461253E5,1.4797941E3,2.8313272E5,9.8074585E2,4.9904825E2,2.8167094E5,1.4617979E3],"tree_param":{"num_deleted":"0","num_feature":"33","num_nodes":"7","size_leaf_vector":"0"}},{"base_weights":[2.0364418E-3,-4.205851E-1,4.5398376E-3,-2.932752E-1,-4.9091595E-1,-3.381304E-2,3.5198953E-2],"categories":[],"categories_nodes":[],"categories_segments":[],"categories_sizes":[],"default_left":[1,1,1,0,0,0,0],"id":107,"left_children":[1,3,5,-1,-1,-1,-1],"loss_changes":[3.379726E2,1.6699097E1,3.7341632E2,0E0,0E0,0E0,0E0],"parents":[2147483647,0,0,1,1,2,2],"right_children":[2,4,6,-1,-1,-1,-1],"split_conditions":[-9.992425E-1,8.220541E1,5.7083656E1,-8.7982565E-2,-1.4727479E-1,-1.0143912E-2,1.0559686E-2],"split_indices":[24,8,26,0,0,0,0],"split_type":[0,0,0,0,0,0,0],"sum_hessian":[3.194453E5,1.880106E3,3.1756522E5,6.708792E2,1.2092268E3,1.4108077E5,1.7648444E5],"tree_param":{"num_deleted":"0","num_feature":"33","num_nodes":"7","size_leaf_vector":"0"}},{"base_weights":[-1.1594909E-2,3.4945402E-1,-2.6333794E-2,6.540121E-1,1.6528489E-1,-5.310722E-2,1.7692451E-1],"categories":[],"categories_nodes":[],"categories_segments":[],"categories_sizes":[],"default_left":[1,1,1,0,0,0,0],"id":108,"left_children":[1,3,5,-1,-1,-1,-1],"loss_changes":[6.941348E2,2.8685248E2,6.8201227E2,0E0,0E0,0E0,0E0],"parents":[2147483647,0,0,1,1,2,2],"right_children":[2,4,6,-1,-1,-1,-1],"split_conditions":[1.9997816E1,9.999954E-1,9.933446E1,1.9620363E-1,4.958547E-2,-1.5932167E-2,5.3077355E-2],"split_indices":[11,28,26,0,0,0,0],"split_type":[0,0,0,0,0,0,0],"sum_hessian":[1.3043797E5,5.1150557E3,1.25322914E5,1.9265667E3,3.188489E3,1.1073722E5,1.4585699E4],"tree_param":{"num_deleted":"0","num_feature":"33","num_nodes":"7","size_leaf_vector":"0"}},{"base_weights":[3.040484E-3,5.666747E-3,-3.442347E-1,-9.317221E-3,6.929091E-2,-4.68547E-1,-1.4266232E-1],"categories":[],"categories_nodes":[],"categories_segments":[],"categories_sizes":[],"default_left":[1,1,1,0,0,0,0],"id":109,"left_children":[1,3,5,-1,-1,-1,-1],"loss_changes":[2.5922046E2,2.6892645E2,5.338896E1,0E0,0E0,0E0,0E0],"parents":[2147483647,0,0,1,1,2,2],"right_children":[2,4,6,-1,-1,-1,-1],"split_conditions":[3.636821E-1,7.6337576E-2,3.9250313E1,-2.7951663E-3,2.0787274E-2,-1.405641E-1,-4.2798698E-2],"split_indices":[24,24,1,0,0,0,0],"split_type":[0,0,0,0,0,0,0],"sum_hessian":[2.842186E5,2.8208628E5,2.1322896E3,2.2831681E5,5.3769473E4,1.3180851E3,8.142046E2],"tree_param":{"num_deleted":"0","num_feature":"33","num_nodes":"7","size_leaf_vector":"0"}},{"base_weights":[2.0333556E-3,-2.2706059E-1,6.572851E-3,-5.547909E-1,-9.898742E-2,-3.7843548E-2,3.152888E-2],"categories":[],"categories_nodes":[],"categories_segments":[],"categories_sizes":[],"default_left":[1,1,1,0,0,0,0],"id":110,"left_children":[1,3,5,-1,-1,-1,-1],"loss_changes":[3.3155893E2,2.5995322E2,3.4652765E2,0E0,0E0,0E0,0E0],"parents":[2147483647,0,0,1,1,2,2],"right_children":[2,4,6,-1,-1,-1,-1],"split_conditions":[1.9994686E1,9.9999577E-1,2.615605E2,-1.6643728E-1,-2.9696228E-2,-1.1353064E-2,9.458664E-3],"split_indices":[11,28,3,0,0,0,0],"split_type":[0,0,0,0,0,0,0],"sum_hessian":[3.1881316E5,6.1935845E3,3.1261956E5,1.7393574E3,4.4542266E3,1.1246154E5,2.0015803E5],"tree_param":{"num_deleted":"0","num_feature":"33","num_nodes":"7","size_leaf_vector":"0"}},{"base_weights":[-1.0663389E-2,-2.7031891E-2,2.6385713E-1,7.253813E-2,-8.7983176E-2,4.358308E-2,4.9638608E-1],"categories":[],"categories_nodes":[],"categories_segments":[],"categories_sizes":[],"default_left":[1,1,1,0,0,0,0],"id":111,"left_children":[1,3,5,-1,-1,-1,-1],"loss_changes":[5.809169E2,7.4044183E2,3.725867E2,0E0,0E0,0E0,0E0],"parents":[2147483647,0,0,1,1,2,2],"right_children":[2,4,6,-1,-1,-1,-1],"split_conditions":[1.7465341E-1,-7.8073674E-1,2.7562075E0,2.176144E-2,-2.6394954E-2,1.3074924E-2,1.4891583E-1],"split_indices":[24,24,22,0,0,0,0],"split_type":[0,0,0,0,0,0,0],"sum_hessian":[1.2927711E5,1.2200346E5,7.273651E3,4.6325668E4,7.567779E4,3.7358645E3,3.5377864E3],"tree_param":{"num_deleted":"0","num_feature":"33","num_nodes":"7","size_leaf_vector":"0"}},{"base_weights":[2.7304408E-3,-4.150404E-1,4.7224956E-3,-4.4467E-1,-1.9326667E-1,6.0238405E-3,-5.9904623E-1],"categories":[],"categories_nodes":[],"categories_segments":[],"categories_sizes":[],"default_left":[1,1,1,0,0,0,0],"id":112,"left_children":[1,3,5,-1,-1,-1,-1],"loss_changes":[2.3572676E2,8.746933E0,2.2149881E2,0E0,0E0,0E0,0E0],"parents":[2147483647,0,0,1,1,2,2],"right_children":[2,4,6,-1,-1,-1,-1],"split_conditions":[-9.979892E-1,5.859601E-1,1.495289E2,-1.33401E-1,-5.7980005E-2,1.8071522E-3,-1.7971388E-1],"split_indices":[24,21,2,0,0,0,0],"split_type":[0,0,0,0,0,0,0],"sum_hessian":[2.832463E5,1.3432087E3,2.819031E5,1.1840159E3,1.5919276E2,2.8129778E5,6.053106E2],"tree_param":{"num_deleted":"0","num_feature":"33","num_nodes":"7","size_leaf_vector":"0"}},{"base_weights":[1.9047279E-3,-1.2157272E-2,6.9283865E-2,-9.331219E-2,1.19364085E-2,7.764321E-2,-4.7583973E-1],"categories":[],"categories_nodes":[],"categories_segments":[],"categories_sizes":[],"default_left":[1,1,1,0,0,0,0],"id":113,"left_children":[1,3,5,-1,-1,-1,-1],"loss_changes":[3.0102728E2,5.1396564E2,2.5001605E2,0E0,0E0,0E0,0E0],"parents":[2147483647,0,0,1,1,2,2],"right_children":[2,4,6,-1,-1,-1,-1],"split_conditions":[3.022303E1,2.5532297E2,1.2285042E2,-2.7993659E-2,3.5809227E-3,2.3292962E-2,-1.4275193E-1],"split_indices":[18,3,26,0,0,0,0],"split_type":[0,0,0,0,0,0,0],"sum_hessian":[3.177099E5,2.6285334E5,5.485657E4,6.0172156E4,2.0268117E5,5.4028906E4,8.276632E2],"tree_param":{"num_deleted":"0","num_feature":"33","num_nodes":"7","size_leaf_vector":"0"}},{"base_weights":[-1.0212297E-2,1.18988365E-1,-4.4491686E-2,5.272024E-1,-5.336522E-2,6.579206E-2,-1.2405193E-1],"categories":[],"categories_nodes":[],"categories_segments":[],"categories_sizes":[],"default_left":[1,1,1,0,0,0,0],"id":114,"left_children":[1,3,5,-1,-1,-1,-1],"loss_changes":[5.652571E2,1.8829192E3,8.85032E2,0E0,0E0,0E0,0E0],"parents":[2147483647,0,0,1,1,2,2],"right_children":[2,4,6,-1,-1,-1,-1],"split_conditions":[9.9996585E-1,4.741462E1,2.6781723E2,1.5816073E-1,-1.6009567E-2,1.973762E-2,-3.721558E-2],"split_indices":[28,26,3,0,0,0,0],"split_type":[0,0,0,0,0,0,0],"sum_hessian":[1.2762648E5,2.6760896E4,1.0086558E5,7.943918E3,1.8816979E4,4.2271047E4,5.8594535E4],"tree_param":{"num_deleted":"0","num_feature":"33","num_nodes":"7","size_leaf_vector":"0"}},{"base_weights":[2.2838442E-3,-5.9240335E-3,1.0181282E-1,4.700173E-2,-2.471788E-2,2.1672702E-1,-3.4271777E-2],"categories":[],"categories_nodes":[],"categories_segments":[],"categories_sizes":[],"default_left":[1,1,1,0,0,0,0],"id":115,"left_children":[1,3,5,-1,-1,-1,-1],"loss_changes":[2.3103654E2,2.5987875E2,3.3694507E2,0E0,0E0,0E0,0E0],"parents":[2147483647,0,0,1,1,2,2],"right_children":[2,4,6,-1,-1,-1,-1],"split_conditions":[1.2256005E0,1.9007217E0,4.0777657E1,1.410052E-2,-7.4153645E-3,6.501811E-2,-1.0281533E-2],"split_indices":[21,23,19,0,0,0,0],"split_type":[0,0,0,0,0,0,0],"sum_hessian":[2.828119E5,2.6126688E5,2.1545014E4,6.8463586E4,1.928033E5,1.1680788E4,9.864225E3],"tree_param":{"num_deleted":"0","num_feature":"33","num_nodes":"7","size_leaf_vector":"0"}},{"base_weights":[2.0734088E-3,-4.965472E-1,3.934391E-3,-5.359184E-1,3.6405E-2,-2.922678E-2,3.0372951E-2],"categories":[],"categories_nodes":[],"categories_segments":[],"categories_sizes":[],"default_left":[1,1,1,0,0,0,0],"id":116,"left_children":[1,3,5,-1,-1,-1,-1],"loss_changes":[2.942428E2,2.4760315E1,2.7697656E2,0E0,0E0,0E0,0E0],"parents":[2147483647,0,0,1,1,2,2],"right_children":[2,4,6,-1,-1,-1,-1],"split_conditions":[5.082363E-1,9.999963E-1,5.7083656E1,-1.6077553E-1,1.0921501E-2,-8.768034E-3,9.111886E-3],"split_indices":[1,28,26,0,0,0,0],"split_type":[0,0,0,0,0,0,0],"sum_hessian":[3.1709478E5,1.1780914E3,3.159167E5,1.0970431E3,8.104828E1,1.4014123E5,1.7577547E5],"tree_param":{"num_deleted":"0","num_feature":"33","num_nodes":"7","size_leaf_vector":"0"}},{"base_weights":[-9.169701E-3,1.9116145E-2,-1.6047992E-1,6.954462E-2,-8.947566E-2,2.6315406E-1,-2.3067732E-1],"categories":[],"categories_nodes":[],"categories_segments":[],"categories_sizes":[],"default_left":[1,1,1,0,0,0,0],"id":117,"left_children":[1,3,5,-1,-1,-1,-1],"loss_changes":[5.4177295E2,5.840231E2,5.9293677E2,0E0,0E0,0E0,0E0],"parents":[2147483647,0,0,1,1,2,2],"right_children":[2,4,6,-1,-1,-1,-1],"split_conditions":[1.5E0,1.5E0,5.1229584E1,2.0863388E-2,-2.68427E-2,7.894622E-2,-6.92032E-2],"split_indices":[30,32,26,0,0,0,0],"split_type":[0,0,0,0,0,0,0],"sum_hessian":[1.2658259E5,1.06646945E5,1.9935646E4,7.2827336E4,3.381961E4,2.8334321E3,1.7102213E4],"tree_param":{"num_deleted":"0","num_feature":"33","num_nodes":"7","size_leaf_vector":"0"}},{"base_weights":[2.4482866E-3,-4.62119E-1,4.0585995E-3,-5.3294194E-1,-2.3832911E-1,-4.1706197E-2,1.958334E-2],"categories":[],"categories_nodes":[],"categories_segments":[],"categories_sizes":[],"default_left":[1,1,1,0,0,0,0],"id":118,"left_children":[1,3,5,-1,-1,-1,-1],"loss_changes":[2.1108968E2,1.5321304E1,1.9978397E2,0E0,0E0,0E0,0E0],"parents":[2147483647,0,0,1,1,2,2],"right_children":[2,4,6,-1,-1,-1,-1],"split_conditions":[1.1906819E0,9.999804E-1,4.1555176E1,-1.5988259E-1,-7.149874E-2,-1.251186E-2,5.8750026E-3],"split_indices":[1,28,2,0,0,0,0],"split_type":[0,0,0,0,0,0,0],"sum_hessian":[2.8216472E5,9.736909E2,2.8119103E5,7.385729E2,2.3511807E2,7.122572E4,2.099653E5],"tree_param":{"num_deleted":"0","num_feature":"33","num_nodes":"7","size_leaf_vector":"0"}},{"base_weights":[1.4864525E-3,-2.3277438E-1,5.1874775E-3,-4.4891235E-1,-2.956645E-2,8.874316E-3,-2.2904007E-1],"categories":[],"categories_nodes":[],"categories_segments":[],"categories_sizes":[],"default_left":[1,1,1,0,0,0,0],"id":119,"left_children":[1,3,5,-1,-1,-1,-1],"loss_changes":[2.7408682E2,2.1593658E2,2.687531E2,0E0,0E0,0E0,0E0],"parents":[2147483647,0,0,1,1,2,2],"right_children":[2,4,6,-1,-1,-1,-1],"split_conditions":[1.9621387E2,-3.6655816E-1,4.250019E0,-1.3467371E-1,-8.869936E-3,2.6622948E-3,-6.8712026E-2],"split_indices":[3,24,23,0,0,0,0],"split_type":[0,0,0,0,0,0,0],"sum_hessian":[3.1612816E5,4.915784E3,3.1121234E5,2.3815198E3,2.5342642E3,3.063906E5,4.821752E3],"tree_param":{"num_deleted":"0","num_feature":"33","num_nodes":"7","size_leaf_vector":"0"}},{"base_weights":[-9.286112E-3,-1.6005967E-2,5.7222503E-1,3.091237E-1,-2.8379463E-2,7.1294224E-1,-3.639581E-2],"categories":[],"categories_nodes":[],"categories_segments":[],"categories_sizes":[],"default_left":[1,1,1,0,0,0,0],"id":120,"left_children":[1,3,5,-1,-1,-1,-1],"loss_changes":[4.9188205E2,5.0061642E2,1.23180115E2,0E0,0E0,0E0,0E0],"parents":[2147483647,0,0,1,1,2,2],"right_children":[2,4,6,-1,-1,-1,-1],"split_conditions":[1.4311067E2,-9.962495E-1,1.2591967E-1,9.273711E-2,-8.513839E-3,2.1388268E-1,-1.0918744E-2],"split_indices":[2,24,15,0,0,0,0],"split_type":[0,0,0,0,0,0,0],"sum_hessian":[1.2587268E5,1.2443569E5,1.4369877E3,4.561165E3,1.1987452E5,1.1669984E3,2.6998926E2],"tree_param":{"num_deleted":"0","num_feature":"33","num_nodes":"7","size_leaf_vector":"0"}},{"base_weights":[2.698096E-3,4.521381E-3,-3.966962E-1,-1.7640332E-2,3.7300285E-2,-4.494224E-1,1.8454834E0],"categories":[],"categories_nodes":[],"categories_segments":[],"categories_sizes":[],"default_left":[1,1,1,0,0,0,0],"id":121,"left_children":[1,3,5,-1,-1,-1,-1],"loss_changes":[2.0513062E2,2.0370085E2,1.5216649E2,0E0,0E0,0E0,0E0],"parents":[2147483647,0,0,1,1,2,2],"right_children":[2,4,6,-1,-1,-1,-1],"split_conditions":[1.2099883E2,1.3867635E-1,9.92506E0,-5.2921E-3,1.1190086E-2,-1.3482672E-1,5.536451E-1],"split_indices":[26,21,15,0,0,0,0],"split_type":[0,0,0,0,0,0,0],"sum_hessian":[2.816882E5,2.804091E5,1.279114E3,1.6729914E5,1.1310995E5,1.2505072E3,2.8606855E1],"tree_param":{"num_deleted":"0","num_feature":"33","num_nodes":"7","size_leaf_vector":"0"}},{"base_weights":[1.2960334E-3,-4.1879413E-1,3.2211456E-3,-2.8052205E-1,-4.9130973E-1,5.3451206E-3,-3.4724545E-1],"categories":[],"categories_nodes":[],"categories_segments":[],"categories_sizes":[],"default_left":[1,1,1,0,0,0,0],"id":122,"left_children":[1,3,5,-1,-1,-1,-1],"loss_changes":[2.5512413E2,1.4291504E1,2.3375768E2,0E0,0E0,0E0,0E0],"parents":[2147483647,0,0,1,1,2,2],"right_children":[2,4,6,-1,-1,-1,-1],"split_conditions":[-9.9941593E-1,8.1237335E1,3.0718637E-1,-8.415662E-2,-1.4739293E-1,1.6035362E-3,-1.0417364E-1],"split_indices":[24,8,24,0,0,0,0],"split_type":[0,0,0,0,0,0,0],"sum_hessian":[3.1546362E5,1.4380665E3,3.1402556E5,4.9640134E2,9.4166516E2,3.1213488E5,1.8906841E3],"tree_param":{"num_deleted":"0","num_feature":"33","num_nodes":"7","size_leaf_vector":"0"}},{"base_weights":[-8.950294E-3,-2.058518E-1,1.0340447E-2,4.7053974E-2,-3.5647395E-1,-3.7340089E-3,3.8360974E-1],"categories":[],"categories_nodes":[],"categories_segments":[],"categories_sizes":[],"default_left":[1,1,1,0,0,0,0],"id":123,"left_children":[1,3,5,-1,-1,-1,-1],"loss_changes":[4.7396326E2,4.2415076E2,5.970521E2,0E0,0E0,0E0,0E0],"parents":[2147483647,0,0,1,1,2,2],"right_children":[2,4,6,-1,-1,-1,-1],"split_conditions":[1.9592586E0,1.9936897E1,1.6900474E-1,1.4116193E-2,-1.0694219E-1,-1.1202027E-3,1.1508293E-1],"split_indices":[23,17,24,0,0,0,0],"split_type":[0,0,0,0,0,0,0],"sum_hessian":[1.24778945E5,1.1133108E4,1.13645836E5,4.1558374E3,6.9772715E3,1.09517375E5,4.1284614E3],"tree_param":{"num_deleted":"0","num_feature":"33","num_nodes":"7","size_leaf_vector":"0"}},{"base_weights":[2.7136565E-3,3.23698E-2,-2.0596964E-2,5.3261194E-2,-3.005942E-2,-1.4433447E-2,-2.4525896E-1],"categories":[],"categories_nodes":[],"categories_segments":[],"categories_sizes":[],"default_left":[1,1,1,0,0,0,0],"id":124,"left_children":[1,3,5,-1,-1,-1,-1],"loss_changes":[1.946197E2,1.6159514E2,2.1826338E2,0E0,0E0,0E0,0E0],"parents":[2147483647,0,0,1,1,2,2],"right_children":[2,4,6,-1,-1,-1,-1],"split_conditions":[4.575289E-1,3.586334E1,1.8013802E-1,1.5978359E-2,-9.017826E-3,-4.3300344E-3,-7.357769E-2],"split_indices":[4,17,24,0,0,0,0],"split_type":[0,0,0,0,0,0,0],"sum_hessian":[2.8152394E5,1.23898234E5,1.5762569E5,9.283272E4,3.1065516E4,1.534178E5,4.2078945E3],"tree_param":{"num_deleted":"0","num_feature":"33","num_nodes":"7","size_leaf_vector":"0"}},{"base_weights":[1.120268E-3,-4.8406392E-1,2.670703E-3,-5.294955E-1,2.5101366E-2,4.307677E-3,-4.3605596E-1],"categories":[],"categories_nodes":[],"categories_segments":[],"categories_sizes":[],"default_left":[1,1,1,0,0,0,0],"id":125,"left_children":[1,3,5,-1,-1,-1,-1],"loss_changes":[2.369395E2,2.3222198E1,2.2549147E2,0E0,0E0,0E0,0E0],"parents":[2147483647,0,0,1,1,2,2],"right_children":[2,4,6,-1,-1,-1,-1],"split_conditions":[5.082363E-1,9.999963E-1,1.227352E2,-1.5884864E-1,7.53041E-3,1.2923032E-3,-1.3081679E-1],"split_indices":[1,28,26,0,0,0,0],"split_type":[0,0,0,0,0,0,0],"sum_hessian":[3.1497312E5,1.00231793E3,3.139708E5,9.201733E2,8.214466E1,3.1280466E5,1.1661445E3],"tree_param":{"num_deleted":"0","num_feature":"33","num_nodes":"7",