{"learner":{"attributes":{"best_iteration":"999","best_ntree_limit":"1000","scikit_learn":"{\"use_label_encoder\": false, \"n_estimators\": 1000, \"objective\": \"binary:logistic\", \"max_depth\": 4, \"max_leaves\": null, \"max_bin\": null, \"grow_policy\": null, \"learning_rate\": 0.3, \"verbosity\": null, \"booster\": null, \"tree_method\": null, \"gamma\": null, \"min_child_weight\": null, \"max_delta_step\": null, \"subsample\": null, \"sampling_method\": null, \"colsample_bytree\": null, \"colsample_bylevel\": null, \"colsample_bynode\": null, \"reg_alpha\": null, \"reg_lambda\": null, \"scale_pos_weight\": null, \"base_score\": null, \"missing\": NaN, \"num_parallel_tree\": null, \"random_state\": null, \"n_jobs\": null, \"monotone_constraints\": null, \"interaction_constraints\": null, \"importance_type\": null, \"gpu_id\": null, \"validate_parameters\": null, \"predictor\": null, \"enable_categorical\": false, \"max_cat_to_onehot\": null, \"eval_metric\": null, \"early_stopping_rounds\": null, \"callbacks\": null, \"classes_\": [0, 1], \"n_classes_\": 2, \"_estimator_type\": \"classifier\"}"},"feature_names":[],"feature_types":[],"gradient_booster":{"model":{"gbtree_model_param":{"num_parallel_tree":"1","num_trees":"1000","size_leaf_vector":"0"},"tree_info":[0,0,0,0,0,0,0,0,0,0,0,0,0,0,0,0,0,0,0,0,0,0,0,0,0,0,0,0,0,0,0,0,0,0,0,0,0,0,0,0,0,0,0,0,0,0,0,0,0,0,0,0,0,0,0,0,0,0,0,0,0,0,0,0,0,0,0,0,0,0,0,0,0,0,0,0,0,0,0,0,0,0,0,0,0,0,0,0,0,0,0,0,0,0,0,0,0,0,0,0,0,0,0,0,0,0,0,0,0,0,0,0,0,0,0,0,0,0,0,0,0,0,0,0,0,0,0,0,0,0,0,0,0,0,0,0,0,0,0,0,0,0,0,0,0,0,0,0,0,0,0,0,0,0,0,0,0,0,0,0,0,0,0,0,0,0,0,0,0,0,0,0,0,0,0,0,0,0,0,0,0,0,0,0,0,0,0,0,0,0,0,0,0,0,0,0,0,0,0,0,0,0,0,0,0,0,0,0,0,0,0,0,0,0,0,0,0,0,0,0,0,0,0,0,0,0,0,0,0,0,0,0,0,0,0,0,0,0,0,0,0,0,0,0,0,0,0,0,0,0,0,0,0,0,0,0,0,0,0,0,0,0,0,0,0,0,0,0,0,0,0,0,0,0,0,0,0,0,0,0,0,0,0,0,0,0,0,0,0,0,0,0,0,0,0,0,0,0,0,0,0,0,0,0,0,0,0,0,0,0,0,0,0,0,0,0,0,0,0,0,0,0,0,0,0,0,0,0,0,0,0,0,0,0,0,0,0,0,0,0,0,0,0,0,0,0,0,0,0,0,0,0,0,0,0,0,0,0,0,0,0,0,0,0,0,0,0,0,0,0,0,0,0,0,0,0,0,0,0,0,0,0,0,0,0,0,0,0,0,0,0,0,0,0,0,0,0,0,0,0,0,0,0,0,0,0,0,0,0,0,0,0,0,0,0,0,0,0,0,0,0,0,0,0,0,0,0,0,0,0,0,0,0,0,0,0,0,0,0,0,0,0,0,0,0,0,0,0,0,0,0,0,0,0,0,0,0,0,0,0,0,0,0,0,0,0,0,0,0,0,0,0,0,0,0,0,0,0,0,0,0,0,0,0,0,0,0,0,0,0,0,0,0,0,0,0,0,0,0,0,0,0,0,0,0,0,0,0,0,0,0,0,0,0,0,0,0,0,0,0,0,0,0,0,0,0,0,0,0,0,0,0,0,0,0,0,0,0,0,0,0,0,0,0,0,0,0,0,0,0,0,0,0,0,0,0,0,0,0,0,0,0,0,0,0,0,0,0,0,0,0,0,0,0,0,0,0,0,0,0,0,0,0,0,0,0,0,0,0,0,0,0,0,0,0,0,0,0,0,0,0,0,0,0,0,0,0,0,0,0,0,0,0,0,0,0,0,0,0,0,0,0,0,0,0,0,0,0,0,0,0,0,0,0,0,0,0,0,0,0,0,0,0,0,0,0,0,0,0,0,0,0,0,0,0,0,0,0,0,0,0,0,0,0,0,0,0,0,0,0,0,0,0,0,0,0,0,0,0,0,0,0,0,0,0,0,0,0,0,0,0,0,0,0,0,0,0,0,0,0,0,0,0,0,0,0,0,0,0,0,0,0,0,0,0,0,0,0,0,0,0,0,0,0,0,0,0,0,0,0,0,0,0,0,0,0,0,0,0,0,0,0,0,0,0,0,0,0,0,0,0,0,0,0,0,0,0,0,0,0,0,0,0,0,0,0,0,0,0,0,0,0,0,0,0,0,0,0,0,0,0,0,0,0,0,0,0,0,0,0,0,0,0,0,0,0,0,0,0,0,0,0,0,0,0,0,0,0,0,0,0,0,0,0,0,0,0,0,0,0,0,0,0,0,0,0,0,0,0,0,0,0,0,0,0,0,0,0,0,0,0,0,0,0,0,0,0,0,0,0,0,0,0,0,0,0,0,0,0,0,0,0,0,0,0,0,0,0,0,0,0,0,0,0,0,0,0,0,0,0,0,0,0,0,0,0,0,0,0,0,0,0,0,0,0,0,0,0,0,0,0,0,0,0,0,0,0,0,0,0,0,0,0,0,0,0,0,0,0,0,0,0,0,0,0,0,0,0,0,0,0,0,0,0,0,0,0,0,0,0,0,0,0,0,0,0,0,0,0,0,0,0,0,0,0,0,0,0,0,0,0,0,0,0,0,0,0,0,0,0,0,0,0,0,0,0,0,0,0,0,0,0,0,0,0,0,0,0,0,0,0,0,0,0,0,0,0,0,0,0],"trees":[{"base_weights":[-3.929359E-8,1.6181995E0,-9.616404E-1,1.835901E0,-1.8763177E0,-2.6287255E-1,-1.940258E0,1.8805617E0,1.1110625E0,-3.647137E-1,-1.9764103E0,-1.7768041E0,4.778271E-1,-1.958201E0,4.1218716E-1,-4.2855603E-1,1.8848078E0,1.3214846E-1,1.3243691E0,-1.1111E0,6.418749E-1,-1.3846071E0,-1.9933738E0,-1.9254369E0,-1.1029576E0,-9.580454E-1,1.0113013E0,-1.6051216E0,-1.9854751E0,8.013166E-1,-1.7168105E0],"categories":[],"categories_nodes":[],"categories_segments":[],"categories_sizes":[],"default_left":[1,1,1,1,1,1,1,1,1,1,1,1,1,1,1,0,0,0,0,0,0,0,0,0,0,0,0,0,0,0,0],"id":0,"left_children":[1,3,5,7,9,11,13,15,17,19,21,23,25,27,29,-1,-1,-1,-1,-1,-1,-1,-1,-1,-1,-1,-1,-1,-1,-1,-1],"loss_changes":[1.4155338E5,2.579896E4,3.901711E4,1.0312031E3,3.0021338E2,3.7330887E4,1.00410156E3,2.9559375E2,3.8716675E2,9.44382E1,1.5965332E1,1.0932461E3,1.7124188E4,2.2396875E2,1.5111932E2,0E0,0E0,0E0,0E0,0E0,0E0,0E0,0E0,0E0,0E0,0E0,0E0,0E0,0E0,0E0,0E0],"parents":[2147483647,0,0,1,1,2,2,3,3,4,4,5,5,6,6,7,7,8,8,9,9,10,10,11,11,12,12,13,13,14,14],"right_children":[2,4,6,8,10,12,14,16,18,20,22,24,26,28,30,-1,-1,-1,-1,-1,-1,-1,-1,-1,-1,-1,-1,-1,-1,-1,-1],"split_conditions":[3.0970016E0,-4.0672445E-1,-6.5114605E-1,-6.196728E-1,-3.587132E-1,-9.9173087E-1,3.9454185E1,-9.958799E-1,3.046701E1,8.8987076E1,-3.3032644E-1,-9.980161E-1,8.9573145E0,-5.673313E-1,-4.131813E-1,-1.2856682E-1,5.654424E-1,3.964454E-2,3.9731073E-1,-3.3333E-1,1.9256248E-1,-4.1538215E-1,-5.9801215E-1,-5.7763106E-1,-3.308873E-1,-2.8741363E-1,3.0339038E-1,-4.815365E-1,-5.9564257E-1,2.40395E-1,-5.1504314E-1],"split_indices":[25,26,26,26,26,26,1,26,12,8,26,26,1,26,26,0,0,0,0,0,0,0,0,0,0,0,0,0,0,0,0],"split_type":[0,0,0,0,0,0,0,0,0,0,0,0,0,0,0,0,0,0,0,0,0,0,0,0,0,0,0,0,0,0,0],"sum_hessian":[9.096325E4,3.3906477E4,5.7056773E4,3.191849E4,1.9879846E3,3.3288715E4,2.376806E4,3.0064482E4,1.8540084E3,1.2374981E2,1.8642349E3,1.093567E4,2.2353043E4,2.358831E4,1.797503E2,5.49999E1,3.0009482E4,3.3200018E2,1.5220083E3,7.099967E1,5.275014E1,5.4249687E1,1.8099851E3,8.957929E3,1.977741E3,6.054976E3,1.6298067E4,1.6957388E3,2.189257E4,1.525005E2,2.72498E1],"tree_param":{"num_deleted":"0","num_feature":"29","num_nodes":"31","size_leaf_vector":"0"}},{"base_weights":[-1.120545E-3,1.2239057E0,-7.3053426E-1,1.4024212E0,-1.4295895E0,-1.9648916E-1,-1.4852518E0,1.4346427E0,7.152194E-1,-3.4187832E-1,-1.5373216E0,-1.2725724E0,4.1251674E-1,-1.5093541E0,1.546578E-1,1.4374133E0,-2.021738E0,-1.1353774E-1,9.3053424E-1,-7.684066E-1,8.386964E-1,-1.1588367E0,-1.5441228E0,-1.4670804E0,-6.5685093E-1,7.4095684E-1,-9.875934E-1,-1.2667868E0,-1.5424324E0,-7.6147693E-1,1.0772637E0],"categories":[],"categories_nodes":[],"categories_segments":[],"categories_sizes":[],"default_left":[1,1,1,1,1,1,1,1,1,1,1,1,1,1,1,0,0,0,0,0,0,0,0,0,0,0,0,0,0,0,0],"id":1,"left_children":[1,3,5,7,9,11,13,15,17,19,21,23,25,27,29,-1,-1,-1,-1,-1,-1,-1,-1,-1,-1,-1,-1,-1,-1,-1,-1],"loss_changes":[7.62093E4,1.5079691E4,2.1546074E4,6.593594E2,2.3464746E2,2.0517178E4,8.758086E2,2.7571094E2,2.388211E2,9.236424E1,2.9101562E0,1.3541289E3,9.194572E3,1.7321484E2,2.7278857E2,0E0,0E0,0E0,0E0,0E0,0E0,0E0,0E0,0E0,0E0,0E0,0E0,0E0,0E0,0E0,0E0],"parents":[2147483647,0,0,1,1,2,2,3,3,4,4,5,5,6,6,7,7,8,8,9,9,10,10,11,11,12,12,13,13,14,14],"right_children":[2,4,6,8,10,12,14,16,18,20,22,24,26,28,30,-1,-1,-1,-1,-1,-1,-1,-1,-1,-1,-1,-1,-1,-1,-1,-1],"split_conditions":[3.1018481E0,-4.1736382E-1,-6.7100286E-1,-5.911238E-1,-3.4918875E-1,-9.84372E-1,3.5641144E1,1.2548302E2,6.584687E1,7.937929E1,-3.2817733E-1,-9.974196E-1,9.758353E-1,-5.3070295E-1,2.6405638E1,4.3122402E-1,-6.065214E-1,-3.4061324E-2,2.791603E-1,-2.3052199E-1,2.5160894E-1,-3.4765103E-1,-4.6323687E-1,-4.4012412E-1,-1.970553E-1,2.2228706E-1,-2.9627803E-1,-3.8003606E-1,-4.6272975E-1,-2.2844309E-1,3.2317913E-1],"split_indices":[25,26,26,26,26,26,1,28,8,28,26,26,4,26,18,0,0,0,0,0,0,0,0,0,0,0,0,0,0,0,0],"split_type":[0,0,0,0,0,0,0,0,0,0,0,0,0,0,0,0,0,0,0,0,0,0,0,0,0,0,0,0,0,0,0],"sum_hessian":[8.528614E4,3.1829266E4,5.3456875E4,2.9823352E4,2.0059135E3,3.1305834E4,2.2151041E4,2.8486588E4,1.3367631E3,1.8114687E2,1.8247666E3,1.1313808E4,1.9992027E4,2.1830273E4,3.2076785E2,2.8464355E4,2.2232492E1,2.7577292E2,1.0609901E3,1.333266E2,4.7820263E1,3.5236984E1,1.7895297E3,8.596703E3,2.717104E3,1.6193743E4,3.798284E3,2.6244202E3,1.9205854E4,1.6103601E2,1.5973186E2],"tree_param":{"num_deleted":"0","num_feature":"29","num_nodes":"31","size_leaf_vector":"0"}},{"base_weights":[-3.5381718E-3,1.0614021E0,-5.759607E-1,1.1904361E0,-1.1507747E0,-1.4750716E-1,-1.3045013E0,1.2328157E0,6.917614E-1,-1.7667186E-1,-1.3272606E0,-1.2038747E0,2.2635883E-1,-1.3134657E0,3.4788442E-1,4.8549998E-1,1.2428442E0,3.6424083E-1,9.650523E-1,-7.0999295E-1,5.1144946E-1,-8.9606565E-1,-1.3373685E0,-1.3039128E0,-8.5748416E-1,-4.895462E-1,6.589609E-1,8.364041E-1,-1.3164023E0,-4.0887785E-1,8.3567E-1],"categories":[],"categories_nodes":[],"categories_segments":[],"categories_sizes":[],"default_left":[1,1,1,1,1,1,1,1,1,1,1,1,1,1,1,0,0,0,0,0,0,0,0,0,0,0,0,0,0,0,0],"id":2,"left_children":[1,3,5,7,9,11,13,15,17,19,21,23,25,27,29,-1,-1,-1,-1,-1,-1,-1,-1,-1,-1,-1,-1,-1,-1,-1,-1],"loss_changes":[4.5786965E4,7.4967812E3,1.5248678E4,5.235117E2,2.4865271E2,1.214953E4,2.6842773E2,1.7077344E2,1.7380853E2,8.228154E1,4.1430664E0,2.7753613E2,7.0373115E3,1.1469336E2,3.666656E1,0E0,0E0,0E0,0E0,0E0,0E0,0E0,0E0,0E0,0E0,0E0,0E0,0E0,0E0,0E0,0E0],"parents":[2147483647,0,0,1,1,2,2,3,3,4,4,5,5,6,6,7,7,8,8,9,9,10,10,11,11,12,12,13,13,14,14],"right_children":[2,4,6,8,10,12,14,16,18,20,22,24,26,28,30,-1,-1,-1,-1,-1,-1,-1,-1,-1,-1,-1,-1,-1,-1,-1,-1],"split_conditions":[3.086718E0,-4.3062404E-1,-6.252754E-1,-6.433232E-1,-3.4918875E-1,-9.953209E-1,4.3446617E1,3.1666883E1,2.2109125E1,4.4980827E1,-3.2817733E-1,-9.989673E-1,1.2819187E1,-3.5462987E0,2.4626175E1,1.4565E-1,3.7285328E-1,1.0927225E-1,2.895157E-1,-2.129979E-1,1.5343484E-1,-2.6881972E-1,-4.0121058E-1,-3.9117384E-1,-2.5724527E-1,-1.4686386E-1,1.9768827E-1,2.5092125E-1,-3.949207E-1,-1.2266336E-1,2.50701E-1],"split_indices":[25,26,26,26,26,26,1,8,19,12,26,26,1,24,18,0,0,0,0,0,0,0,0,0,0,0,0,0,0,0,0],"split_type":[0,0,0,0,0,0,0,0,0,0,0,0,0,0,0,0,0,0,0,0,0,0,0,0,0,0,0,0,0,0,0],"sum_hessian":[7.510836E4,2.6257607E4,4.8850754E4,2.4810877E4,1.4467308E3,3.0761291E4,1.8089463E4,2.2866135E4,1.9447405E3,2.2221729E2,1.2245135E3,8.040485E3,2.2720807E4,1.7992059E4,9.740467E1,3.034399E2,2.2562695E4,8.856645E2,1.0590759E3,1.2517216E2,9.704513E1,3.010041E1,1.1944131E3,6.2365864E3,1.8038982E3,8.558075E3,1.4162731E4,2.4154554E1,1.7967904E4,3.8239994E1,5.916468E1],"tree_param":{"num_deleted":"0","num_feature":"29","num_nodes":"31","size_leaf_vector":"0"}},{"base_weights":[-5.3906487E-3,8.924142E-1,-5.017052E-1,1.0419356E0,-9.7941494E-1,-1.5332052E-1,-1.1854606E0,1.0876241E0,6.3590527E-1,-9.562326E-2,-1.2026229E0,-8.0086E-1,2.781023E-1,-1.1997833E0,-1.9424795E-1,-3.6622697E-1,1.0968728E0,3.3330882E-1,8.52529E-1,-7.765087E-1,2.8497815E-1,-7.2983795E-1,-1.2245616E0,-1.1561935E0,-4.598453E-1,5.046027E-1,-9.9732715E-1,-9.6989894E-1,-1.223482E0,3.6870277E-1,-1.2076108E0],"categories":[],"categories_nodes":[],"categories_segments":[],"categories_sizes":[],"default_left":[1,1,1,1,1,1,1,1,1,1,1,1,1,1,1,0,0,0,0,0,0,0,0,0,0,0,0,0,0,0,0],"id":3,"left_children":[1,3,5,7,9,11,13,15,17,19,21,23,25,27,29,-1,-1,-1,-1,-1,-1,-1,-1,-1,-1,-1,-1,-1,-1,-1,-1],"loss_changes":[2.8906428E4,6.4647285E3,9.951515E3,3.960547E2,3.3698938E2,7.7321333E3,1.9995898E2,2.588711E2,1.4166724E2,8.9794586E1,1.32561035E1,1.3404834E3,4.7991885E3,7.4541016E1,1.1570908E2,0E0,0E0,0E0,0E0,0E0,0E0,0E0,0E0,0E0,0E0,0E0,0E0,0E0,0E0,0E0,0E0],"parents":[2147483647,0,0,1,1,2,2,3,3,4,4,5,5,6,6,7,7,8,8,9,9,10,10,11,11,12,12,13,13,14,14],"right_children":[2,4,6,8,10,12,14,16,18,20,22,24,26,28,30,-1,-1,-1,-1,-1,-1,-1,-1,-1,-1,-1,-1,-1,-1,-1,-1],"split_conditions":[3.1064796E0,-4.6431053E-1,-6.18994E-1,-6.674483E-1,-3.6524832E-1,-9.578439E-1,3.46978E1,-9.9389815E-1,4.263243E1,4.5903137E1,-3.2817733E-1,-9.985199E-1,9.9128306E-1,-5.1728797E-1,-4.0845624E-1,-1.09868094E-1,3.2906187E-1,9.999265E-2,2.557587E-1,-2.3295261E-1,8.5493445E-2,-2.1895139E-1,-3.673685E-1,-3.4685805E-1,-1.379536E-1,1.513808E-1,-2.9919815E-1,-2.909697E-1,-3.6704463E-1,1.10610835E-1,-3.6228326E-1],"split_indices":[25,26,26,26,26,26,7,26,12,6,26,26,4,26,26,0,0,0,0,0,0,0,0,0,0,0,0,0,0,0,0],"split_type":[0,0,0,0,0,0,0,0,0,0,0,0,0,0,0,0,0,0,0,0,0,0,0,0,0,0,0,0,0,0,0],"sum_hessian":[6.486972E4,2.3093709E4,4.1776008E4,2.1385855E4,1.7078539E3,2.76759E4,1.4100107E4,1.9221299E4,2.164557E3,3.446481E2,1.3632058E3,1.106586E4,1.6610041E4,1.3899058E4,2.0104947E2,1.2126036E2,1.910004E4,9.0413336E2,1.2604236E3,1.23202324E2,2.2144577E2,6.19715E1,1.3012343E3,5.4179873E3,5.6478726E3,1.4105656E4,2.5043845E3,1.3028574E3,1.25962E4,1.2965741E2,7.139206E1],"tree_param":{"num_deleted":"0","num_feature":"29","num_nodes":"31","size_leaf_vector":"0"}},{"base_weights":[-7.7143284E-3,3.8755903E-1,-8.461354E-1,-9.46402E-1,5.8230996E-1,-3.6737442E-1,-1.1180041E0,-1.0994071E0,-5.8366114E-1,6.66256E-1,-8.722023E-1,4.5115057E-1,-9.5179695E-1,-1.1356493E0,-5.397011E-1,-1.1348044E0,-9.492131E-1,-9.406702E-1,1.00083634E-1,9.337671E-1,3.3057582E-1,-1.017898E0,2.8985837E-1,-6.615804E-1,6.3395375E-1,-9.992569E-1,3.4029257E-1,-5.019237E-1,-1.1408645E0,7.9893476E-1,-7.959914E-1],"categories":[],"categories_nodes":[],"categories_segments":[],"categories_sizes":[],"default_left":[1,1,1,1,1,1,1,1,1,1,1,1,1,1,1,0,0,0,0,0,0,0,0,0,0,0,0,0,0,0,0],"id":4,"left_children":[1,3,5,7,9,11,13,15,17,19,21,23,25,27,29,-1,-1,-1,-1,-1,-1,-1,-1,-1,-1,-1,-1,-1,-1,-1,-1],"loss_changes":[1.8485273E4,9.848451E3,2.3257188E3,2.6740527E2,4.0394912E3,3.0974805E3,1.1569629E2,1.6975586E1,3.5036E2,2.8080566E3,3.0595667E2,5.491487E2,2.3199268E2,3.5979492E1,1.1707259E2,0E0,0E0,0E0,0E0,0E0,0E0,0E0,0E0,0E0,0E0,0E0,0E0,0E0,0E0,0E0,0E0],"parents":[2147483647,0,0,1,1,2,2,3,3,4,4,5,5,6,6,7,7,8,8,9,9,10,10,11,11,12,12,13,13,14,14],"right_children":[2,4,6,8,10,12,14,16,18,20,22,24,26,28,30,-1,-1,-1,-1,-1,-1,-1,-1,-1,-1,-1,-1,-1,-1,-1,-1],"split_conditions":[9.2621017E-1,-9.959271E-1,-6.852268E-1,-9.9924356E-1,-4.77198E-1,3.6176372E0,9.090582E1,1.4730896E2,6.1020964E-1,3.1179814E0,7.295776E1,1.5155635E1,3.3387175E0,-3.362081E0,3.1186433E0,-3.4044132E-1,-2.8476393E-1,-2.8220108E-1,3.0025091E-2,2.8013015E-1,9.917275E-2,-3.053694E-1,8.6957514E-2,-1.9847412E-1,1.9018613E-1,-2.997771E-1,1.0208777E-1,-1.5057711E-1,-3.4225935E-1,2.3968044E-1,-2.3879744E-1],"split_indices":[4,26,26,26,26,25,28,3,22,25,28,6,24,24,25,0,0,0,0,0,0,0,0,0,0,0,0,0,0,0,0],"split_type":[0,0,0,0,0,0,0,0,0,0,0,0,0,0,0,0,0,0,0,0,0,0,0,0,0,0,0,0,0,0,0],"sum_hessian":[5.5776426E4,3.790613E4,1.7870297E4,4.828576E3,3.3077555E4,6.47325E3,1.1397046E4,3.3946667E3,1.4339097E3,3.1273188E4,1.804366E3,2.6966416E3,3.7766086E3,1.1058659E4,3.383869E2,2.741906E3,6.5276074E2,9.417898E2,4.9211987E2,1.7402758E4,1.387043E4,1.6034537E3,2.0091222E2,3.8013345E2,2.316508E3,3.6430227E3,1.3358586E2,9.1056656E1,1.0967603E4,5.40355E1,2.843514E2],"tree_param":{"num_deleted":"0","num_feature":"29","num_nodes":"31","size_leaf_vector":"0"}},{"base_weights":[-1.0728073E-2,7.6370037E-1,-3.30717E-1,8.678196E-1,-4.5610112E-1,-7.890361E-2,-1.067341E0,-1.727318E0,8.784087E-1,1.2539124E-2,-1.0926389E0,-5.002425E-1,2.4660338E-1,-1.0815314E0,-2.8663749E-1,-3.0045178E-2,-5.029034E0,3.94965E-1,9.2052263E-1,-8.689109E-1,1.5952046E-1,-6.684743E-1,-1.105631E0,-1.1616279E0,-3.1709555E-1,4.2271066E-1,-8.428959E-1,-8.6739695E-1,-1.1091188E0,1.2317154E0,-5.4705447E-1],"categories":[],"categories_nodes":[],"categories_segments":[],"categories_sizes":[],"default_left":[1,1,1,1,1,1,1,1,1,1,1,1,1,1,1,0,0,0,0,0,0,0,0,0,0,0,0,0,0,0,0],"id":5,"left_children":[1,3,5,7,9,11,13,15,17,19,21,23,25,27,29,-1,-1,-1,-1,-1,-1,-1,-1,-1,-1,-1,-1,-1,-1,-1,-1],"loss_changes":[1.1967678E4,1.793749E3,6.3388525E3,3.590381E2,3.3147644E2,3.493124E3,9.613867E1,2.9801917E2,2.63458E2,8.317975E1,1.8574829E0,1.3442634E3,2.7573252E3,4.9546875E1,6.266485E1,0E0,0E0,0E0,0E0,0E0,0E0,0E0,0E0,0E0,0E0,0E0,0E0,0E0,0E0,0E0,0E0],"parents":[2147483647,0,0,1,1,2,2,3,3,4,4,5,5,6,6,7,7,8,8,9,9,10,10,11,11,12,12,13,13,14,14],"right_children":[2,4,6,8,10,12,14,16,18,20,22,24,26,28,30,-1,-1,-1,-1,-1,-1,-1,-1,-1,-1,-1,-1,-1,-1,-1,-1],"split_conditions":[3.064849E0,-5.2263594E-1,-5.808383E-1,1.2597835E-1,-3.3300608E-1,-9.302318E-1,5.1788395E1,6.15615E1,2.7277042E1,5.2733356E1,-3.0738884E-1,1.18636055E2,4.0136776E0,-4.6089485E-1,-1.1157892E0,-9.013554E-3,-1.5087103E0,1.18489504E-1,2.761568E-1,-2.6067328E-1,4.785614E-2,-2.005423E-1,-3.316893E-1,-3.484884E-1,-9.512867E-2,1.268132E-1,-2.528688E-1,-2.602191E-1,-3.3273566E-1,3.6951464E-1,-1.6411635E-1],"split_indices":[25,26,26,15,26,26,12,11,12,8,26,3,25,26,21,0,0,0,0,0,0,0,0,0,0,0,0,0,0,0,0],"split_type":[0,0,0,0,0,0,0,0,0,0,0,0,0,0,0,0,0,0,0,0,0,0,0,0,0,0,0,0,0,0,0],"sum_hessian":[4.8292035E4,1.4119359E4,3.4172676E4,1.3009214E4,1.1101458E3,2.5467703E4,8.704974E3,5.2207508E1,1.2957007E4,6.3996356E2,4.7018222E2,1.1099667E4,1.4368036E4,8.549195E3,1.5577861E2,3.514833E1,1.7059174E1,1.0391018E3,1.1917904E4,9.076034E1,5.4920325E2,1.5532562E1,4.5464966E2,2.405937E3,8.69373E3,1.2369271E4,1.9987638E3,9.7941486E2,7.5697803E3,2.2260384E1,1.3351823E2],"tree_param":{"num_deleted":"0","num_feature":"29","num_nodes":"31","size_leaf_vector":"0"}},{"base_weights":[-1.0246949E-2,2.6527894E-1,-7.108628E-1,-8.824141E-1,3.8961363E-1,-3.5570097E-1,-1.063591E0,-1.002762E0,-5.099044E-1,-2.8237405E-1,5.4165626E-1,-7.135701E-1,2.1060899E-1,-8.851684E-1,-1.1234229E0,-4.5509642E-1,-1.0200614E0,-7.834271E-1,4.1130048E-1,3.682641E-1,-5.832172E-1,5.857191E-1,-2.1111648E0,7.7024555E-1,-7.6484865E-1,3.413569E-1,-1.5450599E0,4.4322053E-1,-9.229378E-1,-1.3621488E0,-1.0826737E0],"categories":[],"categories_nodes":[],"categories_segments":[],"categories_sizes":[],"default_left":[1,1,1,1,1,1,1,1,1,1,1,1,1,1,1,0,0,0,0,0,0,0,0,0,0,0,0,0,0,0,0],"id":6,"left_children":[1,3,5,7,9,11,13,15,17,19,21,23,25,27,29,-1,-1,-1,-1,-1,-1,-1,-1,-1,-1,-1,-1,-1,-1,-1,-1],"loss_changes":[8.240123E3,4.3723115E3,1.5090312E3,1.3375757E2,2.8245479E3,1.2171829E3,6.3533203E1,2.0972656E1,1.8510948E2,9.987345E2,2.6363804E3,2.805929E2,5.3449316E2,7.6804565E1,4.2523926E1,0E0,0E0,0E0,0E0,0E0,0E0,0E0,0E0,0E0,0E0,0E0,0E0,0E0,0E0,0E0,0E0],"parents":[2147483647,0,0,1,1,2,2,3,3,4,4,5,5,6,6,7,7,8,8,9,9,10,10,11,11,12,12,13,13,14,14],"right_children":[2,4,6,8,10,12,14,16,18,20,22,24,26,28,30,-1,-1,-1,-1,-1,-1,-1,-1,-1,-1,-1,-1,-1,-1,-1,-1],"split_conditions":[9.390197E-1,-9.9784535E-1,5.6215454E1,-9.993031E-1,4.841904E1,2.1183924E1,6.8671326E1,5.2737453E1,7.566558E-1,3.0112453E0,1.2294653E2,-3.3448455E0,1.2037154E2,-3.2974224E0,-6.5264696E-1,-1.3652894E-1,-3.060184E-1,-2.3502815E-1,1.23390146E-1,1.10479236E-1,-1.7496517E-1,1.7571574E-1,-6.333495E-1,2.3107368E-1,-2.294546E-1,1.02407075E-1,-4.63518E-1,1.3296616E-1,-2.7688137E-1,-4.0864465E-1,-3.248021E-1],"split_indices":[4,26,2,26,28,19,2,28,22,25,28,24,28,24,26,0,0,0,0,0,0,0,0,0,0,0,0,0,0,0,0],"split_type":[0,0,0,0,0,0,0,0,0,0,0,0,0,0,0,0,0,0,0,0,0,0,0,0,0,0,0,0,0,0,0],"sum_hessian":[4.2684598E4,3.0636887E4,1.2047714E4,2.9940151E3,2.7642871E4,6.0041484E3,6.043565E3,2.2616465E3,7.323685E2,5.100254E3,2.2542617E4,3.6790073E3,2.325141E3,1.5216606E3,4.5219043E3,7.008858E1,2.1915579E3,5.648143E2,1.6755426E2,1.6125479E3,3.487706E3,2.2175072E4,3.6754468E2,1.2242572E2,3.5565815E3,2.1647349E3,1.6040623E2,4.1771706E1,1.4798889E3,6.545937E2,3.8673108E3],"tree_param":{"num_deleted":"0","num_feature":"29","num_nodes":"31","size_leaf_vector":"0"}},{"base_weights":[-1.2774022E-2,1.5857613E-1,-9.3562746E-1,6.7192864E-1,-1.1778844E-1,-3.546018E-1,-1.0209932E0,2.490495E-1,7.5844854E-1,-3.763845E-2,-1.2990798E0,-1.0095865E-1,-1.0443846E0,-7.6305497E-1,-1.0612646E0,4.717675E-1,-3.0600566E-1,8.1831276E-1,2.2511522E-1,-4.5533058E-1,1.7391524E-1,-1.0309447E0,-1.5530965E0,-1.5695993E-2,-1.7352659E0,-5.823487E-1,-1.0649612E0,-9.301465E-1,-1.4830473E-1,-9.54408E-1,-1.0651808E0],"categories":[],"categories_nodes":[],"categories_segments":[],"categories_sizes":[],"default_left":[1,1,1,1,1,1,1,1,1,1,1,1,1,1,1,0,0,0,0,0,0,0,0,0,0,0,0,0,0,0,0],"id":7,"left_children":[1,3,5,7,9,11,13,15,17,19,21,23,25,27,29,-1,-1,-1,-1,-1,-1,-1,-1,-1,-1,-1,-1,-1,-1,-1,-1],"loss_changes":[6.0652026E3,4.5895396E3,2.9755322E2,4.1401318E2,1.991018E3,1.3478088E2,5.3583984E1,2.3802866E2,2.9985742E2,1.7403422E3,8.94043E1,7.867402E1,1.3493958E0,7.286575E1,8.774414E-1,0E0,0E0,0E0,0E0,0E0,0E0,0E0,0E0,0E0,0E0,0E0,0E0,0E0,0E0,0E0,0E0],"parents":[2147483647,0,0,1,1,2,2,3,3,4,4,5,5,6,6,7,7,8,8,9,9,10,10,11,11,12,12,13,13,14,14],"right_children":[2,4,6,8,10,12,14,16,18,20,22,24,26,28,30,-1,-1,-1,-1,-1,-1,-1,-1,-1,-1,-1,-1,-1,-1,-1,-1],"split_conditions":[-5.2615273E-1,3.1238253E0,2.9444182E0,4.9629074E1,9.1404755E1,-3.3032644E-1,-4.0658128E-1,3.022639E0,-6.758344E-1,-3.081296E0,-9.9056137E-1,7.562253E1,-3.072271E-1,3.881952E1,-3.7349364E-1,1.4153025E-1,-9.18017E-2,2.4549384E-1,6.753457E-2,-1.3659918E-1,5.2174572E-2,-3.0928344E-1,-4.6592897E-1,-4.708798E-3,-5.2057976E-1,-1.7470461E-1,-3.1948838E-1,-2.7904397E-1,-4.449142E-2,-2.863224E-1,-3.1955424E-1],"split_indices":[26,25,25,28,13,26,26,25,26,24,26,2,26,12,26,0,0,0,0,0,0,0,0,0,0,0,0,0,0,0,0],"split_type":[0,0,0,0,0,0,0,0,0,0,0,0,0,0,0,0,0,0,0,0,0,0,0,0,0,0,0,0,0,0,0],"sum_hessian":[3.83536E4,3.2348201E4,6.005401E3,1.1319878E4,2.1028322E4,7.699612E2,5.23544E3,1.9233068E3,9.396571E3,1.9693184E4,1.3351401E3,5.637927E2,2.0616843E2,7.097088E2,4.525731E3,1.3726685E3,5.5063837E2,8.44781E3,9.487619E2,6.6204995E3,1.3072684E4,6.519805E2,6.831596E2,5.3679736E2,2.6995396E1,1.0039487E1,1.9612894E2,5.5762976E2,1.5207903E2,1.6864897E2,4.357082E3],"tree_param":{"num_deleted":"0","num_feature":"29","num_nodes":"31","size_leaf_vector":"0"}},{"base_weights":[-1.1257175E-2,1.2337375E-1,-8.7816787E-1,5.830927E-1,-8.211171E-2,-4.391014E-1,-1.0334951E0,6.105392E-1,-8.6219794E-1,1.6176544E-1,-5.429527E-1,-9.0589315E-1,-5.7585735E-2,-1.0414844E0,-5.486389E-1,-3.2677117E-1,6.4942586E-1,-2.567257E0,-5.895949E-1,-3.6033598E-1,8.1255496E-1,-1.0995946E0,6.58459E-1,-5.850876E-1,-1.0234702E0,-3.320746E-1,6.39417E-1,-8.999433E-1,-1.0472715E0,5.927518E-1,-9.1024464E-1],"categories":[],"categories_nodes":[],"categories_segments":[],"categories_sizes":[],"default_left":[1,1,1,1,1,1,1,1,1,1,1,1,1,1,1,0,0,0,0,0,0,0,0,0,0,0,0,0,0,0,0],"id":8,"left_children":[1,3,5,7,9,11,13,15,17,19,21,23,25,27,29,-1,-1,-1,-1,-1,-1,-1,-1,-1,-1,-1,-1,-1,-1,-1,-1],"loss_changes":[4.0935857E3,2.867952E3,3.2108862E2,3.7254517E2,2.3582234E3,2.1967398E2,1.2916504E1,3.3569043E2,7.991617E1,4.662612E3,4.8567793E3,2.0328644E1,1.3030652E2,1.8625488E0,2.470852E1,0E0,0E0,0E0,0E0,0E0,0E0,0E0,0E0,0E0,0E0,0E0,0E0,0E0,0E0,0E0,0E0],"parents":[2147483647,0,0,1,1,2,2,3,3,4,4,5,5,6,6,7,7,8,8,9,9,10,10,11,11,12,12,13,13,14,14],"right_children":[2,4,6,8,10,12,14,16,18,20,22,24,26,28,30,-1,-1,-1,-1,-1,-1,-1,-1,-1,-1,-1,-1,-1,-1,-1,-1],"split_conditions":[-5.249449E-1,3.1184857E0,-3.729204E-1,7.262463E1,3.079211E0,1.5674376E1,4.910511E1,3.7507694E1,5.6183723E1,-3.0406737E0,3.2044864E0,3.403547E0,4.2326126E1,2.8790483E0,-3.4918398E-1,-9.803136E-2,1.9482777E-1,-7.701771E-1,-1.7687848E-1,-1.08100794E-1,2.437665E-1,-3.298784E-1,1.975377E-1,-1.7552629E-1,-3.0704105E-1,-9.962239E-2,1.918251E-1,-2.69983E-1,-3.1418145E-1,1.7782554E-1,-2.730734E-1],"split_indices":[26,25,26,2,24,1,1,8,12,24,24,25,18,25,26,0,0,0,0,0,0,0,0,0,0,0,0,0,0,0,0],"split_type":[0,0,0,0,0,0,0,0,0,0,0,0,0,0,0,0,0,0,0,0,0,0,0,0,0,0,0,0,0,0,0],"sum_hessian":[3.5072027E4,3.0358256E4,4.713769E3,9.377271E3,2.0980984E4,1.2328041E3,3.4809648E3,9.20308E3,1.741916E2,1.3720658E4,7.260326E3,5.5382007E2,6.78984E2,3.4234065E3,5.75583E1,3.6630838E2,8.836771E3,2.2850471E1,1.5134114E2,7.6132837E3,6.107375E3,4.961591E3,2.298735E3,1.5014098E2,4.036791E2,4.8751694E2,1.9146704E2,1.4062065E2,3.282786E3,1.3694158E1,4.3864143E1],"tree_param":{"num_deleted":"0","num_feature":"29","num_nodes":"31","size_leaf_vector":"0"}},{"base_weights":[-9.752926E-3,9.928117E-2,-9.2434376E-1,-1.9513218E-1,3.6037657E-1,-5.253662E-1,-1.0434511E0,8.3768135E-1,-3.0278534E-1,4.0711343E-1,-1.1379263E0,-3.237574E-2,-1.112989E0,-4.5413688E-1,-1.0584694E0,-2.0889638E-1,1.0215299E0,-8.3689857E-1,-9.1950126E-2,-7.8653806E-1,4.540211E-1,-1.5611625E0,-3.8304546E-1,-2.2974532E0,1.2273326E-2,-1.1911296E0,1.527191E-1,5.507712E-1,-8.7566423E-1,-1.03087E0,-1.3510861E0],"categories":[],"categories_nodes":[],"categories_segments":[],"categories_sizes":[],"default_left":[1,1,1,1,1,1,1,1,1,1,1,1,1,1,1,0,0,0,0,0,0,0,0,0,0,0,0,0,0,0,0],"id":9,"left_children":[1,3,5,7,9,11,13,15,17,19,21,23,25,27,29,-1,-1,-1,-1,-1,-1,-1,-1,-1,-1,-1,-1,-1,-1,-1,-1],"loss_changes":[3.1662844E3,2.1808142E3,1.6017139E2,1.4828606E3,1.0533557E3,2.2579309E2,2.2562012E1,2.4245276E2,1.3598624E3,8.1680396E2,1.4479962E2,4.3003662E1,3.5352966E1,2.8631144E1,1.9104736E1,0E0,0E0,0E0,0E0,0E0,0E0,0E0,0E0,0E0,0E0,0E0,0E0,0E0,0E0,0E0,0E0],"parents":[2147483647,0,0,1,1,2,2,3,3,4,4,5,5,6,6,7,7,8,8,9,9,10,10,11,11,12,12,13,13,14,14],"right_children":[2,4,6,8,10,12,14,16,18,20,22,24,26,28,30,-1,-1,-1,-1,-1,-1,-1,-1,-1,-1,-1,-1,-1,-1,-1,-1],"split_conditions":[6.9376E1,1.9520575E1,7.304094E-1,-3.2511086E0,1.2119937E2,9.28775E1,-3.3248463E0,6.2617407E0,-3.0857854E0,-9.991424E-1,4.6739616E1,1.3565013E-1,2.5E0,-8.3472735E-1,5.185997E1,-6.266892E-2,3.0645898E-1,-2.5106958E-1,-2.7585039E-2,-2.3596142E-1,1.3620633E-1,-4.6834877E-1,-1.1491364E-1,-6.89236E-1,3.6819978E-3,-3.5733888E-1,4.581573E-2,1.6523136E-1,-2.6269928E-1,-3.09261E-1,-4.0532586E-1],"split_indices":[2,1,4,24,28,11,24,19,24,26,6,15,23,26,12,0,0,0,0,0,0,0,0,0,0,0,0,0,0,0,0],"split_type":[0,0,0,0,0,0,0,0,0,0,0,0,0,0,0,0,0,0,0,0,0,0,0,0,0,0,0,0,0,0,0],"sum_hessian":[3.1749322E4,2.8368258E4,3.381066E3,1.33335205E4,1.5034736E4,7.785481E2,2.6025178E3,1.2579634E3,1.2075557E4,1.4580647E4,4.5408887E2,4.2393762E2,3.5461047E2,6.545209E1,2.5370657E3,1.8794273E2,1.0700206E3,3.4167817E3,8.658775E3,5.507229E2,1.4029925E4,2.90274E2,1.6381488E2,7.219736E0,4.1671786E2,3.3404648E2,2.0564014E1,1.9251207E1,4.6200882E1,2.3225286E3,2.1453712E2],"tree_param":{"num_deleted":"0","num_feature":"29","num_nodes":"31","size_leaf_vector":"0"}},{"base_weights":[-9.880404E-3,7.331383E-2,-9.984191E-1,2.501381E-1,-3.3790895E-1,-6.844046E-1,-1.0268732E0,2.918998E-1,-9.5596427E-1,7.429464E-1,-4.2749456E-1,-1.6909222E-1,-9.552041E-1,-5.7204753E-2,-1.0273299E0,7.8351396E-1,2.0351845E-1,-1.1662046E0,1.6613038E-1,8.3047646E-1,-1.0150294E0,-8.509865E-1,-2.4606875E-1,2.0365784E-2,-8.5400397E-1,-9.75555E-1,1.2413095E-1,-3.421553E-1,-1.0277774E0],"categories":[],"categories_nodes":[],"categories_segments":[],"categories_sizes":[],"default_left":[1,1,1,1,1,1,1,1,1,1,1,1,1,0,1,0,0,0,0,0,0,0,0,0,0,0,0,0,0],"id":10,"left_children":[1,3,5,7,9,11,13,15,17,19,21,23,25,-1,27,-1,-1,-1,-1,-1,-1,-1,-1,-1,-1,-1,-1,-1,-1],"loss_changes":[2.4335984E3,1.9847616E3,1.982129E1,9.616953E2,7.9506464E2,2.6889336E1,8.730469E-1,8.014614E2,1.5094617E2,9.7566986E1,5.8219116E2,8.840167E0,2.907547E0,0E0,2.9296875E-1,0E0,0E0,0E0,0E0,0E0,0E0,0E0,0E0,0E0,0E0,0E0,0E0,0E0,0E0],"parents":[2147483647,0,0,1,1,2,2,3,3,4,4,5,5,6,6,7,7,8,8,9,9,10,10,11,11,12,12,14,14],"right_children":[2,4,6,8,10,12,14,16,18,20,22,24,26,-1,28,-1,-1,-1,-1,-1,-1,-1,-1,-1,-1,-1,-1,-1,-1],"split_conditions":[-3.84063E-1,3.5020761E0,-3.3301497E-1,1.2020055E2,-3.3006365E0,3.0315523E0,9.849654E-3,-3.1984906E0,1.3680484E0,9.962602E-1,-3.0584135E0,1.3700178E0,4.6610966E1,-1.7161427E-2,-5.1450167E0,2.350542E-1,6.1055537E-2,-3.4986138E-1,4.9839117E-2,2.4914294E-1,-3.0450884E-1,-2.5529596E-1,-7.382063E-2,6.1097355E-3,-2.562012E-1,-2.9266652E-1,3.7239287E-2,-1.026466E-1,-3.0833325E-1],"split_indices":[26,25,26,28,24,25,4,24,22,4,24,27,7,0,24,0,0,0,0,0,0,0,0,0,0,0,0,0,0],"split_type":[0,0,0,0,0,0,0,0,0,0,0,0,0,0,0,0,0,0,0,0,0,0,0,0,0,0,0,0,0],"sum_hessian":[2.9589268E4,2.7293229E4,2.2960398E3,1.9086498E4,8.206731E3,1.9284851E2,2.1031912E3,1.844847E4,6.3802673E2,6.275854E2,7.5791455E3,6.699197E1,1.2585655E2,1.0496502E0,2.1021416E3,2.8100317E3,1.5638439E4,5.37314E2,1.00712685E2,5.983224E2,2.9263021E1,2.2720166E3,5.3071294E3,5.3236206E1,1.3755756E1,1.2362181E2,2.234738E0,1.871619E0,2.10027E3],"tree_param":{"num_deleted":"0","num_feature":"29","num_nodes":"29","size_leaf_vector":"0"}},{"base_weights":[-1.0054495E-2,1.1039868E-1,-5.857206E-1,-1.4547923E-1,4.312642E-1,-3.7305364E-1,-1.0092899E0,-2.803384E-1,4.155849E-1,4.9470887E-1,-7.4423087E-1,-7.220281E-1,-1.1185023E-1,-8.2365185E-1,-1.0218064E0,5.0120604E-1,-3.6671114E-1,-4.9088022E-1,6.5598536E-1,4.9339388E-2,6.117474E-1,-1.1243908E0,-4.3731662E-3,-4.1752097E-1,-1.0327224E0,-3.599722E-1,2.9515493E-1,-1.4348698E-1,-9.742429E-1],"categories":[],"categories_nodes":[],"categories_segments":[],"categories_sizes":[],"default_left":[1,1,1,1,1,1,1,1,1,1,1,1,1,1,0,0,0,0,0,0,0,0,0,0,0,0,0,0,0],"id":11,"left_children":[1,3,5,7,9,11,13,15,17,19,21,23,25,27,-1,-1,-1,-1,-1,-1,-1,-1,-1,-1,-1,-1,-1,-1,-1],"loss_changes":[1.9358724E3,1.8955986E3,4.3478113E2,9.72046E2,7.642971E2,2.9322113E2,2.9089355E0,6.9929846E2,5.4284424E2,5.0659155E2,1.4764288E2,1.2986688E2,1.8606813E2,1.0831734E1,0E0,0E0,0E0,0E0,0E0,0E0,0E0,0E0,0E0,0E0,0E0,0E0,0E0,0E0,0E0],"parents":[2147483647,0,0,1,1,2,2,3,3,4,4,5,5,6,6,7,7,8,8,9,9,10,10,11,11,12,12,13,13],"right_children":[2,4,6,8,10,12,14,16,18,20,22,24,26,28,-1,-1,-1,-1,-1,-1,-1,-1,-1,-1,-1,-1,-1,-1,-1],"split_conditions":[-6.771921E-1,-8.540001E-1,-3.492419E-1,1.0742135E0,6.518337E1,3.072913E1,2.857235E0,-3.2220368E0,5.789631E0,6.1743427E1,1.3931012E2,3.627137E0,4.0770126E1,-3.072271E-1,-3.0654192E-1,1.5036182E-1,-1.1001334E-1,-1.4726408E-1,1.9679561E-1,1.4801817E-2,1.8352422E-1,-3.3731726E-1,-1.3119499E-3,-1.252563E-1,-3.0981672E-1,-1.07991666E-1,8.8546485E-2,-4.3046094E-2,-2.922729E-1],"split_indices":[26,26,26,22,2,12,25,24,1,8,3,25,18,26,0,0,0,0,0,0,0,0,0,0,0,0,0,0,0],"split_type":[0,0,0,0,0,0,0,0,0,0,0,0,0,0,0,0,0,0,0,0,0,0,0,0,0,0,0,0,0],"sum_hessian":[2.7916295E4,2.3086459E4,4.829835E3,1.2844229E4,1.0242231E4,3.216677E3,1.613158E3,1.0355619E4,2.4886094E3,9.718288E3,5.2394336E2,1.3762318E3,1.8404452E3,1.06115814E2,1.5070422E3,1.030085E3,9.325534E3,5.2143195E2,1.9671774E3,2.0226959E3,7.6955923E3,3.4576154E2,1.7818185E2,6.962201E2,6.800117E2,1.1434692E3,6.9697595E2,1.9589592E1,8.6526215E1],"tree_param":{"num_deleted":"0","num_feature":"29","num_nodes":"29","size_leaf_vector":"0"}},{"base_weights":[-7.559389E-3,1.5343837E-1,-3.2589632E-1,-2.4218233E-1,5.2707374E-1,-7.847569E-1,5.054135E-1,4.348213E-1,-6.974027E-1,6.3535506E-1,-1.8018128E-2,-3.0621463E-1,-8.794328E-1,-1.8566471E-1,6.383997E-1,-1.2815541E-1,6.606613E-1,-8.845197E-1,-8.379322E-2,-2.4007714E-1,6.908806E-1,-1.8764651E-1,4.4461614E-1,-8.1873673E-1,7.611841E-1,-1.042154E0,-3.824831E-1,-9.3252444E-1,2.6914686E-1,7.195069E-1,-5.129725E-2],"categories":[],"categories_nodes":[],"categories_segments":[],"categories_sizes":[],"default_left":[1,1,1,1,1,1,1,1,1,1,1,1,1,1,1,0,0,0,0,0,0,0,0,0,0,0,0,0,0,0,0],"id":12,"left_children":[1,3,5,7,9,11,13,15,17,19,21,23,25,27,29,-1,-1,-1,-1,-1,-1,-1,-1,-1,-1,-1,-1,-1,-1,-1,-1],"loss_changes":[1.3468495E3,2.5799402E3,3.367345E3,2.612982E3,5.298059E2,2.5742114E2,2.8868408E2,4.3352795E2,5.81989E2,3.6417285E2,1.16897934E2,5.153845E2,3.835266E2,1.7263232E2,1.4734668E2,0E0,0E0,0E0,0E0,0E0,0E0,0E0,0E0,0E0,0E0,0E0,0E0,0E0,0E0,0E0,0E0],"parents":[2147483647,0,0,1,1,2,2,3,3,4,4,5,5,6,6,7,7,8,8,9,9,10,10,11,11,12,12,13,13,14,14],"right_children":[2,4,6,8,10,12,14,16,18,20,22,24,26,28,30,-1,-1,-1,-1,-1,-1,-1,-1,-1,-1,-1,-1,-1,-1,-1,-1],"split_conditions":[3.0526476E0,-3.0301948E0,3.2310486E0,-3.1931043E0,-6.839555E-1,3.103726E0,7.411496E0,5.364186E1,-3.1049545E0,3.101873E1,3.0946035E0,2.0117E1,3.171578E0,3.3495758E0,-6.512016E-1,-3.8446624E-2,1.981984E-1,-2.653559E-1,-2.5137968E-2,-7.2023146E-2,2.0726418E-1,-5.6293953E-2,1.3338485E-1,-2.4562103E-1,2.2835524E-1,-3.126462E-1,-1.1474493E-1,-2.7975735E-1,8.074406E-2,2.1585208E-1,-1.5389176E-2],"split_indices":[24,24,24,24,26,24,19,28,24,28,25,19,24,24,26,0,0,0,0,0,0,0,0,0,0,0,0,0,0,0,0],"split_type":[0,0,0,0,0,0,0,0,0,0,0,0,0,0,0,0,0,0,0,0,0,0,0,0,0,0,0,0,0,0,0],"sum_hessian":[2.6277227E4,1.745164E4,8.825587E3,8.476607E3,8.975033E3,5.686724E3,3.1388625E3,3.4081108E3,5.068496E3,7.4874937E3,1.4875397E3,9.3995013E2,4.7467744E3,5.064809E2,2.6323816E3,9.758735E2,2.4322373E3,3.8837317E3,1.1847646E3,4.4638168E2,7.041112E3,1.0888859E3,3.986539E2,6.351902E2,3.0475992E2,3.5750596E3,1.1717147E3,1.9129662E2,3.151843E2,2.3553528E3,2.7702872E2],"tree_param":{"num_deleted":"0","num_feature":"29","num_nodes":"31","size_leaf_vector":"0"}},{"base_weights":[-4.516581E-3,4.0690303E-2,-9.653609E-1,1.208422E-1,-4.4060305E-1,-5.818013E-1,-1.0117708E0,1.4661153E-1,-1.3418573E0,-7.851386E-1,-1.83896E-1,-4.6154678E-2,-9.4560426E-1,1.140415E-1,-1.0131994E0,1.7820962E-1,-8.47923E-1,-1.0532097E0,-1.5191226E0,-5.816577E-1,-1.0220544E0,-3.689332E-2,-8.905562E-1,-2.95756E-1,4.414059E-1,-2.9426945E-2,-9.5876825E-1],"categories":[],"categories_nodes":[],"categories_segments":[],"categories_sizes":[],"default_left":[1,1,1,1,1,1,1,1,1,1,1,1,1,0,0,0,0,0,0,0,0,0,0,0,0,0,0],"id":13,"left_children":[1,3,5,7,9,11,13,15,17,19,21,23,25,-1,-1,-1,-1,-1,-1,-1,-1,-1,-1,-1,-1,-1,-1],"loss_changes":[1.046875E3,8.880178E2,1.8689453E1,7.439861E2,2.9051117E2,2.3194172E1,1.6672363E0,6.095587E2,1.5885315E1,6.703223E1,1.9572902E2,6.1281843E0,8.2764816E-1,0E0,0E0,0E0,0E0,0E0,0E0,0E0,0E0,0E0,0E0,0E0,0E0,0E0,0E0],"parents":[2147483647,0,0,1,1,2,2,3,3,4,4,5,5,6,6,7,7,8,8,9,9,10,10,11,11,12,12],"right_children":[2,4,6,8,10,12,14,16,18,20,22,24,26,-1,-1,-1,-1,-1,-1,-1,-1,-1,-1,-1,-1,-1,-1],"split_conditions":[-3.729204E-1,3.894868E0,2.9584074E0,1.2395729E2,6.0466553E1,-3.072271E-1,2.4516106E-1,9.207458E1,-9.8318624E-1,2.9113076E0,9.966966E-1,4.825734E1,1.1724999E2,3.421245E-2,-3.0395985E-1,5.346289E-2,-2.5437692E-1,-3.159629E-1,-4.557368E-1,-1.7449732E-1,-3.0661634E-1,-1.1067996E-2,-2.6716688E-1,-8.87268E-2,1.3242178E-1,-8.828084E-3,-2.876305E-1],"split_indices":[26,25,25,28,28,26,4,11,26,24,4,12,3,0,0,0,0,0,0,0,0,0,0,0,0,0,0],"split_type":[0,0,0,0,0,0,0,0,0,0,0,0,0,0,0,0,0,0,0,0,0,0,0,0,0,0,0],"sum_hessian":[2.4099215E4,2.3017232E4,1.081983E3,1.9731936E4,3.285297E3,1.1824789E2,9.637351E2,1.9391207E4,3.4072778E2,1.4018143E3,1.8834829E3,4.8283848E1,6.9964035E1,1.1215729E0,9.626135E2,1.8794883E4,5.963252E2,1.3227728E2,2.0845052E2,7.559788E2,6.4583545E2,1.5600139E3,3.2346902E2,3.219524E1,1.6088608E1,1.0368613E0,6.892718E1],"tree_param":{"num_deleted":"0","num_feature":"29","num_nodes":"27","size_leaf_vector":"0"}},{"base_weights":[-6.763908E-3,3.1701755E-2,-8.743228E-1,1.540359E-1,-2.1991888E-1,-5.9694475E-1,-9.8986155E-1,-1.6279507E-1,4.1804454E-1,-6.7634964E-1,3.346466E-1,-8.832907E-1,-2.630731E-1,-5.145951E-1,-1.0178311E0,3.4602216E-1,-6.1861485E-1,-1.7973012E-1,5.130969E-1,-2.0394698E-1,-8.1043535E-1,-2.310775E-1,5.365413E-1,6.3186415E-2,-1.001993E0,-4.437847E-1,3.447234E-1,3.6938348E-1,-9.3209445E-1,-1.4245864E0,-9.938141E-1],"categories":[],"categories_nodes":[],"categories_segments":[],"categories_sizes":[],"default_left":[1,1,1,1,1,1,1,1,1,1,1,1,1,1,1,0,0,0,0,0,0,0,0,0,0,0,0,0,0,0,0],"id":14,"left_children":[1,3,5,7,9,11,13,15,17,19,21,23,25,27,29,-1,-1,-1,-1,-1,-1,-1,-1,-1,-1,-1,-1,-1,-1,-1,-1],"loss_changes":[7.7292413E2,6.827197E2,3.0922668E1,1.2483625E3,1.8367986E3,2.7652145E1,8.683777E0,1.5735963E3,4.626416E2,2.5195898E2,3.743413E2,1.7655602E1,1.5099936E1,1.5298624E1,4.9647217E0,0E0,0E0,0E0,0E0,0E0,0E0,0E0,0E0,0E0,0E0,0E0,0E0,0E0,0E0,0E0,0E0],"parents":[2147483647,0,0,1,1,2,2,3,3,4,4,5,5,6,6,7,7,8,8,9,9,10,10,11,11,12,12,13,13,14,14],"right_children":[2,4,6,8,10,12,14,16,18,20,22,24,26,28,30,-1,-1,-1,-1,-1,-1,-1,-1,-1,-1,-1,-1,-1,-1,-1,-1],"split_conditions":[7.768813E1,3.0591836E0,8.270534E1,-3.067593E0,3.1864576E0,4.8198307E1,3.0116777E0,-3.180257E0,3.9031315E1,3.109754E0,5.088172E1,4.811639E0,4.472105E-1,-6.920451E-1,3.1044612E0,1.0380665E-1,-1.8558446E-1,-5.3919036E-2,1.5392908E-1,-6.1184097E-2,-2.4313061E-1,-6.932326E-2,1.6096239E-1,1.8955925E-2,-3.005979E-1,-1.3313542E-1,1.03417024E-1,1.1081505E-1,-2.7962834E-1,-4.2737594E-1,-2.9814425E-1],"split_indices":[2,24,2,24,24,7,25,24,28,24,28,19,21,26,25,0,0,0,0,0,0,0,0,0,0,0,0,0,0,0,0],"split_type":[0,0,0,0,0,0,0,0,0,0,0,0,0,0,0,0,0,0,0,0,0,0,0,0,0,0,0,0,0,0,0],"sum_hessian":[2.3159562E4,2.2177236E4,9.8232666E2,1.49225205E4,7.2547153E3,2.9067044E2,6.9165625E2,6.7828975E3,8.139623E3,3.9793352E3,3.2753801E3,1.5558606E2,1.350844E2,3.951998E1,6.521362E2,3.2052354E3,3.5776624E3,1.116593E3,7.02303E3,8.803303E2,3.099005E3,8.6143365E2,2.4139465E3,1.7390438E1,1.3819562E2,1.0433352E2,3.075087E1,1.2714533E1,2.6805449E1,3.310751E1,6.1902875E2],"tree_param":{"num_deleted":"0","num_feature":"29","num_nodes":"31","size_leaf_vector":"0"}},{"base_weights":[-5.1271566E-3,7.6133825E-2,-4.1490883E-1,1.15869425E-1,-7.495248E-1,-2.908295E-1,-9.9444544E-1,2.3623917E-2,4.4756833E-1,-1.254326E0,-8.132783E-2,-2.0419249E-1,-8.559585E-1,-1.808744E-1,-9.974324E-1,-9.337393E-2,3.2392168E-1,-4.5887092E-1,6.513658E-1,-1.0063895E0,-1.5784999E0,-9.926367E-1,2.5115857E-1,-3.7828028E-1,9.6248195E-2,-9.9276227E-1,1.0377098E0,-6.2960064E-1,4.7408634E-1,-4.66046E-2,-9.989605E-1],"categories":[],"categories_nodes":[],"categories_segments":[],"categories_sizes":[],"default_left":[1,1,1,1,1,1,1,1,1,1,1,1,1,1,1,0,0,0,0,0,0,0,0,0,0,0,0,0,0,0,0],"id":15,"left_children":[1,3,5,7,9,11,13,15,17,19,21,23,25,27,29,-1,-1,-1,-1,-1,-1,-1,-1,-1,-1,-1,-1,-1,-1,-1,-1],"loss_changes":[7.2068506E2,5.926378E2,2.5725623E2,5.272716E2,2.7967123E2,1.443286E2,1.3533936E0,4.7378433E2,6.929608E2,3.6381653E1,1.0872762E2,1.3395244E2,1.02583374E2,1.3360418E0,8.668213E-1,0E0,0E0,0E0,0E0,0E0,0E0,0E0,0E0,0E0,0E0,0E0,0E0,0E0,0E0,0E0,0E0],"parents":[2147483647,0,0,1,1,2,2,3,3,4,4,5,5,6,6,7,7,8,8,9,9,10,10,11,11,12,12,13,13,14,14],"right_children":[2,4,6,8,10,12,14,16,18,20,22,24,26,28,30,-1,-1,-1,-1,-1,-1,-1,-1,-1,-1,-1,-1,-1,-1,-1,-1],"split_conditions":[-6.8865407E-1,1.17710335E2,-3.3033186E-1,2.5E0,4.4344368E1,3.7306714E0,4.1109726E-2,-8.0156386E-1,6.867465E1,-9.600367E-1,1.0506253E2,3.6309994E1,2.3342915E1,1.0602213E0,-5.1450167E0,-2.801218E-2,9.717651E-2,-1.3766128E-1,1.9540976E-1,-3.0191687E-1,-4.7355E-1,-2.97791E-1,7.534757E-2,-1.1348409E-1,2.8874459E-2,-2.978287E-1,3.1131297E-1,-1.888802E-1,1.422259E-1,-1.39813805E-2,-2.9968816E-1],"split_indices":[26,28,26,23,2,25,4,26,28,26,3,18,1,15,24,0,0,0,0,0,0,0,0,0,0,0,0,0,0,0,0],"split_type":[0,0,0,0,0,0,0,0,0,0,0,0,0,0,0,0,0,0,0,0,0,0,0,0,0,0,0,0,0,0,0],"sum_hessian":[2.1640725E4,1.8060154E4,3.5805708E3,1.723172E4,8.2843304E2,2.9503914E3,6.301795E2,1.3483132E4,3.7485894E3,4.7141617E2,3.5701688E2,2.5593862E3,3.9100507E2,2.5303285E0,6.276492E2,9.70334E3,3.7797917E3,6.878696E2,3.0607197E3,2.6944345E2,2.0197273E2,9.490557E1,2.621113E2,1.6202734E3,9.391128E2,3.6510468E2,2.5900404E1,1.52455E0,1.0057784E0,1.0576332E0,6.2659155E2],"tree_param":{"num_deleted":"0","num_feature":"29","num_nodes":"31","size_leaf_vector":"0"}},{"base_weights":[-4.2643193E-3,1.9004358E-2,-9.6058416E-1,5.618395E-2,-5.500314E-1,-6.1007684E-1,-1.0033408E0,-1.6228553E0,6.68145E-2,-7.7404046E-1,-2.1855868E-1,-4.784039E-2,-8.645829E-1,6.759682E-2,-2.734588E0,1.5629855E-1,-1.3750494E-1,8.5984296E-1,-8.067674E-1,-8.9187413E-1,-5.8018237E-2,1.3125603E0,-2.8552002E-1,-3.134074E-1,-9.875734E-1],"categories":[],"categories_nodes":[],"categories_segments":[],"categories_sizes":[],"default_left":[1,1,1,1,1,1,0,1,1,1,1,1,1,0,0,0,0,0,0,0,0,0,0,0,0],"id":16,"left_children":[1,3,5,7,9,11,-1,13,15,17,19,21,23,-1,-1,-1,-1,-1,-1,-1,-1,-1,-1,-1,-1],"loss_changes":[4.6592932E2,4.3249762E2,6.8416443E0,3.4260657E2,9.292691E1,8.061371E0,0E0,2.2714053E2,3.4866202E2,4.0678467E1,5.475226E1,6.4224424E0,2.3289833E0,0E0,0E0,0E0,0E0,0E0,0E0,0E0,0E0,0E0,0E0,0E0,0E0],"parents":[2147483647,0,0,1,1,2,2,3,3,4,4,5,5,7,7,8,8,9,9,10,10,11,11,12,12],"right_children":[2,4,6,8,10,12,-1,14,16,18,20,22,24,-1,-1,-1,-1,-1,-1,-1,-1,-1,-1,-1,-1],"split_conditions":[-3.492419E-1,4.2717285E0,2.857235E0,1.3460015E-1,7.15782E1,-3.072271E-1,-3.0100226E-1,4.5874634E1,3.0918446E0,-3.5451715E0,-9.990254E-1,3.330195E1,9.204248E0,2.0279048E-2,-8.203764E-1,4.6889566E-2,-4.125148E-2,2.579529E-1,-2.4203023E-1,-2.6756224E-1,-1.7405473E-2,3.937681E-1,-8.565601E-2,-9.402222E-2,-2.9627204E-1],"split_indices":[26,25,25,15,28,26,0,11,24,24,26,28,20,0,0,0,0,0,0,0,0,0,0,0,0],"split_type":[0,0,0,0,0,0,0,0,0,0,0,0,0,0,0,0,0,0,0,0,0,0,0,0,0],"sum_hessian":[2.0936662E4,2.0440299E4,4.9636258E2,1.9187527E4,1.2527711E3,5.5625805E1,4.407368E2,1.1976408E2,1.9067764E4,7.4676965E2,5.060015E2,1.7703808E1,3.7921997E1,4.7887554E1,7.187652E1,1.32604375E4,5.8073267E3,1.4167909E1,7.3260175E2,9.654231E1,4.094592E2,1.9604481E0,1.5743359E1,7.565559E0,3.0356438E1],"tree_param":{"num_deleted":"0","num_feature":"29","num_nodes":"25","size_leaf_vector":"0"}},{"base_weights":[-4.3012914E-3,-5.6275092E-2,4.062953E-1,5.825942E-2,-4.7143903E-1,1.5197185E-1,5.820578E-1,-1.9879836E-1,2.5257388E-1,-6.41558E-1,-1.3688594E-1,2.8181896E-1,-4.5269325E-1,-3.4050298E-1,6.457123E-1,1.9015007E-1,-6.007449E-1,-2.2398949E-1,3.5138E-1,-7.199641E-1,-1.2602915E-1,-6.0049176E-1,5.781336E-1,-1.8663254E0,3.002618E-1,-3.6626488E-1,-2.04219E0,5.0350977E-3,-1.26936E0,6.793396E-1,-7.482799E-1],"categories":[],"categories_nodes":[],"categories_segments":[],"categories_sizes":[],"default_left":[1,1,1,1,1,1,1,1,1,1,1,1,1,1,1,0,0,0,0,0,0,0,0,0,0,0,0,0,0,0,0],"id":17,"left_children":[1,3,5,7,9,11,13,15,17,19,21,23,25,27,29,-1,-1,-1,-1,-1,-1,-1,-1,-1,-1,-1,-1,-1,-1,-1,-1],"loss_changes":[4.3787296E2,8.660718E2,1.0296625E2,7.131297E2,2.2405328E2,7.420685E1,8.025821E1,9.610009E2,3.8292633E2,1.0542517E2,4.4083075E2,3.1356869E1,2.2218609E1,2.8450788E1,6.0289856E1,0E0,0E0,0E0,0E0,0E0,0E0,0E0,0E0,0E0,0E0,0E0,0E0,0E0,0E0,0E0,0E0],"parents":[2147483647,0,0,1,1,2,2,3,3,4,4,5,5,6,6,7,7,8,8,9,9,10,10,11,11,12,12,13,13,14,14],"right_children":[2,4,6,8,10,12,14,16,18,20,22,24,26,28,30,-1,-1,-1,-1,-1,-1,-1,-1,-1,-1,-1,-1,-1,-1,-1,-1],"split_conditions":[3.2529535E0,3.09757E0,3.0877666E0,-3.0871572E0,3.1663857E0,4.0327168E0,2.9127739E1,-3.1749268E0,4.0810265E1,1.2243816E0,2.0051918E1,1.06420875E-1,5.463557E1,1.0577523E0,9.971605E-1,5.7045024E-2,-1.8022348E-1,-6.7196846E-2,1.05414E-1,-2.1598923E-1,-3.7808746E-2,-1.8014753E-1,1.7344008E-1,-5.5989766E-1,9.007854E-2,-1.0987947E-1,-6.1265707E-1,1.5105294E-3,-3.80808E-1,2.0380189E-1,-2.2448398E-1],"split_indices":[24,24,25,24,24,24,28,24,28,22,19,15,10,15,4,0,0,0,0,0,0,0,0,0,0,0,0,0,0,0,0],"split_type":[0,0,0,0,0,0,0,0,0,0,0,0,0,0,0,0,0,0,0,0,0,0,0,0,0,0,0,0,0,0,0],"sum_hessian":[2.0516557E4,1.821211E4,2.3044473E3,1.4274854E4,3.9372556E3,9.4251654E2,1.3619308E3,6.145274E3,8.12958E3,2.6094453E3,1.3278102E3,7.7633795E2,1.6617859E2,8.762412E1,1.2743066E3,3.1234026E3,3.0218713E3,1.3958456E3,6.7337344E3,2.2646248E3,3.448205E2,8.056205E2,5.221897E2,5.7555923E0,7.705824E2,1.5877565E2,7.4029446E0,6.459072E1,2.3033398E1,1.2447913E3,2.9515419E1],"tree_param":{"num_deleted":"0","num_feature":"29","num_nodes":"31","size_leaf_vector":"0"}},{"base_weights":[-3.248148E-3,5.867058E-2,-3.290295E-1,9.8306514E-2,-5.084746E-1,-2.5331458E-1,-9.7641987E-1,2.1752512E-1,-7.0215784E-2,-1.1526412E0,-4.9704416E-3,-1.8773925E-1,-7.9355645E-1,-3.4594517E-2,-9.8217344E-1,1.5994126E-1,6.0829705E-1,-3.306955E-1,6.785708E-2,-1.2852136E0,-3.325124E-1,-3.0759636E-1,7.913013E-1,-3.586002E-1,4.058289E-2,-9.264118E-1,9.1771513E-1,4.7484806E-1,-5.233273E-1,-2.2833567E-2,-9.851116E-1],"categories":[],"categories_nodes":[],"categories_segments":[],"categories_sizes":[],"default_left":[1,1,1,1,1,1,1,1,1,1,1,1,1,1,1,0,0,0,0,0,0,0,0,0,0,0,0,0,0,0,0],"id":18,"left_children":[1,3,5,7,9,11,13,15,17,19,21,23,25,27,29,-1,-1,-1,-1,-1,-1,-1,-1,-1,-1,-1,-1,-1,-1,-1,-1],"loss_changes":[3.9458322E2,3.6954218E2,1.52884E2,3.0869574E2,3.4828802E2,9.898425E1,1.7366943E0,2.0239075E2,2.289953E2,5.0795227E1,1.4572758E2,9.741388E1,6.9642944E1,1.000568E0,8.9282227E-1,0E0,0E0,0E0,0E0,0E0,0E0,0E0,0E0,0E0,0E0,0E0,0E0,0E0,0E0,0E0,0E0],"parents":[2147483647,0,0,1,1,2,2,3,3,4,4,5,5,6,6,7,7,8,8,9,9,10,10,11,11,12,12,13,13,14,14],"right_children":[2,4,6,8,10,12,14,16,18,20,22,24,26,28,30,-1,-1,-1,-1,-1,-1,-1,-1,-1,-1,-1,-1,-1,-1,-1,-1],"split_conditions":[-6.9065857E-1,1.14366005E2,-3.2819742E-1,3.3773317E0,4.149627E1,3.7306714E0,4.1109726E-2,1.2105589E0,5.732629E1,1.3551034E0,1.3010244E0,3.0958595E0,3.617977E1,7.474758E-1,-5.08809E0,4.798238E-2,1.8248913E-1,-9.920866E-2,2.0357125E-2,-3.855641E-1,-9.975373E-2,-9.227891E-2,2.373904E-1,-1.07580066E-1,1.2174868E-2,-2.7792355E-1,2.7531454E-1,1.4245443E-1,-1.5699819E-1,-6.8500703E-3,-2.9553348E-1],"split_indices":[26,28,26,25,2,25,4,22,28,22,22,25,12,22,24,0,0,0,0,0,0,0,0,0,0,0,0,0,0,0,0],"split_type":[0,0,0,0,0,0,0,0,0,0,0,0,0,0,0,0,0,0,0,0,0,0,0,0,0,0,0,0,0,0,0],"sum_hessian":[1.9559012E4,1.6435975E4,3.1230378E3,1.5363122E4,1.072852E3,2.7972761E3,3.2576157E2,8.997607E3,6.3655146E3,4.7011426E2,6.0273785E2,2.4956929E3,3.015832E2,2.0205767E0,3.23741E2,7.843242E3,1.154365E3,2.2047585E3,4.1607563E3,4.0420767E2,6.5906586E1,4.371943E2,1.6554355E2,1.4271439E3,1.0685491E3,2.80282E2,2.1301178E1,1.0032372E0,1.0173393E0,1.0152643E0,3.2272574E2],"tree_param":{"num_deleted":"0","num_feature":"29","num_nodes":"31","size_leaf_vector":"0"}},{"base_weights":[-2.9930887E-3,1.953376E-2,-7.2529346E-1,3.1682648E-2,-1.1336075E0,-4.9518973E-1,-9.6356744E-1,-9.365764E-2,1.2960008E-1,-1.2001101E0,-4.1952744E-1,-6.9336563E-1,-1.2337465E-1,-4.1169786E-1,-9.9291855E-1,5.9934568E-2,-3.880163E-1,3.3651806E-2,4.6477666E-1,-1.2130823E0,3.1375098E-1,2.4470207E-1,-1.2248803E0,-7.456196E-1,3.1931445E-1,-8.087289E-1,1.01362534E-1,8.536216E-1,-8.113541E-1,-1.863543E-2,-1.0048659E0],"categories":[],"categories_nodes":[],"categories_segments":[],"categories_sizes":[],"default_left":[1,1,1,1,1,1,1,1,1,1,1,1,1,1,1,0,0,0,0,0,0,0,0,0,0,0,0,0,0,0,0],"id":19,"left_children":[1,3,5,7,9,11,13,15,17,19,21,23,25,27,29,-1,-1,-1,-1,-1,-1,-1,-1,-1,-1,-1,-1,-1,-1,-1,-1],"loss_changes":[3.115261E2,2.6014798E2,3.127121E1,2.2552097E2,8.690201E0,2.177201E1,4.182068E0,3.6439417E2,3.3174554E2,3.8480988E0,9.945423E0,1.0466026E1,1.615468E1,8.794203E0,3.1054688E0,0E0,0E0,0E0,0E0,0E0,0E0,0E0,0E0,0E0,0E0,0E0,0E0,0E0,0E0,0E0,0E0],"parents":[2147483647,0,0,1,1,2,2,3,3,4,4,5,5,6,6,7,7,8,8,9,9,10,10,11,11,12,12,13,13,14,14],"right_children":[2,4,6,8,10,12,14,16,18,20,22,24,26,28,30,-1,-1,-1,-1,-1,-1,-1,-1,-1,-1,-1,-1,-1,-1,-1,-1],"split_conditions":[7.864455E1,1.2411897E2,8.70146E1,6.671922E1,1.5114927E0,6.6424965E1,2.9873314E0,1.0373633E0,1.1688473E0,8.2917694E1,1.269599E2,3.3638277E0,-9.9548936E-1,-7.361298E-1,-3.5140467E0,1.798037E-2,-1.164049E-1,1.0095542E-2,1.3943301E-1,-3.639247E-1,9.41253E-2,7.341062E-2,-3.6746413E-1,-2.2368589E-1,9.579434E-2,-2.4261867E-1,3.040876E-2,2.560865E-1,-2.4340624E-1,-5.590629E-3,-3.014598E-1],"split_indices":[2,28,2,28,22,7,25,15,22,18,28,24,26,26,24,0,0,0,0,0,0,0,0,0,0,0,0,0,0,0,0],"split_type":[0,0,0,0,0,0,0,0,0,0,0,0,0,0,0,0,0,0,0,0,0,0,0,0,0,0,0,0,0,0,0],"sum_hessian":[1.9144043E4,1.8565986E4,5.7805646E2,1.8373387E4,1.9259978E2,2.9563593E2,2.8242056E2,8.0583057E3,1.0315081E4,1.7556839E2,1.7031384E1,1.9228435E2,1.0335157E2,1.5020819E1,2.6739975E2,5.295819E3,2.7624873E3,8.0202812E3,2.2948E3,1.7427373E2,1.2946631E0,9.714953E0,7.3164306E0,1.8310014E2,9.184195E0,2.4879864E1,7.847171E1,3.3329005E0,1.1687918E1,3.2703269E0,2.6412943E2],"tree_param":{"num_deleted":"0","num_feature":"29","num_nodes":"31","size_leaf_vector":"0"}},{"base_weights":[-2.5110857E-3,1.2339511E-2,-8.637302E-1,-2.8605929E-2,3.2092553E-1,-4.9292326E-1,-1.4797024E0,5.7227183E-2,-4.065402E-1,1.0735447E-1,4.648008E-1,-8.969594E-1,-2.3855336E-1,-3.1709042E0,-1.3156443E0,-1.5372781E-1,1.9808628E-1,-5.5910724E-1,-8.051275E-2,1.8276873E-1,-5.3314114E-1,5.430478E-1,-1.7247815E-1,-3.4379724E-1,-1.1397414E0,-1.07519686E-1,-1.3640226E0,-3.9504097E0,6.1300975E-1,-1.352005E0,6.038965E-1],"categories":[],"categories_nodes":[],"categories_segments":[],"categories_sizes":[],"default_left":[1,1,1,1,1,1,1,1,1,1,1,1,1,1,1,0,0,0,0,0,0,0,0,0,0,0,0,0,0,0,0],"id":20,"left_children":[1,3,5,7,9,11,13,15,17,19,21,23,25,27,29,-1,-1,-1,-1,-1,-1,-1,-1,-1,-1,-1,-1,-1,-1,-1,-1],"loss_changes":[2.4192305E2,2.3496182E2,7.250816E1,5.326021E2,6.6886566E1,2.0510975E1,2.912033E1,3.9761734E2,1.5110214E2,4.2512756E1,6.4981445E1,1.002232E1,1.8303728E1,3.1626907E1,8.570068E0,0E0,0E0,0E0,0E0,0E0,0E0,0E0,0E0,0E0,0E0,0E0,0E0,0E0,0E0,0E0,0E0],"parents":[2147483647,0,0,1,1,2,2,3,3,4,4,5,5,6,6,7,7,8,8,9,9,10,10,11,11,12,12,13,13,14,14],"right_children":[2,4,6,8,10,12,14,16,18,20,22,24,26,28,30,-1,-1,-1,-1,-1,-1,-1,-1,-1,-1,-1,-1,-1,-1,-1,-1],"split_conditions":[1.8178352E0,3.2348697E0,1.7319238E0,3.1132832E0,3.0877666E0,3.0485674E1,3.1105275E0,-3.1024656E0,3.1699576E0,1.3525124E0,4.180546E0,8.1187785E-1,2.7544765E0,8.8108925E1,1.1179517E2,-4.6118345E-2,5.9425887E-2,-1.6773218E-1,-2.4153825E-2,5.4830622E-2,-1.5994234E-1,1.6291434E-1,-5.1743448E-2,-1.0313918E-1,-3.4192243E-1,-3.2255907E-2,-4.092068E-1,-1.185123E0,1.8390293E-1,-4.0560153E-1,1.8116896E-1],"split_indices":[22,24,15,24,25,12,25,24,24,27,25,15,22,28,28,0,0,0,0,0,0,0,0,0,0,0,0,0,0,0,0],"split_type":[0,0,0,0,0,0,0,0,0,0,0,0,0,0,0,0,0,0,0,0,0,0,0,0,0,0,0,0,0,0,0],"sum_hessian":[1.8913748E4,1.8594102E4,3.196453E2,1.6416719E4,2.1773826E3,2.0065433E2,1.1899097E2,1.3379038E4,3.0376814E3,8.771184E2,1.3002643E3,7.654521E1,1.2410912E2,8.90149E0,1.1008948E2,5.356654E3,8.0223843E3,2.068838E3,9.688435E2,7.8536176E2,9.175667E1,1.1582043E3,1.4205992E2,2.4085085E1,5.246013E1,1.1214776E2,1.1961361E1,7.3444877E0,1.557003E0,1.0833305E2,1.7564238E0],"tree_param":{"num_deleted":"0","num_feature":"29","num_nodes":"31","size_leaf_vector":"0"}},{"base_weights":[-1.9733834E-3,2.8652304E-1,-4.1436967E-2,-1.5147425E-1,4.9657318E-1,-4.175315E-1,4.3967426E-2,-5.454641E-1,8.3342105E-2,-1.3774888E-1,6.180507E-1,-1.1719986E-1,-5.537335E-1,1.7935774E-1,-1.0308227E-1,-4.5102647E-1,-1.8461694E0,1.4679915E-1,-1.502271E0,4.905551E-1,-7.1695954E-1,1.047678E0,5.332896E-1,-6.09097E-1,5.144278E-1,-3.9643717E-1,-8.3190215E-1,-7.6609746E-2,3.27535E-1,-2.8851277E-1,2.08396E-1],"categories":[],"categories_nodes":[],"categories_segments":[],"categories_sizes":[],"default_left":[1,1,1,1,1,1,1,1,1,1,1,1,1,1,1,0,0,0,0,0,0,0,0,0,0,0,0,0,0,0,0],"id":21,"left_children":[1,3,5,7,9,11,13,15,17,19,21,23,25,27,29,-1,-1,-1,-1,-1,-1,-1,-1,-1,-1,-1,-1,-1,-1,-1,-1],"loss_changes":[2.1023529E2,2.0450244E2,5.2177045E2,6.674699E1,1.1582483E2,1.2290393E2,2.6358774E2,3.2255417E1,4.5761353E1,8.850547E1,4.535385E1,2.921222E2,9.015259E1,2.6146402E2,3.6662997E2,0E0,0E0,0E0,0E0,0E0,0E0,0E0,0E0,0E0,0E0,0E0,0E0,0E0,0E0,0E0,0E0],"parents":[2147483647,0,0,1,1,2,2,3,3,4,4,5,5,6,6,7,7,8,8,9,9,10,10,11,11,12,12,13,13,14,14],"right_children":[2,4,6,8,10,12,14,16,18,20,22,24,26,28,30,-1,-1,-1,-1,-1,-1,-1,-1,-1,-1,-1,-1,-1,-1,-1,-1],"split_conditions":[-3.227694E0,3.0978417E0,-3.112342E0,4.046215E1,1.6009052E1,-3.1683946E0,3.0150955E0,-3.28309E0,8.123934E-1,-3.4057171E0,9.483364E0,1.8253141E1,1.0469905E2,3.095874E0,3.2093205E0,-1.3530795E-1,-5.538508E-1,4.4039745E-2,-4.5068133E-1,1.4716654E-1,-2.1508788E-1,3.143034E-1,1.5998688E-1,-1.8272911E-1,1.5432835E-1,-1.1893115E-1,-2.4957065E-1,-2.2982925E-2,9.826051E-2,-8.6553834E-2,6.2518805E-2],"split_indices":[24,25,24,12,12,24,24,24,14,24,1,19,8,25,24,0,0,0,0,0,0,0,0,0,0,0,0,0,0,0,0],"split_type":[0,0,0,0,0,0,0,0,0,0,0,0,0,0,0,0,0,0,0,0,0,0,0,0,0,0,0,0,0,0,0],"sum_hessian":[1.8463777E4,2.2210017E3,1.6242776E4,7.199786E2,1.5010232E3,3.0051475E3,1.3237629E4,2.6836902E2,4.516096E2,2.4123366E2,1.2597896E3,9.3821075E2,2.0669368E3,6.891931E3,6.3456978E3,2.5145862E2,1.6910389E1,4.351039E2,1.6505663E1,1.1578639E2,1.2544727E2,2.0571664E2,1.0540729E3,5.274671E2,4.1074365E2,1.321878E3,7.450587E2,2.5270625E3,4.3648687E3,3.977732E3,2.3679658E3],"tree_param":{"num_deleted":"0","num_feature":"29","num_nodes":"31","size_leaf_vector":"0"}},{"base_weights":[-1.2270064E-3,-3.067279E-1,3.4964167E-2,-1.1286013E-1,-7.1335745E-1,-1.404793E0,4.496148E-2,-6.7279395E-3,-6.78872E-1,-1.4884424E0,-3.5250115E-1,-2.4075646E0,-4.720664E-1,9.290952E-2,-2.0356973E-1,-6.9916123E-1,7.46722E-2,-4.9213243E-1,-9.344815E-1,-2.2785246E0,-1.2750827E0,2.6192272E-1,-5.6074643E-1,-2.724339E0,-1.450561E0,2.83383E-2,-1.087984E0,1.3610531E-1,-2.8511533E-1,-3.5710806E-1,6.430775E-2],"categories":[],"categories_nodes":[],"categories_segments":[],"categories_sizes":[],"default_left":[1,1,1,1,1,1,1,1,1,1,1,1,1,1,1,0,0,0,0,0,0,0,0,0,0,0,0,0,0,0,0],"id":22,"left_children":[1,3,5,7,9,11,13,15,17,19,21,23,25,27,29,-1,-1,-1,-1,-1,-1,-1,-1,-1,-1,-1,-1,-1,-1,-1,-1],"loss_changes":[1.98817E2,1.5006439E2,2.3147696E2,7.75427E1,1.7140524E2,1.02588486E2,1.9029742E2,6.1380856E1,9.269165E0,2.9960205E1,5.3981182E1,1.2175629E1,1.8122646E1,2.1861795E2,1.0624637E2,0E0,0E0,0E0,0E0,0E0,0E0,0E0,0E0,0E0,0E0,0E0,0E0,0E0,0E0,0E0,0E0],"parents":[2147483647,0,0,1,1,2,2,3,3,4,4,5,5,6,6,7,7,8,8,9,9,10,10,11,11,12,12,13,13,14,14],"right_children":[2,4,6,8,10,12,14,16,18,20,22,24,26,28,30,-1,-1,-1,-1,-1,-1,-1,-1,-1,-1,-1,-1,-1,-1,-1,-1],"split_conditions":[3.5247253E1,9.20516E-1,1.3460015E-1,3.827124E0,2.3834106E1,1.4410439E2,-6.954362E-1,1.6340637E1,2.821625E0,3.0939844E0,2.9907284E0,7.0722244E1,3.4270683E1,1.10103836E2,4.6068096E1,-2.0974837E-1,2.240166E-2,-1.4763974E-1,-2.8034446E-1,-6.835574E-1,-3.8252482E-1,7.857682E-2,-1.6822393E-1,-8.1730175E-1,-4.3516833E-1,8.501491E-3,-3.263952E-1,4.0831596E-2,-8.55346E-2,-1.0713242E-1,1.9292325E-2],"split_indices":[28,15,15,25,11,3,26,28,24,25,25,6,6,28,12,0,0,0,0,0,0,0,0,0,0,0,0,0,0,0,0],"split_type":[0,0,0,0,0,0,0,0,0,0,0,0,0,0,0,0,0,0,0,0,0,0,0,0,0,0,0,0,0,0,0],"sum_hessian":[1.7980047E4,1.9036101E3,1.6076436E4,1.2899036E3,6.1370654E2,1.0989884E2,1.5966537E4,1.0870786E3,2.028249E2,1.939645E2,4.1974207E2,5.2198826E1,5.7700016E1,1.3384877E4,2.58166E3,1.1355233E2,9.735263E2,1.188919E2,8.393301E1,3.918417E1,1.5478032E2,1.0618561E2,3.1355646E2,3.783009E1,1.4368737E1,3.2361652E1,2.5338364E1,1.2012845E4,1.3720327E3,1.6408481E3,9.408118E2],"tree_param":{"num_deleted":"0","num_feature":"29","num_nodes":"31","size_leaf_vector":"0"}},{"base_weights":[-9.7150856E-4,2.3823222E-2,-4.1669214E-1,3.501176E-2,-9.52944E-1,-6.677049E-1,-1.4838248E-1,4.257463E-2,-1.1592993E0,-6.113442E-1,-9.9791515E-1,-7.759002E-1,-2.4486297E-1,-5.7738155E-1,6.0534853E-2,2.2858895E-1,-3.829119E-3,-1.198861E0,1.4720131E-1,2.0847596E-1,-8.158007E-1,-6.272523E-1,-9.796854E-1,6.1884767E-1,-4.3759212E-1,9.093331E-1,-7.020494E-1,1.4191236E-1,-9.3360233E-1],"categories":[],"categories_nodes":[],"categories_segments":[],"categories_sizes":[],"default_left":[1,1,1,1,1,1,1,1,1,1,0,1,1,1,1,0,0,0,0,0,0,0,0,0,0,0,0,0,0],"id":23,"left_children":[1,3,5,7,9,11,13,15,17,19,-1,21,23,25,27,-1,-1,-1,-1,-1,-1,-1,-1,-1,-1,-1,-1,-1,-1],"loss_changes":[1.8367046E2,1.8380739E2,6.744832E1,1.5022609E2,2.3160248E0,2.3503159E1,4.359782E1,1.4262137E2,5.5859833E0,4.3169317E0,0E0,1.186322E1,1.8078512E1,3.0159801E1,2.6649818E1,0E0,0E0,0E0,0E0,0E0,0E0,0E0,0E0,0E0,0E0,0E0,0E0,0E0,0E0],"parents":[2147483647,0,0,1,1,2,2,3,3,4,4,5,5,6,6,7,7,8,8,9,9,11,11,12,12,13,13,14,14],"right_children":[2,4,6,8,10,12,14,16,18,20,-1,22,24,26,28,-1,-1,-1,-1,-1,-1,-1,-1,-1,-1,-1,-1,-1,-1],"split_conditions":[4.271289E0,-3.2819742E-1,7.236952E0,1.2511274E2,2.857235E0,7.781691E1,2.3983624E1,9.06375E0,-7.21537E-1,6.180788E0,-2.9937455E-1,9.025727E-1,4.4116793E0,1.021706E1,9.480675E1,6.8576686E-2,-1.1487358E-3,-3.596583E-1,4.4160396E-2,6.254279E-2,-2.4474023E-1,-1.881757E-1,-2.9390565E-1,1.8565431E-1,-1.3127764E-1,2.7279994E-1,-2.1061482E-1,4.257371E-2,-2.800807E-1],"split_indices":[25,26,1,28,25,28,6,7,26,19,0,15,25,12,11,0,0,0,0,0,0,0,0,0,0,0,0,0,0],"split_type":[0,0,0,0,0,0,0,0,0,0,0,0,0,0,0,0,0,0,0,0,0,0,0,0,0,0,0,0,0],"sum_hessian":[1.781683E4,1.6814887E4,1.0019438E3,1.6625412E4,1.894743E2,5.1688855E2,4.8505524E2,1.6521754E4,1.0365822E2,2.3739994E1,1.6573431E2,4.1091107E2,1.0597748E2,1.5827777E2,3.2677747E2,3.2978896E3,1.3223864E4,1.006916E2,2.9666202E0,4.734831E0,1.9005163E1,2.3995654E2,1.7095453E2,1.8930403E1,8.704707E1,1.1758521E1,1.4651926E2,3.0284464E2,2.3932829E1],"tree_param":{"num_deleted":"0","num_feature":"29","num_nodes":"29","size_leaf_vector":"0"}},{"base_weights":[-2.0258382E-3,6.685835E-2,-1.3276151E-1,2.8406467E-2,3.4817773E-1,-2.1854925E-1,2.4625978E-1,3.3985627E-1,-1.8354261E-2,4.4961157E-1,-7.582993E-1,-9.4858654E-2,-4.0940827E-1,-9.807314E-3,5.797702E-1,-3.2896416E-3,7.437946E-1,-1.6017161E-1,3.977221E-2,-1.2078547E0,4.9117315E-1,-3.6000782E-1,-9.8892653E-1,-3.4005198E-1,3.7166917E-1,-5.6658834E-1,2.6206282E-1,-2.144071E-1,5.9219867E-1,6.284976E-1,-7.843751E-1],"categories":[],"categories_nodes":[],"categories_segments":[],"categories_sizes":[],"default_left":[1,1,1,1,1,1,1,1,1,1,1,1,1,1,1,0,0,0,0,0,0,0,0,0,0,0,0,0,0,0,0],"id":24,"left_children":[1,3,5,7,9,11,13,15,17,19,21,23,25,27,29,-1,-1,-1,-1,-1,-1,-1,-1,-1,-1,-1,-1,-1,-1,-1,-1],"loss_changes":[1.5970709E2,1.256275E2,1.990363E2,1.4883176E2,1.5708008E2,1.1777884E2,9.650419E1,1.84913E2,7.3256355E1,8.876099E1,1.0450554E1,3.4666965E2,2.072421E2,7.897658E1,3.31156E1,0E0,0E0,0E0,0E0,0E0,0E0,0E0,0E0,0E0,0E0,0E0,0E0,0E0,0E0,0E0,0E0],"parents":[2147483647,0,0,1,1,2,2,3,3,4,4,5,5,6,6,7,7,8,8,9,9,10,10,11,11,12,12,13,13,14,14],"right_children":[2,4,6,8,10,12,14,16,18,20,22,24,26,28,30,-1,-1,-1,-1,-1,-1,-1,-1,-1,-1,-1,-1,-1,-1,-1,-1],"split_conditions":[3.4208074E0,9.41635E-1,2.8797451E1,-9.838674E-1,-4.6089485E-1,2.9734478E0,-8.61503E-1,6.9324356E-1,-3.0462682E0,2.5373222E1,-3.4394836E-1,-2.9386232E0,3.2964244E0,8.06198E-1,8.6673117E-1,-9.868925E-4,2.2313839E-1,-4.8051488E-2,1.1931663E-2,-3.6235642E-1,1.4735195E-1,-1.0800235E-1,-2.9667798E-1,-1.020156E-1,1.11500755E-1,-1.699765E-1,7.861885E-2,-6.432214E-2,1.776596E-1,1.885493E-1,-2.3531254E-1],"split_indices":[25,4,1,26,26,24,26,22,24,8,26,24,24,22,4,0,0,0,0,0,0,0,0,0,0,0,0,0,0,0,0],"split_type":[0,0,0,0,0,0,0,0,0,0,0,0,0,0,0,0,0,0,0,0,0,0,0,0,0,0,0,0,0,0,0],"sum_hessian":[1.7732172E4,1.1613529E4,6.1186416E3,1.0217993E4,1.3955363E3,4.9896963E3,1.1289453E3,1.3330365E3,8.884957E3,1.2788905E3,1.166458E2,3.0285022E3,1.961194E3,6.391674E2,4.8977792E2,7.2129114E2,6.117454E2,2.582471E3,6.302486E3,3.0597742E1,1.2482927E3,4.371365E1,7.2932144E1,1.985338E3,1.0431642E3,1.5893177E3,3.7187628E2,4.7751978E2,1.6164763E2,4.7340704E2,1.637087E1],"tree_param":{"num_deleted":"0","num_feature":"29","num_nodes":"31","size_leaf_vector":"0"}},{"base_weights":[-2.071878E-3,2.5438383E-1,-3.900104E-2,-6.0065504E-2,4.2038697E-1,-3.4228456E-1,2.3344949E-2,-1.5998667E-2,-1.0572336E0,6.931935E-1,2.4680819E-1,-8.329877E-2,-4.5245126E-1,-5.529007E-2,1.53827E-1,-5.983644E-1,6.690376E-2,-3.6717206E-1,-1.9128709E0,-1.2026502E0,7.0755196E-1,-3.69345E-1,3.4903488E-1,-3.7365976E-1,4.9351105E-1,2.8977668E-1,-4.9730864E-1,9.810371E-2,-2.2251423E-1,8.5835874E-2,5.680848E-1],"categories":[],"categories_nodes":[],"categories_segments":[],"categories_sizes":[],"default_left":[1,1,1,1,1,1,1,1,1,1,1,1,1,1,1,0,0,0,0,0,0,0,0,0,0,0,0,0,0,0,0],"id":25,"left_children":[1,3,5,7,9,11,13,15,17,19,21,23,25,27,29,-1,-1,-1,-1,-1,-1,-1,-1,-1,-1,-1,-1,-1,-1,-1,-1],"loss_changes":[1.6561519E2,1.1492453E2,2.89042E2,3.344076E1,6.80533E1,7.433197E1,1.3011472E2,3.5293564E1,1.831496E1,1.6086426E1,5.5687527E1,1.3067184E2,6.1021637E1,2.0299548E2,1.342601E2,0E0,0E0,0E0,0E0,0E0,0E0,0E0,0E0,0E0,0E0,0E0,0E0,0E0,0E0,0E0,0E0],"parents":[2147483647,0,0,1,1,2,2,3,3,4,4,5,5,6,6,7,7,8,8,9,9,10,10,11,11,12,12,13,13,14,14],"right_children":[2,4,6,8,10,12,14,16,18,20,22,24,26,28,30,-1,-1,-1,-1,-1,-1,-1,-1,-1,-1,-1,-1,-1,-1,-1,-1],"split_conditions":[-3.218429E0,3.0922234E0,-3.1181014E0,1.8630446E0,3.3270266E0,-3.1694303E0,4.4147785E1,2.516793E1,7.3846176E1,2.103629E0,3.704912E1,2.2570877E1,8.078125E0,8.7778133E-1,1.256506E0,-1.7950933E-1,2.007113E-2,-1.10151626E-1,-5.738613E-1,-3.6079508E-1,2.122656E-1,-1.1080351E-1,1.0471047E-1,-1.12097934E-1,1.4805332E-1,8.693301E-2,-1.491926E-1,2.9431114E-2,-6.6754274E-2,2.5750764E-2,1.7042544E-1],"split_indices":[24,25,24,27,25,24,12,12,28,1,28,19,19,15,22,0,0,0,0,0,0,0,0,0,0,0,0,0,0,0,0],"split_type":[0,0,0,0,0,0,0,0,0,0,0,0,0,0,0,0,0,0,0,0,0,0,0,0,0,0,0,0,0,0,0],"sum_hessian":[1.7485074E4,2.2001533E3,1.528492E4,7.604047E2,1.4397487E3,2.6055708E3,1.267935E4,7.2919617E2,3.1208578E1,5.586882E2,8.810605E2,7.781082E2,1.8274625E3,7.911849E3,4.7675005E3,9.0094E1,6.391021E2,1.806693E1,1.3141648E1,3.5774274E0,5.551108E2,1.2500459E2,7.5605585E2,5.178029E2,2.6030527E2,1.038391E2,1.7236234E3,4.1267856E3,3.7850637E3,4.096379E3,6.711215E2],"tree_param":{"num_deleted":"0","num_feature":"29","num_nodes":"31","size_leaf_vector":"0"}},{"base_weights":[-8.5937406E-4,1.1061616E-2,-7.507716E-1,-1.6020557E-2,3.6374223E-1,-4.3121722E-1,-1.3946899E0,-3.1543496E-1,2.9965771E-2,-5.665775E-1,6.466368E-1,-7.9399604E-1,-1.5318172E-1,-1.4731332E0,2.5828E-1,-1.145919E0,-1.5526412E-1,-5.882357E-1,4.3520182E-2,-1.7633416E-1,-1.2986599E0,1.4568251E0,5.317217E-1,-1.3723613E0,-6.011975E-1,-2.5004703E-1,8.032829E-1,-2.6805468E0,-1.3202214E0,9.664781E-1,-7.511662E-1],"categories":[],"categories_nodes":[],"categories_segments":[],"categories_sizes":[],"default_left":[1,1,1,1,1,1,1,1,1,1,1,1,1,1,1,0,0,0,0,0,0,0,0,0,0,0,0,0,0,0,0],"id":26,"left_children":[1,3,5,7,9,11,13,15,17,19,21,23,25,27,29,-1,-1,-1,-1,-1,-1,-1,-1,-1,-1,-1,-1,-1,-1,-1,-1],"loss_changes":[1.5395627E2,1.6192267E2,5.484871E1,2.1679184E2,3.185443E2,1.8190441E1,1.1911636E1,2.786657E2,1.1439549E2,8.046031E1,8.558078E1,7.931816E0,9.837959E0,1.2163834E1,4.214579E0,0E0,0E0,0E0,0E0,0E0,0E0,0E0,0E0,0E0,0E0,0E0,0E0,0E0,0E0,0E0,0E0],"parents":[2147483647,0,0,1,1,2,2,3,3,4,4,5,5,6,6,7,7,8,8,9,9,10,10,11,11,12,12,13,13,14,14],"right_children":[2,4,6,8,10,12,14,16,18,20,22,24,26,28,30,-1,-1,-1,-1,-1,-1,-1,-1,-1,-1,-1,-1,-1,-1,-1,-1],"split_conditions":[1.8178352E0,1.3252449E0,1.7319238E0,1.2552225E2,7.917434E1,3.647461E1,1.0056971E2,3.702103E1,1.9773565E1,1.2603282E0,-9.849653E-1,1.5E0,1.5745755E2,3.1105275E0,3.2389202E0,-3.437757E-1,-4.6579238E-2,-1.7647071E-1,1.3056056E-2,-5.290025E-2,-3.8959798E-1,4.3704757E-1,1.5951651E-1,-4.117084E-1,-1.8035924E-1,-7.5014114E-2,2.4098489E-1,-8.0416405E-1,-3.9606646E-1,2.8994346E-1,-2.2534987E-1],"split_indices":[22,22,15,3,28,20,28,6,28,15,26,23,3,25,25,0,0,0,0,0,0,0,0,0,0,0,0,0,0,0,0],"split_type":[0,0,0,0,0,0,0,0,0,0,0,0,0,0,0,0,0,0,0,0,0,0,0,0,0,0,0,0,0,0,0],"sum_hessian":[1.7219715E4,1.6951234E4,2.6848032E2,1.57432705E4,1.2079636E3,1.8054953E2,8.7930786E1,2.0952642E3,1.3648007E4,2.814364E2,9.265272E2,7.753137E1,1.0301815E2,8.4050865E1,3.879917E0,3.37771E2,1.757493E3,2.9191028E2,1.3356097E4,1.843877E2,9.7048706E1,1.1364139E2,8.1288586E2,1.7854025E1,5.9677353E1,9.421515E1,8.803006E0,7.5899014E0,7.646097E1,2.3052127E0,1.574704E0],"tree_param":{"num_deleted":"0","num_feature":"29","num_nodes":"31","size_leaf_vector":"0"}},{"base_weights":[-9.400572E-4,3.078637E-2,-2.4281983E-1,-7.114115E-2,1.358527E-1,-5.2002925E-1,-7.148455E-2,-2.1757446E-2,-7.8480643E-1,1.7881809E-1,-1.2559861E-1,-1.2497838E0,-4.5377758E-1,1.5605704E-1,-4.691182E-1,7.263028E-2,-2.7597752E-1,-9.8964494E-1,-8.93502E-2,5.9185916E-1,1.3496123E-1,1.8924733E-1,-2.9233718E-1,-8.171146E-2,-1.2952354E0,8.238797E-3,-5.60469E-1,-1.2538216E-1,5.83197E-1,1.8086685E-2,-6.404657E-1],"categories":[],"categories_nodes":[],"categories_segments":[],"categories_sizes":[],"default_left":[1,1,1,1,1,1,1,1,1,1,1,1,1,1,1,0,0,0,0,0,0,0,0,0,0,0,0,0,0,0,0],"id":27,"left_children":[1,3,5,7,9,11,13,15,17,19,21,23,25,27,29,-1,-1,-1,-1,-1,-1,-1,-1,-1,-1,-1,-1,-1,-1,-1,-1],"loss_changes":[1.3111755E2,1.6176906E2,9.4062904E1,2.7021445E2,8.357855E1,3.601413E1,1.1096321E2,1.7212267E2,7.059952E1,1.1565114E2,5.519902E1,3.2072754E0,3.4274597E1,9.387304E1,3.727131E1,0E0,0E0,0E0,0E0,0E0,0E0,0E0,0E0,0E0,0E0,0E0,0E0,0E0,0E0,0E0,0E0],"parents":[2147483647,0,0,1,1,2,2,3,3,4,4,5,5,6,6,7,7,8,8,9,9,10,10,11,11,12,12,13,13,14,14],"right_children":[2,4,6,8,10,12,14,16,18,20,22,24,26,28,30,-1,-1,-1,-1,-1,-1,-1,-1,-1,-1,-1,-1,-1,-1,-1,-1],"split_conditions":[6.052391E1,3.267553E1,1.27994156E2,1.0329312E2,-6.433711E-1,1.0841343E2,-7.8135574E-1,1.1112114E0,1.3493648E0,8.493208E0,4.936468E-1,2.5197606E0,7.9435936E1,3.4671754E-1,5.060029E-1,2.1789085E-2,-8.279326E-2,-2.968935E-1,-2.6805062E-2,1.7755775E-1,4.048837E-2,5.67742E-2,-8.770116E-2,-2.451344E-2,-3.8857064E-1,2.4716393E-3,-1.681407E-1,-3.7614647E-2,1.7495911E-1,5.4260055E-3,-1.9213971E-1],"split_indices":[2,6,3,28,26,8,26,15,15,7,22,25,11,22,4,0,0,0,0,0,0,0,0,0,0,0,0,0,0,0,0],"split_type":[0,0,0,0,0,0,0,0,0,0,0,0,0,0,0,0,0,0,0,0,0,0,0,0,0,0,0,0,0,0,0],"sum_hessian":[1.7084012E4,1.5103781E4,1.9802313E3,7.6665693E3,7.437212E3,7.556322E2,1.2245991E3,7.171361E3,4.9520834E2,6.387795E3,1.049417E3,6.1404495E1,6.942277E2,7.7927496E2,4.453242E2,5.2301914E3,1.9411696E3,3.8220987E2,1.12998474E2,6.119542E2,5.7758403E3,3.6329193E2,6.8612506E2,2.4046507E0,5.8999844E1,1.3041243E2,5.6381525E2,4.701821E2,3.0909286E2,1.1610075E2,3.2922345E2],"tree_param":{"num_deleted":"0","num_feature":"29","num_nodes":"31","size_leaf_vector":"0"}},{"base_weights":[-1.0630211E-3,-6.817447E-1,7.975339E-3,-1.0197717E0,-3.693792E-1,2.2043838E-1,-1.8292032E-2,-1.152223E0,-3.541865E-1,-1.9191547E-1,-1.2082978E0,-3.6828988E-3,3.7356225E-1,-2.3385386E-1,2.4768054E-2,-1.9852185E0,-9.417664E-1,-8.840085E-1,2.982415E-1,-5.872355E-1,2.191851E-1,-1.2395777E0,-3.1270704E-1,-4.0549722E-1,8.877552E-2,5.2540684E-1,1.8273939E-1,-8.859054E-2,-4.0456077E-1,1.1367677E-1,-8.126504E-2],"categories":[],"categories_nodes":[],"categories_segments":[],"categories_sizes":[],"default_left":[1,1,1,1,1,1,1,1,1,1,1,1,1,1,1,0,0,0,0,0,0,0,0,0,0,0,0,0,0,0,0],"id":28,"left_children":[1,3,5,7,9,11,13,15,17,19,21,23,25,27,29,-1,-1,-1,-1,-1,-1,-1,-1,-1,-1,-1,-1,-1,-1,-1,-1],"loss_changes":[1.0423729E2,2.3066727E1,9.332165E1,8.942383E0,1.7181074E1,6.3143112E1,1.3814374E2,1.35607605E1,6.8478756E0,1.6011194E1,1.7918205E-1,2.7817593E1,3.1576584E1,6.141101E1,1.1695654E2,0E0,0E0,0E0,0E0,0E0,0E0,0E0,0E0,0E0,0E0,0E0,0E0,0E0,0E0,0E0,0E0],"parents":[2147483647,0,0,1,1,2,2,3,3,4,4,5,5,6,6,7,7,8,8,9,9,10,10,11,11,12,12,13,13,14,14],"right_children":[2,4,6,8,10,12,14,16,18,20,22,24,26,28,30,-1,-1,-1,-1,-1,-1,-1,-1,-1,-1,-1,-1,-1,-1,-1,-1],"split_conditions":[1.0618329E2,6.17443E1,-3.2467885E0,-6.208041E-1,1.2692667E2,3.1104484E0,-3.1237602E0,3.2053447E0,1.1097418E2,4.403076E1,1.8806481E0,-1.0181929E0,3.5199616E0,-3.1560636E0,3.0334544E0,-5.9556556E-1,-2.8252992E-1,-2.6520258E-1,8.947245E-2,-1.7617066E-1,6.575553E-2,-3.7187332E-1,-9.3812115E-2,-1.2164917E-1,2.6632657E-2,1.5762205E-1,5.482182E-2,-2.6577163E-2,-1.2136824E-1,3.4103032E-2,-2.4379512E-2],"split_indices":[3,12,24,26,28,25,24,25,28,18,15,27,25,24,24,0,0,0,0,0,0,0,0,0,0,0,0,0,0,0,0],"split_type":[0,0,0,0,0,0,0,0,0,0,0,0,0,0,0,0,0,0,0,0,0,0,0,0,0,0,0,0,0,0,0],"sum_hessian":[1.694108E4,2.2102719E2,1.6720053E4,1.05065575E2,1.1596162E2,1.8388845E3,1.4881169E4,8.701789E1,1.8047686E1,9.672855E1,1.923306E1,7.467996E2,1.092085E3,2.4769502E3,1.2404219E4,1.5850014E1,7.116788E1,9.763784E0,8.2839E0,4.9092285E1,4.763627E1,1.8212862E1,1.0202005E0,1.3906264E2,6.07737E2,6.071781E2,4.8490683E2,1.3390243E3,1.137926E3,6.7468853E3,5.657333E3],"tree_param":{"num_deleted":"0","num_feature":"29","num_nodes":"31","size_leaf_vector":"0"}},{"base_weights":[-7.0699386E-4,-1.4928946E-1,3.6912806E-2,-2.3701526E-3,-9.5039177E-1,-1.0740112E0,4.5349695E-2,-1.11412816E-1,2.2521259E-1,-7.461887E-1,-1.233484E0,-1.5050182E0,-1.9950227E-1,-5.900257E-1,5.8352757E-2,-3.2791403E-1,9.614626E-4,-7.54513E-2,3.5769323E-1,-4.4398224E-1,-1.0582068E0,-8.5538185E-1,-1.3730462E0,-1.6826206E0,-9.47215E-1,-1.1775107E0,1.0953183E-1,1.0153841E0,-7.082966E-1,3.2798594E-1,1.8738706E-2],"categories":[],"categories_nodes":[],"categories_segments":[],"categories_sizes":[],"default_left":[1,1,1,1,1,1,1,1,1,1,1,1,1,1,1,0,0,0,0,0,0,0,0,0,0,0,0,0,0,0,0],"id":29,"left_children":[1,3,5,7,9,11,13,15,17,19,21,23,25,27,29,-1,-1,-1,-1,-1,-1,-1,-1,-1,-1,-1,-1,-1,-1,-1,-1],"loss_changes":[9.341082E1,3.9738266E2,1.2503512E2,7.085271E1,2.9327362E1,3.759913E1,1.0938423E2,4.6961285E1,3.6865788E1,2.8431915E1,1.0315155E1,5.0636597E0,1.05104885E1,5.1135376E1,1.3854076E2,0E0,0E0,0E0,0E0,0E0,0E0,0E0,0E0,0E0,0E0,0E0,0E0,0E0,0E0,0E0,0E0],"parents":[2147483647,0,0,1,1,2,2,3,3,4,4,5,5,6,6,7,7,8,8,9,9,10,10,11,11,12,12,13,13,14,14],"right_children":[2,4,6,8,10,12,14,16,18,20,22,24,26,28,30,-1,-1,-1,-1,-1,-1,-1,-1,-1,-1,-1,-1,-1,-1,-1,-1],"split_conditions":[3.3246174E1,1.1867492E0,1.3460015E-1,1.3936575E1,-8.154038E-1,1.5180334E2,-9.996194E-1,-2.9672127E0,3.1085212E0,1.4182351E0,3.5E0,1.3902563E2,2.7009664E0,6.688577E1,-9.8482275E-1,-9.837421E-2,2.884388E-4,-2.2635391E-2,1.0730797E-1,-1.3319468E-1,-3.1746206E-1,-2.5661457E-1,-4.1191387E-1,-5.047862E-1,-2.8416452E-1,-3.5325325E-1,3.285955E-2,3.0461523E-1,-2.12489E-1,9.839579E-2,5.621612E-3],"split_indices":[11,15,15,19,26,3,26,24,25,15,16,3,25,28,26,0,0,0,0,0,0,0,0,0,0,0,0,0,0,0,0],"split_type":[0,0,0,0,0,0,0,0,0,0,0,0,0,0,0,0,0,0,0,0,0,0,0,0,0,0,0,0,0,0,0],"sum_hessian":[1.6709426E4,3.3753271E3,1.3334099E4,2.8530845E3,5.2224255E2,9.95503E1,1.3234548E4,1.9292334E3,9.2385114E2,3.0550693E2,2.1673564E2,6.620149E1,3.3348804E1,2.645255E2,1.2970022E4,6.5854913E2,1.2706843E3,2.8269873E2,6.411524E2,1.5642438E2,1.4908257E2,6.0353848E1,1.5638179E2,4.868414E1,1.7517357E1,7.3326564E0,2.6016148E1,1.7630032E1,2.4689548E2,1.6605055E3,1.1309517E4],"tree_param":{"num_deleted":"0","num_feature":"29","num_nodes":"31","size_leaf_vector":"0"}},{"base_weights":[-1.6486617E-3,4.086729E-3,-9.441869E-1,1.2256222E-2,-6.1125803E-1,-9.725948E-1,-2.460592E-1,1.862319E-2,-7.5069374E-1,-8.8401437E-1,-2.7842718E-1,-9.826812E-1,-1.4901364E-1,-7.69471E-1,9.9368674E-1,2.326359E-2,-9.394046E-1,-1.5515986E-2,-8.226733E-1,-9.078714E-1,8.5399285E-2,-8.835471E-1,-3.6435854E-2],"categories":[],"categories_nodes":[],"categories_segments":[],"categories_sizes":[],"default_left":[1,1,1,1,1,1,1,1,1,1,1,0,0,0,0,0,0,0,0,0,0,0,0],"id":30,"left_children":[1,3,5,7,9,11,13,15,17,19,21,-1,-1,-1,-1,-1,-1,-1,-1,-1,-1,-1,-1],"loss_changes":[9.007177E1,8.326303E1,1.7593002E0,7.941506E1,1.9454765E1,6.551666E-1,4.190176E0,7.209078E1,7.1471024E0,2.825325E0,1.4494446E1,0E0,0E0,0E0,0E0,0E0,0E0,0E0,0E0,0E0,0E0,0E0,0E0],"parents":[2147483647,0,0,1,1,2,2,3,3,4,4,5,5,6,6,7,7,8,8,9,9,10,10],"right_children":[2,4,6,8,10,12,14,16,18,20,22,-1,-1,-1,-1,-1,-1,-1,-1,-1,-1,-1,-1],"split_conditions":[-3.075845E-1,4.780958E0,2.065575E2,8.698103E1,7.010933E1,1.25E1,1.5997009E1,1.24647896E2,3.022859E0,3.5058513E0,-9.984293E-1,-2.9480436E-1,-4.4704095E-2,-2.3084131E-1,2.9810604E-1,6.9790776E-3,-2.818214E-1,-4.654796E-3,-2.46802E-1,-2.7236143E-1,2.5619786E-2,-2.6506415E-1,-1.0930756E-2],"split_indices":[26,25,3,2,28,16,12,28,25,24,26,0,0,0,0,0,0,0,0,0,0,0,0],"split_type":[0,0,0,0,0,0,0,0,0,0,0,0,0,0,0,0,0,0,0,0,0,0,0],"sum_hessian":[1.666027E4,1.6560494E4,9.977574E1,1.634448E4,2.1601392E2,9.549669E1,4.27905E0,1.6210179E4,1.3430156E2,1.1781113E2,9.82028E1,9.4150444E1,1.3462452E0,3.2754922E0,1.0035574E0,1.6133011E4,7.7167755E1,1.2084962E1,1.222166E2,1.1504342E2,2.7677112E0,2.7295902E1,7.090689E1],"tree_param":{"num_deleted":"0","num_feature":"29","num_nodes":"23","size_leaf_vector":"0"}},{"base_weights":[-1.9392971E-3,7.126872E-3,-5.0767094E-1,-1.7358039E-2,2.3950829E-1,-7.009025E-1,1.5645362E-1,-3.706067E-2,2.5393012E-1,-3.5220295E-1,4.0521348E-1,-1.0692216E0,-4.3156993E-1,-6.6413134E-1,3.5290226E-1,-1.0371908E-2,-2.771524E-1,-4.7165722E-1,4.5140746E-1,-2.7495086E-1,-9.0316135E-1,5.1689875E-1,-1.5948395E-1,-1.120481E0,-5.7220423E-1,-8.073005E-1,-1.0842459E-1,-7.824285E-1,3.255461E-1,1.6224813E-1,1.4752594E0],"categories":[],"categories_nodes":[],"categories_segments":[],"categories_sizes":[],"default_left":[1,1,1,1,1,1,1,1,1,1,1,1,1,1,1,0,0,0,0,0,0,0,0,0,0,0,0,0,0,0,0],"id":31,"left_children":[1,3,5,7,9,11,13,15,17,19,21,23,25,27,29,-1,-1,-1,-1,-1,-1,-1,-1,-1,-1,-1,-1,-1,-1,-1,-1],"loss_changes":[7.589139E1,9.252458E1,3.7517563E1,7.864416E1,1.521253E2,2.19561E1,1.0956872E1,8.78881E1,1.429599E2,1.4208168E1,7.648387E1,1.7733994E0,1.59646225E1,1.7995381E0,1.1384262E1,0E0,0E0,0E0,0E0,0E0,0E0,0E0,0E0,0E0,0E0,0E0,0E0,0E0,0E0,0E0,0E0],"parents":[2147483647,0,0,1,1,2,2,3,3,4,4,5,5,6,6,7,7,8,8,9,9,10,10,11,11,12,12,13,13,14,14],"right_children":[2,4,6,8,10,12,14,16,18,20,22,24,26,28,30,-1,-1,-1,-1,-1,-1,-1,-1,-1,-1,-1,-1,-1,-1,-1,-1],"split_conditions":[9.987962E-1,9.757372E-1,8.574399E1,1.3252449E0,1.0641015E1,1.4777414E2,1.1523027E2,1.0613887E2,7.886255E1,9.8102283E-1,-6.731116E-1,7.235594E1,1.5136191E1,5.854219E1,3.1573472E0,-3.1115725E-3,-8.314572E-2,-1.4149716E-1,1.3542224E-1,-8.248526E-2,-2.709484E-1,1.5506963E-1,-4.784519E-2,-3.3614433E-1,-1.7166127E-1,-2.4219017E-1,-3.252738E-2,-2.3472856E-1,9.766383E-2,4.8674442E-2,4.4257784E-1],"split_indices":[4,4,28,22,19,3,3,28,28,22,26,18,19,19,24,0,0,0,0,0,0,0,0,0,0,0,0,0,0,0,0],"split_type":[0,0,0,0,0,0,0,0,0,0,0,0,0,0,0,0,0,0,0,0,0,0,0,0,0,0,0,0,0,0,0],"sum_hessian":[1.6550139E4,1.6259641E4,2.9049805E2,1.4710583E4,1.549058E3,2.2498247E2,6.551558E1,1.3715353E4,9.9523083E2,3.3865176E2,1.2104061E3,9.3774124E1,1.3120834E2,1.2195039E1,5.3320545E1,1.2344205E4,1.3711473E3,2.1261931E2,7.826115E2,2.983219E2,4.0329872E1,1.01061285E3,1.997933E2,8.386988E1,9.904241E0,5.9975185E1,7.123316E1,1.1080041E1,1.1149975E0,4.655657E1,6.763976E0],"tree_param":{"num_deleted":"0","num_feature":"29","num_nodes":"31","size_leaf_vector":"0"}},{"base_weights":[-1.7002214E-3,-2.4771743E-2,1.936367E-1,2.595927E-2,-2.4035607E-1,2.237018E-2,3.2154158E-1,-2.4555542E-2,1.7386569E-1,-4.3528637E-1,-4.137934E-2,-4.0692824E-1,1.0724263E-1,-4.2534238E-1,3.5334238E-1,-1.877859E-1,3.7003588E-2,-2.3926325E-2,3.404408E-1,1.8506831E-1,-5.0335205E-1,-4.104192E-1,1.7487262E-1,-1.6951737E-1,-9.623468E-1,2.3123702E-1,-3.0238283E-1,2.357178E-1,-9.122085E-1,5.8433634E-1,2.6594877E-1],"categories":[],"categories_nodes":[],"categories_segments":[],"categories_sizes":[],"default_left":[1,1,1,1,1,1,1,1,1,1,1,1,1,1,1,0,0,0,0,0,0,0,0,0,0,0,0,0,0,0,0],"id":32,"left_children":[1,3,5,7,9,11,13,15,17,19,21,23,25,27,29,-1,-1,-1,-1,-1,-1,-1,-1,-1,-1,-1,-1,-1,-1,-1,-1],"loss_changes":[7.441056E1,1.6150818E2,3.81996E1,8.932383E1,1.0909111E2,2.7251831E1,2.3863594E1,8.9559044E1,1.00286674E2,6.0089417E1,1.1125595E2,1.6118134E1,3.1777668E1,1.348391E1,1.9187431E1,0E0,0E0,0E0,0E0,0E0,0E0,0E0,0E0,0E0,0E0,0E0,0E0,0E0,0E0,0E0,0E0],"parents":[2147483647,0,0,1,1,2,2,3,3,4,4,5,5,6,6,7,7,8,8,9,9,10,10,11,11,12,12,13,13,14,14],"right_children":[2,4,6,8,10,12,14,16,18,20,22,24,26,28,30,-1,-1,-1,-1,-1,-1,-1,-1,-1,-1,-1,-1,-1,-1,-1,-1],"split_conditions":[3.25883E0,3.1159883E0,3.0618417E0,2.6813103E1,3.1573477E0,-1.0743821E0,2.8569086E0,3.1223824E0,-3.1123185E0,1.4795725E1,3.2027416E1,8.6723614E-1,1.0061362E0,3.5977294E0,3.2327065E0,-5.633577E-2,1.1101076E-2,-7.1778977E-3,1.02132246E-1,5.5520494E-2,-1.5100563E-1,-1.2312576E-1,5.2461788E-2,-5.0855212E-2,-2.8870404E-1,6.937111E-2,-9.071485E-2,7.0715345E-2,-2.7366257E-1,1.7530091E-1,7.978463E-2],"split_indices":[24,24,25,19,24,27,19,25,24,20,12,22,27,25,25,0,0,0,0,0,0,0,0,0,0,0,0,0,0,0,0],"split_type":[0,0,0,0,0,0,0,0,0,0,0,0,0,0,0,0,0,0,0,0,0,0,0,0,0,0,0,0,0,0,0],"sum_hessian":[1.6508959E4,1.476582E4,1.7431389E3,1.1953758E4,2.8120625E3,7.4574725E2,9.973917E2,8.911148E3,3.0426104E3,1.4198749E3,1.3921877E3,1.2247163E2,6.2327563E2,4.0227207E1,9.571645E2,2.4397773E3,6.4713706E3,1.3913599E3,1.6512504E3,1.402163E2,1.2796586E3,5.140498E2,8.781379E2,8.671215E1,3.575947E1,4.787827E2,1.4449292E2,1.7280214E1,2.2946993E1,2.611694E2,6.9599506E2],"tree_param":{"num_deleted":"0","num_feature":"29","num_nodes":"31","size_leaf_vector":"0"}},{"base_weights":[-8.206175E-4,7.3071076E-3,-5.5441445E-1,2.0375356E-1,-1.5590194E-2,-3.0372605E-1,-1.2687436E0,4.5712638E-1,1.003227E-1,-1.5832113E-1,4.053566E-2,-1.2487067E0,-2.208705E-1,-1.3308332E0,6.2886786E-1,-7.217367E-1,4.9320394E-1,-1.2367463E0,1.2531231E-1,-5.4821163E-1,-4.6774007E-2,1.470603E-1,-5.3268418E-2,-1.4974015E0,-2.677599E-1,3.081667E-1,-3.4196734E-1,-1.3554363E0,-4.2022444E-2],"categories":[],"categories_nodes":[],"categories_segments":[],"categories_sizes":[],"default_left":[1,1,1,1,1,1,1,1,1,1,1,1,1,1,0,0,0,0,0,0,0,0,0,0,0,0,0,0,0],"id":33,"left_children":[1,3,5,7,9,11,13,15,17,19,21,23,25,27,-1,-1,-1,-1,-1,-1,-1,-1,-1,-1,-1,-1,-1,-1,-1],"loss_changes":[7.351429E1,7.2432236E1,4.1948906E1,4.4006767E1,1.15541084E2,1.35286045E1,8.035599E0,2.1068474E1,4.0082436E1,1.7701646E2,1.0345393E2,3.0138645E0,1.0567852E1,1.8291855E0,0E0,0E0,0E0,0E0,0E0,0E0,0E0,0E0,0E0,0E0,0E0,0E0,0E0,0E0,0E0],"parents":[2147483647,0,0,1,1,2,2,3,3,4,4,5,5,6,6,7,7,8,8,9,9,10,10,11,11,12,12,13,13],"right_children":[2,4,6,8,10,12,14,16,18,20,22,24,26,28,-1,-1,-1,-1,-1,-1,-1,-1,-1,-1,-1,-1,-1,-1,-1],"split_conditions":[1.7870276E0,-3.2623768E0,1.7330468E0,6.9369686E-1,-2.9875617E0,-5.1088623E1,1.2320469E2,1.0560919E-1,1.6341005E1,1.0593565E1,3.0219681E0,2.8211184E1,-2.5595718E1,4.346262E1,1.8866037E-1,-2.1652102E-1,1.4796118E-1,-3.710239E-1,3.7593696E-2,-1.6446349E-1,-1.4032203E-2,4.411809E-2,-1.5980527E-2,-4.4922045E-1,-8.032797E-2,9.2450015E-2,-1.0259021E-1,-4.066309E-1,-1.26067335E-2],"split_indices":[22,24,15,15,24,10,8,15,11,19,24,19,5,19,0,0,0,0,0,0,0,0,0,0,0,0,0,0,0],"split_type":[0,0,0,0,0,0,0,0,0,0,0,0,0,0,0,0,0,0,0,0,0,0,0,0,0,0,0,0,0],"sum_hessian":[1.6336574E4,1.6101167E4,2.3540646E2,1.6799768E3,1.442119E4,1.7530847E2,6.0097992E1,4.860033E2,1.1939735E3,4.06976E3,1.0351431E4,1.2997625E1,1.6231085E2,5.8483112E1,1.6148802E0,1.386748E1,4.721358E2,2.1016111E1,1.1729574E3,9.044661E2,3.165294E3,4.8467993E3,5.5046313E3,9.9488535E0,3.0487711E0,2.9945E1,1.3236584E2,5.733687E1,1.1462448E0],"tree_param":{"num_deleted":"0","num_feature":"29","num_nodes":"29","size_leaf_vector":"0"}},{"base_weights":[-6.182513E-4,1.6110814E-1,-2.5519423E-2,-1.9035387E-1,3.955913E-1,8.373902E-2,-7.537838E-2,-1.1974432E0,-1.2604916E-1,-4.5072794E-1,5.151711E-1,-6.331075E-1,1.0368694E-1,-9.5555896E-1,-6.1409794E-2,-6.18069E-1,-1.596125E0,-4.6157587E-1,1.7048823E-2,1.8304592E0,-5.3542286E-1,1.2034698E0,3.3157152E-1,-1.1007229E0,2.4201386E-2,4.00244E-1,6.997787E-2,-5.6584215E-1,-1.2904779E0,-1.303291E-1,5.276264E-2],"categories":[],"categories_nodes":[],"categories_segments":[],"categories_sizes":[],"default_left":[1,1,1,1,1,1,1,1,1,1,1,1,1,1,1,0,0,0,0,0,0,0,0,0,0,0,0,0,0,0,0],"id":34,"left_children":[1,3,5,7,9,11,13,15,17,19,21,23,25,27,29,-1,-1,-1,-1,-1,-1,-1,-1,-1,-1,-1,-1,-1,-1,-1,-1],"loss_changes":[6.479305E1,1.7698918E2,7.595677E1,5.5526413E1,1.3057738E2,6.2543858E1,1.1765248E2,1.0905502E1,3.8862907E1,3.1889957E1,1.4227118E2,3.6429108E1,4.2475754E1,1.8782852E1,7.417319E1,0E0,0E0,0E0,0E0,0E0,0E0,0E0,0E0,0E0,0E0,0E0,0E0,0E0,0E0,0E0,0E0],"parents":[2147483647,0,0,1,1,2,2,3,3,4,4,5,5,6,6,7,7,8,8,9,9,10,10,11,11,12,12,13,13,14,14],"right_children":[2,4,6,8,10,12,14,16,18,20,22,24,26,28,30,-1,-1,-1,-1,-1,-1,-1,-1,-1,-1,-1,-1,-1,-1,-1,-1],"split_conditions":[-9.8482275E-1,3.3676684E-1,7.4147105E-1,3.0968223E0,-9.9961615E-1,1.3598713E-1,1.657002E1,3.480816E1,-9.9838555E-1,5.2751026E1,-9.973923E-1,1.5421216E2,-3.2987332E0,9.10962E-1,4.6778122E1,-1.854207E-1,-4.7883752E-1,-1.3847277E-1,5.114647E-3,5.491378E-1,-1.6062686E-1,3.6104095E-1,9.947146E-2,-3.3021688E-1,7.260416E-3,1.2007321E-1,2.0993363E-2,-1.6975266E-1,-3.8714337E-1,-3.9098732E-2,1.5828792E-2],"split_indices":[26,22,15,25,26,15,11,6,26,28,26,3,24,15,12,0,0,0,0,0,0,0,0,0,0,0,0,0,0,0,0],"split_type":[0,0,0,0,0,0,0,0,0,0,0,0,0,0,0,0,0,0,0,0,0,0,0,0,0,0,0,0,0,0,0],"sum_hessian":[1.6086932E4,2.1457026E3,1.3941229E4,8.5874115E2,1.2869614E3,4.368229E3,9.573E3,5.048373E1,8.0825745E2,1.5898499E2,1.1279764E3,1.1743292E2,4.250796E3,1.4849837E2,9.424502E3,2.1618084E1,2.8865648E1,2.4098532E2,5.672721E2,4.953523E0,1.5403146E2,2.3635342E2,8.91623E2,6.822352E1,4.9209408E1,4.327535E2,3.8180425E3,6.987742E1,7.862094E1,5.8768467E3,3.547655E3],"tree_param":{"num_deleted":"0","num_feature":"29","num_nodes":"31","size_leaf_vector":"0"}},{"base_weights":[-1.4261162E-3,-2.506437E-2,1.5726827E-1,1.822784E-2,-1.9588123E-1,-2.0786852E-1,2.15573E-1,-1.1149687E-1,7.026689E-2,1.2005035E-1,-2.5916573E-1,-6.6858566E-1,1.4004104E-1,3.068898E-1,-2.6241798E-2,2.1492114E-2,-4.63557E-1,-3.4227792E-2,2.2883172E-1,-3.6673795E-2,6.9722635E-1,5.270139E-3,-3.541149E-1,-8.1818235E-1,3.168572E-2,2.4011835E-1,-1.8628486E0,3.4311607E-1,-3.1384987E-1,8.962481E-1,-8.423887E-2],"categories":[],"categories_nodes":[],"categories_segments":[],"categories_sizes":[],"default_left":[1,1,1,1,1,1,1,1,1,1,1,1,1,1,1,0,0,0,0,0,0,0,0,0,0,0,0,0,0,0,0],"id":35,"left_children":[1,3,5,7,9,11,13,15,17,19,21,23,25,27,29,-1,-1,-1,-1,-1,-1,-1,-1,-1,-1,-1,-1,-1,-1,-1,-1],"loss_changes":[6.034166E1,1.0353598E2,4.4441525E1,7.541614E1,5.6630783E1,4.6201157E1,3.9727745E1,1.497625E2,1.3211214E2,4.2821865E1,5.922612E1,1.3009224E1,3.346415E1,2.9470566E1,2.650479E1,0E0,0E0,0E0,0E0,0E0,0E0,0E0,0E0,0E0,0E0,0E0,0E0,0E0,0E0,0E0,0E0],"parents":[2147483647,0,0,1,1,2,2,3,3,4,4,5,5,6,6,7,7,8,8,9,9,10,10,11,11,12,12,13,13,14,14],"right_children":[2,4,6,8,10,12,14,16,18,20,22,24,26,28,30,-1,-1,-1,-1,-1,-1,-1,-1,-1,-1,-1,-1,-1,-1,-1,-1],"split_conditions":[3.2093205E0,3.0918446E0,3.6431168E1,3.0996747E0,-9.918134E-1,3.3466415E0,3.7886357E0,8.788703E-1,-2.9867182E0,1.2802322E0,8.448296E0,8.151984E0,9.1875476E-1,4.380717E0,1.5572649E1,6.4476347E-3,-1.3906711E-1,-1.0268338E-2,6.864952E-2,-1.1002139E-2,2.0916791E-1,1.5810417E-3,-1.0623447E-1,-2.4545471E-1,9.505717E-3,7.203551E-2,-5.5885464E-1,1.0293483E-1,-9.415496E-2,2.6887444E-1,-2.5271663E-2],"split_indices":[24,24,28,25,26,24,24,22,24,15,1,19,22,25,12,0,0,0,0,0,0,0,0,0,0,0,0,0,0,0,0],"split_type":[0,0,0,0,0,0,0,0,0,0,0,0,0,0,0,0,0,0,0,0,0,0,0,0,0,0,0,0,0,0,0],"sum_hessian":[1.6083662E4,1.3999251E4,2.0844104E3,1.1169357E4,2.8298938E3,2.8665448E2,1.7977559E3,3.1974648E3,7.9718926E3,4.721099E2,2.357784E3,1.2293578E2,1.6371869E2,1.3047662E3,4.9298962E2,2.3214773E3,8.759877E2,4.805704E3,3.1661885E3,3.7202747E2,1.0008244E2,6.231736E2,1.7346104E3,1.01157455E2,2.1778324E1,1.5676578E2,6.952917E0,1.2332417E3,7.1524536E1,2.8306038E1,4.6468356E2],"tree_param":{"num_deleted":"0","num_feature":"29","num_nodes":"31","size_leaf_vector":"0"}},{"base_weights":[-3.3984464E-4,5.352783E-2,-7.89743E-2,-6.881345E-2,1.5031134E-1,-1.2676793E-1,2.6037905E-1,4.531525E-3,-4.9178055E-1,4.6474272E-1,7.078105E-2,1.6609947E-1,-1.5211633E-1,1.6417566E-1,8.352792E-1,-3.5381973E-1,1.1463342E-1,-1.376242E-1,-6.9551736E-1,5.6572825E-1,3.8204025E-2,1.800983E-2,4.1929203E-1,1.9464244E-1,-1.1215292E0,-2.8665546E-1,-8.5742876E-2,3.197704E-1,-2.0543726E-1,1.7187892E0,6.847548E-1],"categories":[],"categories_nodes":[],"categories_segments":[],"categories_sizes":[],"default_left":[1,1,1,1,1,1,1,1,1,1,1,1,1,1,1,0,0,0,0,0,0,0,0,0,0,0,0,0,0,0,0],"id":36,"left_children":[1,3,5,7,9,11,13,15,17,19,21,23,25,27,29,-1,-1,-1,-1,-1,-1,-1,-1,-1,-1,-1,-1,-1,-1,-1,-1],"loss_changes":[6.777714E1,1.12446686E2,1.05537155E2,1.3013603E2,1.3255319E2,4.2359962E1,4.4295425E1,1.4112823E2,4.4634354E1,4.6074326E1,7.78402E1,1.693114E1,4.684709E1,3.9716145E1,1.4106255E1,0E0,0E0,0E0,0E0,0E0,0E0,0E0,0E0,0E0,0E0,0E0,0E0,0E0,0E0,0E0,0E0],"parents":[2147483647,0,0,1,1,2,2,3,3,4,4,5,5,6,6,7,7,8,8,9,9,10,10,11,11,12,12,13,13,14,14],"right_children":[2,4,6,8,10,12,14,16,18,20,22,24,26,28,30,-1,-1,-1,-1,-1,-1,-1,-1,-1,-1,-1,-1,-1,-1,-1,-1],"split_conditions":[3.3230188E0,3.1029112E0,3.622651E1,1.2728375E0,8.66646E0,-3.2944486E0,2.5E0,-1.0034976E0,4.9365655E-1,1.2434344E0,1.1381354E0,2.162177E0,-2.9876347E0,6.573849E-1,-9.7729003E-1,-1.06145926E-1,3.439003E-2,-4.1287262E-2,-2.0865522E-1,1.6971847E-1,1.1461208E-2,5.402949E-3,1.2578762E-1,5.8392733E-2,-3.3645877E-1,-8.599664E-2,-2.5722863E-2,9.593112E-2,-6.163118E-2,5.156368E-1,2.0542644E-1],"split_indices":[25,25,7,27,1,24,23,27,22,22,22,15,24,4,26,0,0,0,0,0,0,0,0,0,0,0,0,0,0,0,0],"split_type":[0,0,0,0,0,0,0,0,0,0,0,0,0,0,0,0,0,0,0,0,0,0,0,0,0,0,0,0,0,0,0],"sum_hessian":[1.5998817E4,9.494816E3,6.504001E3,4.193819E3,5.3009976E3,5.7016255E3,8.023754E2,3.5748994E3,6.1891925E2,1.0691514E3,4.231846E3,4.537372E2,5.247888E3,6.884553E2,1.1392006E2,8.3969867E2,2.7352007E3,2.2663478E2,3.9228445E2,8.6421674E2,2.0493468E2,3.6762444E3,5.55602E2,4.4472775E2,9.00948E0,1.7325955E3,3.515293E3,4.8459277E2,2.0386256E2,1.50667E1,9.885336E1],"tree_param":{"num_deleted":"0","num_feature":"29","num_nodes":"31","size_leaf_vector":"0"}},{"base_weights":[4.4596347E-4,4.4426536E-3,-9.1641897E-1,7.558836E-3,-1.1161807E0,-4.1683525E-1,-9.8611593E-1,1.5013696E-1,-1.3625601E-2,-3.472782E-2,-1.1642596E0,4.9531907E-1,-8.6378205E-1,-5.2947324E-4,2.5136718E-1,-1.7516755E-1,2.4132254E-2,-1.2054245E0,-6.4047825E-1,1.9858067E0,-6.7091703E-1],"categories":[],"categories_nodes":[],"categories_segments":[],"categories_sizes":[],"default_left":[1,1,1,1,1,1,0,1,1,0,1,1,0,0,0,0,0,0,0,0,0],"id":37,"left_children":[1,3,5,7,9,11,-1,13,15,-1,17,19,-1,-1,-1,-1,-1,-1,-1,-1,-1],"loss_changes":[5.853267E1,5.5545498E1,2.0028572E0,4.7908215E1,2.2529984E0,4.5943155E0,0E0,3.1294643E1,8.4237045E1,0E0,1.3785553E-1,8.279086E0,0E0,0E0,0E0,0E0,0E0,0E0,0E0,0E0,0E0],"parents":[2147483647,0,0,1,1,2,2,3,3,4,4,5,5,7,7,8,8,10,10,11,11],"right_children":[2,4,6,8,10,12,-1,14,16,-1,18,20,-1,-1,-1,-1,-1,-1,-1,-1,-1],"split_conditions":[-3.075845E-1,1.2633295E2,9.199403E0,-3.2030501E0,2.757988E0,2.8601513E0,-2.9583478E-1,3.0545193E1,-3.09764E0,-1.0418346E-2,7.5788315E1,-8.640572E0,-2.5913462E-1,-1.5884198E-4,7.541016E-2,-5.2550267E-2,7.2396765E-3,-3.6162737E-1,-1.9214348E-1,5.9574205E-1,-2.0127513E-1],"split_indices":[26,28,20,24,25,25,0,6,24,0,12,5,0,0,0,0,0,0,0,0,0],"split_type":[0,0,0,0,0,0,0,0,0,0,0,0,0,0,0,0,0,0,0,0,0],"sum_hessian":[1.5971108E4,1.5902782E4,6.8326385E1,1.5859674E4,4.3108658E1,9.219834E0,5.9106556E1,2.0508308E3,1.3808843E4,1.908245E0,4.1200413E1,2.9963946E0,6.2234397E0,8.2457135E2,1.2262595E3,2.615431E3,1.1193412E4,3.6991768E1,4.208646E0,1.006854E0,1.9895406E0],"tree_param":{"num_deleted":"0","num_feature":"29","num_nodes":"21","size_leaf_vector":"0"}},{"base_weights":[5.91911E-5,-4.3254656E-1,6.9970535E-3,-1.3836803E0,-1.3338533E-1,3.434539E-2,-1.1632459E-1,-1.4702716E0,9.032308E-2,-2.2160288E-2,-9.592686E-1,-2.6261885E-2,9.5121205E-2,-2.0117857E-1,1.1080683E-1,-2.0055304E0,-1.2280251E0,-6.8217856E-1,5.82177E-1,-1.1068742E0,3.3799645E-2,-1.2094539E0,1.7461585E-1,4.9579743E-2,-1.7907485E-1,-1.808868E-1,1.3653421E-1,-1.5394416E-1,-6.609399E-1,2.3465292E-1,-1.2908186E-1],"categories":[],"categories_nodes":[],"categories_segments":[],"categories_sizes":[],"default_left":[1,1,1,1,1,1,1,1,1,1,1,1,1,1,1,0,0,0,0,0,0,0,0,0,0,0,0,0,0,0,0],"id":38,"left_children":[1,3,5,7,9,11,13,15,17,19,21,23,25,27,29,-1,-1,-1,-1,-1,-1,-1,-1,-1,-1,-1,-1,-1,-1,-1,-1],"loss_changes":[4.7512775E1,7.0914375E1,5.2551582E1,7.7501755E0,1.7541296E1,4.6978596E1,5.453166E1,4.8537445E0,2.0133245E0,1.0327477E1,6.6418705E0,7.40231E1,7.2812935E1,4.4621193E1,2.2902897E1,0E0,0E0,0E0,0E0,0E0,0E0,0E0,0E0,0E0,0E0,0E0,0E0,0E0,0E0,0E0,0E0],"parents":[2147483647,0,0,1,1,2,2,3,3,4,4,5,5,6,6,7,7,8,8,9,9,10,10,11,11,12,12,13,13,14,14],"right_children":[2,4,6,8,10,12,14,16,18,20,22,24,26,28,30,-1,-1,-1,-1,-1,-1,-1,-1,-1,-1,-1,-1,-1,-1,-1,-1],"split_conditions":[2.4196297E1,2.1410709E2,3.200772E1,1.4745569E1,4.935993E-1,3.813209E1,1.348871E0,3.0734608E0,2.9397855E0,8.092367E0,8.24372E0,2.5E0,-4.414764E1,4.7861794E1,5.721078E1,-6.016591E-1,-3.6840755E-1,-2.0465358E-1,1.746531E-1,-3.3206227E-1,1.0139894E-2,-3.6283618E-1,5.2384757E-2,1.4873924E-2,-5.372246E-2,-5.4266043E-2,4.0960267E-2,-4.618325E-2,-1.9828197E-1,7.039588E-2,-3.872456E-2],"split_indices":[8,3,10,1,22,12,15,25,19,28,19,16,10,18,2,0,0,0,0,0,0,0,0,0,0,0,0,0,0,0,0],"split_type":[0,0,0,0,0,0,0,0,0,0,0,0,0,0,0,0,0,0,0,0,0,0,0,0,0,0,0,0,0,0,0],"sum_hessian":[1.5828413E4,2.4887117E2,1.5579541E4,5.8680622E1,1.9019055E2,1.2752266E4,2.8272756E3,5.542706E1,3.2535641E0,1.6852187E2,2.1668688E1,6.3852705E3,6.3669956E3,2.0583945E3,7.68881E2,1.5001477E1,4.0425583E1,1.1151559E0,2.1384082E0,7.346147E0,1.6117572E2,1.7697243E1,3.9714448E0,4.2678145E3,2.117456E3,8.3024426E2,5.536751E3,1.8678342E3,1.9056046E2,5.071032E2,2.6177774E2],"tree_param":{"num_deleted":"0","num_feature":"29","num_nodes":"31","size_leaf_vector":"0"}},{"base_weights":[9.4492985E-5,3.8170991E-3,-7.1458346E-1,-2.1983093E-2,1.15991995E-1,-2.1611315E-1,-9.064183E-1,-5.840924E-2,1.3621655E-1,1.2125791E-3,3.4361002E-1,-1.103224E0,8.180186E-2,3.8611814E-1,-9.8419565E-1,-2.194904E-1,-1.2782321E-2,-5.578829E-1,2.1631919E-1,6.8263054E-2,-5.1929605E-1,-3.403023E-1,4.3615136E-1,1.5187325E-2,-2.0881321E0,3.5353756E-1,-7.360012E-1,-2.821364E-1,7.573821E-1,4.929121E-1,-1.0329417E0],"categories":[],"categories_nodes":[],"categories_segments":[],"categories_sizes":[],"default_left":[1,1,1,1,1,1,1,1,1,1,1,1,1,1,1,0,0,0,0,0,0,0,0,0,0,0,0,0,0,0,0],"id":39,"left_children":[1,3,5,7,9,11,13,15,17,19,21,23,25,27,29,-1,-1,-1,-1,-1,-1,-1,-1,-1,-1,-1,-1,-1,-1,-1,-1],"loss_changes":[4.1967464E1,4.541939E1,7.620434E0,7.3533905E1,7.66677E1,6.4406004E0,6.282303E0,7.622653E1,1.3290837E2,6.815526E1,6.2408875E1,6.761854E0,4.4644494E0,1.2186413E0,4.5169144E0,0E0,0E0,0E0,0E0,0E0,0E0,0E0,0E0,0E0,0E0,0E0,0E0,0E0,0E0,0E0,0E0],"parents":[2147483647,0,0,1,1,2,2,3,3,4,4,5,5,6,6,7,7,8,8,9,9,10,10,11,11,12,12,13,13,14,14],"right_children":[2,4,6,8,10,12,14,16,18,20,22,24,26,28,30,-1,-1,-1,-1,-1,-1,-1,-1,-1,-1,-1,-1,-1,-1,-1,-1],"split_conditions":[2.3570447E0,9.3873715E-1,5.6119233E-1,1.4021245E0,8.328813E1,-9.8338103E-1,1.3970646E-1,1.3621758E2,3.8644424E1,1.4548607E0,1.1287569E2,2.6969208E1,4.7826015E1,2.5E0,-6.722984E1,-6.584712E-2,-3.8346965E-3,-1.6736488E-1,6.489576E-2,2.0478917E-2,-1.5578882E-1,-1.02090694E-1,1.3084541E-1,4.5561977E-3,-6.264397E-1,1.0606127E-1,-2.2080037E-1,-8.464093E-2,2.2721463E-1,1.4787364E-1,-3.0988252E-1],"split_indices":[22,4,4,15,28,26,15,3,11,15,3,2,7,23,17,0,0,0,0,0,0,0,0,0,0,0,0,0,0,0,0],"split_type":[0,0,0,0,0,0,0,0,0,0,0,0,0,0,0,0,0,0,0,0,0,0,0,0,0,0,0,0,0,0,0],"sum_hessian":[1.5772463E4,1.5691723E4,8.0740204E1,1.2758155E4,2.9335676E3,2.3028557E1,5.7711647E1,1.0370853E4,2.3873025E3,1.9508374E3,9.8273035E2,5.1097984E0,1.7918758E1,3.050629E0,5.4661015E1,2.2883296E3,8.082523E3,2.4638454E2,2.140918E3,1.7289834E3,2.2185397E2,1.1680724E2,8.659231E2,2.853776E0,2.2560227E0,1.38758545E1,4.0429044E0,1.175271E0,1.8753579E0,1.4551457E0,5.320587E1],"tree_param":{"num_deleted":"0","num_feature":"29","num_nodes":"31","size_leaf_vector":"0"}},{"base_weights":[6.677785E-5,3.0339838E-3,-8.883314E-1,8.214709E-3,-4.6339998E-1,-9.4189197E-1,3.0978501E-3,9.1104466E-1,5.1754257E-3,-7.499749E-1,-1.4908494E-1,-5.838695E-4,-9.6129036E-1,9.958913E-1,-6.666316E-1,1.1169844E0,3.1983423E-1,1.7354427E-1,-1.1625203E-2,-7.7824706E-1,2.6114458E-1,-8.02275E-1,5.3940635E-2],"categories":[],"categories_nodes":[],"categories_segments":[],"categories_sizes":[],"default_left":[1,1,1,1,1,1,1,1,1,1,1,0,0,0,0,0,0,0,0,0,0,0,0],"id":40,"left_children":[1,3,5,7,9,11,13,15,17,19,21,-1,-1,-1,-1,-1,-1,-1,-1,-1,-1,-1,-1],"loss_changes":[4.1564907E1,3.7979305E1,2.5089989E0,4.264638E1,1.5439716E1,9.036064E-1,3.3046765E0,5.9915733E0,4.3825706E1,2.7778206E0,1.1128305E1,0E0,0E0,0E0,0E0,0E0,0E0,0E0,0E0,0E0,0E0,0E0,0E0],"parents":[2147483647,0,0,1,1,2,2,3,3,4,4,5,5,6,6,7,7,8,8,9,9,10,10],"right_children":[2,4,6,8,10,12,14,16,18,20,22,-1,-1,-1,-1,-1,-1,-1,-1,-1,-1,-1,-1],"split_conditions":[-3.075845E-1,4.780958E0,2.065575E2,-3.7986636E0,7.914955E1,1.11817955E2,-3.4501572E0,7.745088E-1,-9.918082E-1,3.5058513E0,-9.984293E-1,-1.7516087E-4,-2.8838712E-1,2.987674E-1,-1.9998948E-1,3.3509532E-1,9.5950276E-2,5.2063283E-2,-3.4875611E-3,-2.3347412E-1,7.834338E-2,-2.4068251E-1,1.6182192E-2],"split_indices":[26,25,3,27,8,3,17,22,26,24,26,0,0,0,0,0,0,0,0,0,0,0,0],"split_type":[0,0,0,0,0,0,0,0,0,0,0,0,0,0,0,0,0,0,0,0,0,0,0],"sum_hessian":[1.576579E4,1.5714302E4,5.1488403E1,1.554265E4,1.7165128E2,4.851672E1,2.9716835E0,5.1144817E1,1.5491506E4,8.906277E1,8.258851E1,1.0004388E0,4.751628E1,1.0009258E0,1.9707577E0,3.7272247E1,1.3872571E1,1.4047147E3,1.4086791E4,8.686424E1,2.1985211E0,1.888348E1,6.3705032E1],"tree_param":{"num_deleted":"0","num_feature":"29","num_nodes":"23","size_leaf_vector":"0"}},{"base_weights":[-2.1201017E-4,2.9335646E-3,-8.086279E-1,5.1653683E-3,-1.0403988E0,4.4283593E-1,-8.510374E-1,-1.3009854E-2,1.335701E-1,-9.321104E-3,-1.1002994E0,2.0513156E-1,-8.807652E-1,3.831924E-2,-1.6697556E-1,-8.1570627E-4,2.2595431E-1,-2.6051295E-1,-1.1298803E0,-9.1370547E-1,-1.9047853E-1],"categories":[],"categories_nodes":[],"categories_segments":[],"categories_sizes":[],"default_left":[1,1,1,1,1,0,1,1,1,0,1,0,1,0,0,0,0,0,0,0,0],"id":41,"left_children":[1,3,5,7,9,-1,11,13,15,-1,17,-1,19,-1,-1,-1,-1,-1,-1,-1,-1],"loss_changes":[4.0146046E1,3.662398E1,3.6245117E0,3.662723E1,2.0632935E0,0E0,2.049694E0,1.0866036E2,2.416029E1,0E0,4.936638E-1,0E0,1.1467438E0,0E0,0E0,0E0,0E0,0E0,0E0,0E0,0E0],"parents":[2147483647,0,0,1,1,2,2,3,3,4,4,6,6,7,7,8,8,10,10,12,12],"right_children":[2,4,6,8,10,-1,12,14,16,-1,18,-1,20,-1,-1,-1,-1,-1,-1,-1,-1],"split_conditions":[9.2251144E1,1.2633295E2,2.915128E0,3.2125762E0,2.757988E0,1.3285078E-1,-1.8281293E0,3.0336657E0,3.0961814E0,-2.7963312E-3,-3.4654279E0,6.153947E-2,1.4394405E0,1.1495773E-2,-5.009267E-2,-2.447119E-4,6.77863E-2,-7.8153886E-2,-3.389641E-1,-2.7411166E-1,-5.714356E-2],"split_indices":[2,28,25,24,25,0,21,24,25,0,24,0,21,0,0,0,0,0,0,0,0],"split_type":[0,0,0,0,0,0,0,0,0,0,0,0,0,0,0,0,0,0,0,0,0],"sum_hessian":[1.5785369E4,1.5725179E4,6.0190857E1,1.5692605E4,3.2573174E1,1.6634061E0,5.852745E1,1.3747584E4,1.9450216E3,1.8518891E0,3.0721283E1,1.4407368E0,5.708671E1,1.031089E4,3.4366938E3,7.9278925E2,1.1522323E3,1.3790035E0,2.934228E1,5.417771E1,2.9090023E0],"tree_param":{"num_deleted":"0","num_feature":"29","num_nodes":"21","size_leaf_vector":"0"}},{"base_weights":[-3.396011E-4,6.481418E-3,-3.2912424E-1,-1.3732769E-2,1.5910326E-1,-1.8777488E-1,-1.011172E0,1.0812517E-1,-4.8783995E-2,-4.3883777E-1,2.4814971E-1,-7.383782E-1,-1.0010164E-1,-1.2734511E0,4.9695024E-1,-2.7389193E-1,1.8282214E-1,-7.404901E-2,2.4018535E-1,-5.4845642E-2,-1.0014222E0,4.588654E-2,3.14705E-1,-8.4003E-1,6.785494E-1,-1.9872144E0,-6.848041E-2,-1.343203E0,-3.2852685E-1,-1.0975505E0,8.441771E-1],"categories":[],"categories_nodes":[],"categories_segments":[],"categories_sizes":[],"default_left":[1,1,1,1,1,1,1,1,1,1,1,1,1,1,1,0,0,0,0,0,0,0,0,0,0,0,0,0,0,0,0],"id":42,"left_children":[1,3,5,7,9,11,13,15,17,19,21,23,25,27,29,-1,-1,-1,-1,-1,-1,-1,-1,-1,-1,-1,-1,-1,-1,-1,-1],"loss_changes":[3.5123787E1,4.733879E1,3.0498165E1,5.7880558E1,9.5661026E1,1.2713713E1,2.2157131E1,8.643169E1,7.684966E1,5.0273933E1,2.1021019E1,5.7882996E0,1.3569059E1,2.6324768E0,5.7880964E0,0E0,0E0,0E0,0E0,0E0,0E0,0E0,0E0,0E0,0E0,0E0,0E0,0E0,0E0,0E0,0E0],"parents":[2147483647,0,0,1,1,2,2,3,3,4,4,5,5,6,6,7,7,8,8,9,9,10,10,11,11,12,12,13,13,14,14],"right_children":[2,4,6,8,10,12,14,16,18,20,22,24,26,28,30,-1,-1,-1,-1,-1,-1,-1,-1,-1,-1,-1,-1,-1,-1,-1,-1],"split_conditions":[1.991952E0,1.4753481E0,1.4185488E0,9.064675E0,4.0418217E1,2.11115E1,5.617857E1,7.598032E0,1.2567251E0,-8.357301E-1,3.5E0,2.0572343E2,1.3837789E-1,4.2212708E1,2.616294E0,-8.216758E-2,5.4846644E-2,-2.2214703E-2,7.205561E-2,-1.6453693E-2,-3.0042666E-1,1.3765962E-2,9.441151E-2,-2.52009E-1,2.0356484E-1,-5.9616435E-1,-2.0544123E-2,-4.029609E-1,-9.855806E-2,-3.2926518E-1,2.5325316E-1],"split_indices":[15,15,22,1,13,12,12,19,22,26,16,3,22,17,25,0,0,0,0,0,0,0,0,0,0,0,0,0,0,0,0],"split_type":[0,0,0,0,0,0,0,0,0,0,0,0,0,0,0,0,0,0,0,0,0,0,0,0,0,0,0,0,0,0,0],"sum_hessian":[1.5659808E4,1.5342489E4,3.1731747E2,1.3548899E4,1.7935905E3,2.639012E2,5.3416264E1,3.0261614E3,1.0522738E4,2.3197379E2,1.5616167E3,3.522982E1,2.2867139E2,4.5635376E1,7.7808876E0,4.9450165E2,2.5316597E3,9.677374E3,8.4536346E2,1.3852263E2,9.345116E1,3.870505E2,1.1745663E3,3.3251472E1,1.978346E0,2.7493536E0,2.2592203E2,4.2105743E1,3.529633E0,1.0049864E0,6.7759013E0],"tree_param":{"num_deleted":"0","num_feature":"29","num_nodes":"31","size_leaf_vector":"0"}},{"base_weights":[-3.2217384E-4,1.9018615E-2,-1.1465984E-1,-3.640961E-2,1.1056671E-1,1.710042E-2,-2.770097E-1,1.0754163E-2,-3.3171442E-1,2.3391701E-1,-5.7505395E-2,-8.83295E-2,4.1787902E-1,-1.2347513E-1,-4.8504853E-1,-3.6945023E-2,2.6957878E-1,-6.337257E-1,-4.3451563E-2,1.3962533E-1,3.741762E-1,1.1263731E-1,-1.6577874E-1,3.2991853E-2,-4.801263E-1,-2.2170481E-1,6.416811E-1,-3.74203E-2,-6.3262594E-1,-6.2148166E-1,1.3639703E-1],"categories":[],"categories_nodes":[],"categories_segments":[],"categories_sizes":[],"default_left":[1,1,1,1,1,1,1,1,1,1,1,1,1,1,1,0,0,0,0,0,0,0,0,0,0,0,0,0,0,0,0],"id":43,"left_children":[1,3,5,7,9,11,13,15,17,19,21,23,25,27,29,-1,-1,-1,-1,-1,-1,-1,-1,-1,-1,-1,-1,-1,-1,-1,-1],"loss_changes":[3.4629326E1,6.7969635E1,4.8469894E1,1.1620971E2,1.0473828E2,5.2921673E1,3.2362366E1,8.884307E1,1.0000967E2,3.8479675E1,3.9421642E1,4.7156647E1,3.7480064E1,2.562463E1,3.660058E1,0E0,0E0,0E0,0E0,0E0,0E0,0E0,0E0,0E0,0E0,0E0,0E0,0E0,0E0,0E0,0E0],"parents":[2147483647,0,0,1,1,2,2,3,3,4,4,5,5,6,6,7,7,8,8,9,9,10,10,11,11,12,12,13,13,14,14],"right_children":[2,4,6,8,10,12,14,16,18,20,22,24,26,28,30,-1,-1,-1,-1,-1,-1,-1,-1,-1,-1,-1,-1,-1,-1,-1,-1],"split_conditions":[5.6913525E1,-7.978451E-1,-8.1193423E-1,4.4900856E1,-7.018397E-1,8.077179E-1,7.668226E1,1.0440896E0,7.8512776E-1,3.6968422E1,4.9364942E-1,1.7941269E1,1.1550961E2,9.90275E-1,7.78259E1,-1.1083507E-2,8.087364E-2,-1.9011772E-1,-1.303547E-2,4.18876E-2,1.1225287E-1,3.3791196E-2,-4.9733624E-2,9.897556E-3,-1.4403789E-1,-6.6511445E-2,1.9250433E-1,-1.122609E-2,-1.8978779E-1,-1.864445E-1,4.091911E-2],"split_indices":[2,26,26,18,26,22,11,22,4,18,22,19,3,4,12,0,0,0,0,0,0,0,0,0,0,0,0,0,0,0,0],"split_type":[0,0,0,0,0,0,0,0,0,0,0,0,0,0,0,0,0,0,0,0,0,0,0,0,0,0,0,0,0,0,0],"sum_hessian":[1.565761E4,1.3392958E4,2.2646523E3,8.342534E3,5.050424E3,1.2505902E3,1.01406213E3,7.1944556E3,1.1480785E3,2.912506E3,2.1379177E3,9.9074243E2,2.598478E2,5.843788E2,4.2968335E2,6.0756265E3,1.1188292E3,5.600837E2,5.879948E2,1.7428444E3,1.1696619E3,8.3140015E2,1.3065177E3,7.5719116E2,2.3355128E2,6.735872E1,1.924891E2,5.008076E2,8.357119E1,3.5233182E2,7.735153E1],"tree_param":{"num_deleted":"0","num_feature":"29","num_nodes":"31","size_leaf_vector":"0"}},{"base_weights":[3.5782455E-4,9.228298E-2,-2.0955278E-2,-4.1600227E-1,1.138259E-1,-8.4881544E-1,-1.5408903E-2,6.612292E-1,-6.180692E-1,3.5933148E-2,2.6121697E-1,-9.334176E-1,4.758481E-1,9.031692E-2,-4.57939E-2,-6.680042E-1,8.0728817E-1,-9.9809635E-1,-3.2667804E-1,-3.0275516E-4,3.809044E-1,5.504218E-2,3.6091644E-1,-1.0462563E0,-1.2549306E-1,-1.2446955E0,1.1513194E0,1.6580034E-2,4.286672E-1,3.9176118E-2,-9.422228E-2],"categories":[],"categories_nodes":[],"categories_segments":[],"categories_sizes":[],"default_left":[1,1,1,1,1,1,1,1,1,1,1,1,1,1,1,0,0,0,0,0,0,0,0,0,0,0,0,0,0,0,0],"id":44,"left_children":[1,3,5,7,9,11,13,15,17,19,21,23,25,27,29,-1,-1,-1,-1,-1,-1,-1,-1,-1,-1,-1,-1,-1,-1,-1,-1],"loss_changes":[3.0487108E1,3.2117477E1,5.7988937E1,2.637708E1,3.2257027E1,9.863514E0,4.031781E1,4.2914925E0,1.0855389E1,2.2999666E1,1.9951439E1,7.101845E0,8.066816E0,6.98937E1,4.0117672E1,0E0,0E0,0E0,0E0,0E0,0E0,0E0,0E0,0E0,0E0,0E0,0E0,0E0,0E0,0E0,0E0],"parents":[2147483647,0,0,1,1,2,2,3,3,4,4,5,5,6,6,7,7,8,8,9,9,10,10,11,11,12,12,13,13,14,14],"right_children":[2,4,6,8,10,12,14,16,18,20,22,24,26,28,30,-1,-1,-1,-1,-1,-1,-1,-1,-1,-1,-1,-1,-1,-1,-1,-1],"split_conditions":[4.9364695E-1,1.3460015E-1,1.2974559E1,4.015088E1,2.3522413E1,1.0199417E1,-9.6250135E-1,2.4584804E0,1.3972963E2,3.2703385E0,1.3973817E-1,1.5164296E1,-3.5788342E-1,2.5E0,4.9364245E-1,-2.0040128E-1,2.4218646E-1,-2.994289E-1,-9.800342E-2,-9.082655E-5,1.1427133E-1,1.6512655E-2,1.0827494E-1,-3.138769E-1,-3.764792E-2,-3.7340868E-1,3.4539583E-1,4.9740104E-3,1.2860017E-1,1.17528355E-2,-2.8266685E-2],"split_indices":[15,15,11,28,1,19,26,25,3,24,22,17,14,23,22,0,0,0,0,0,0,0,0,0,0,0,0,0,0,0,0],"split_type":[0,0,0,0,0,0,0,0,0,0,0,0,0,0,0,0,0,0,0,0,0,0,0,0,0,0,0,0,0,0,0],"sum_hessian":[1.5558931E4,2.9277925E3,1.2631138E4,1.1830014E2,2.8094922E3,8.304922E1,1.2548089E4,1.832675E1,9.997339E1,1.8389132E3,9.7057904E2,7.834116E1,4.7080545E0,2.8007595E3,9.747329E3,1.46062E0,1.6866129E1,4.233524E1,5.7638153E1,1.6650183E3,1.7389497E2,3.1686533E2,6.5371375E2,6.848168E1,9.859478E0,1.0896975E0,3.6183572E0,2.3004666E3,5.002931E2,3.5386978E3,6.2086313E3],"tree_param":{"num_deleted":"0","num_feature":"29","num_nodes":"31","size_leaf_vector":"0"}},{"base_weights":[3.4478473E-4,5.4591633E-3,-3.7659678E-1,-2.641325E-3,2.9483476E-1,-2.3460397E-1,-1.0016377E0,1.3993232E-2,-1.4648901E-1,-6.8374306E-1,5.3272176E-1,-5.9599674E-1,7.38022E-3,-1.1587692E0,1.1709485E-2,-5.4320955E-1,2.1788279E-2,-5.466383E-1,6.350319E-2,-9.0566003E-1,4.4844836E-1,-1.553229E-1,7.221935E-1,-1.306073E0,-3.9211676E-1,1.0790477E-1,-1.0643569E0,-1.2520006E0,